param weight_conv2:=
filter0:
[[-0.03137451  0.1548045   0.03153489]
 [ 0.07083507  0.1816258   0.05122929]
 [ 0.07625441  0.11263003  0.11854776]
 [ 0.04007696 -0.04539283  0.07981584]
 [ 0.00348342 -0.12448739 -0.12186772]
 [-0.03662299 -0.11495266 -0.1436902 ]
 [-0.09119863 -0.00618105  0.04174258]
 [-0.0527927   0.07978804  0.16917975]]
[[ 0.02579812 -0.04027101  0.0675609 ]
 [ 0.01176297  0.04703563  0.07267448]
 [ 0.06889387 -0.00081127  0.06410725]
 [ 0.02801832 -0.03061216  0.01897687]
 [ 0.06042909 -0.12976795 -0.02763731]
 [ 0.06293888 -0.1325685  -0.04874169]
 [ 0.06277079  0.05919289 -0.03452267]
 [ 0.00474457  0.05631702  0.09562105]]
[[-0.06379244  0.09630057  0.13036601]
 [-0.09825432  0.10134904  0.1615833 ]
 [-0.04696316  0.07534596  0.02203419]
 [ 0.02977518 -0.03468023 -0.14024767]
 [ 0.1174595  -0.05029546 -0.26533672]
 [ 0.00347431 -0.07577607 -0.13867304]
 [-0.12228245 -0.0603595   0.02894739]
 [-0.00681277  0.00781845  0.04587932]]
[[-0.01503478 -0.05451977  0.18524534]
 [ 0.0193061   0.06451565  0.06853616]
 [-0.04438442  0.0634248   0.20573227]
 [ 0.05031651  0.0732743  -0.04167097]
 [ 0.22931321  0.16635194 -0.00058484]
 [-0.01956986 -0.06252316 -0.03710661]
 [-0.27494046 -0.2763273  -0.18339892]
 [-0.03084433 -0.00249093  0.08434682]]
[[ 0.06683166 -0.02140026 -0.02601148]
 [ 0.03655482 -0.03250096 -0.08307135]
 [ 0.05072031 -0.08264285 -0.05707668]
 [ 0.01050059 -0.08879266 -0.0485151 ]
 [-0.15674372 -0.1332628   0.01624176]
 [-0.08581278 -0.04347948 -0.01094601]
 [ 0.00264892  0.03143626 -0.03718075]
 [-0.01386447 -0.0154047  -0.08248178]]
[[-0.00474303  0.08662449  0.04018407]
 [-0.04198468  0.0576957   0.03441633]
 [ 0.05104785  0.07888103  0.11060359]
 [ 0.08984027  0.03111312 -0.00882722]
 [ 0.08789264  0.05645438  0.08064172]
 [ 0.08715038  0.10073972  0.03476811]
 [-0.02134547  0.05555092  0.0681652 ]
 [ 0.03834268  0.07353114  0.03599155]]
[[-0.12306251  0.00602144  0.1217395 ]
 [-0.15856157 -0.02821152  0.07799076]
 [-0.15714864 -0.10134571  0.00248568]
 [-0.08186356 -0.03100624 -0.16785507]
 [ 0.23443805  0.08775964 -0.12816516]
 [ 0.11783021  0.08858261  0.01103503]
 [-0.03014846 -0.11055981 -0.049324  ]
 [-0.04501691 -0.08663768 -0.01269207]]
[[ 0.08761576 -0.00930268 -0.12558281]
 [ 0.02143718  0.00032682 -0.03099927]
 [ 0.01720569 -0.04112814 -0.01476525]
 [-0.00038015  0.06053103  0.08147047]
 [-0.16118042 -0.01613234  0.18856682]
 [-0.09095147 -0.02757035  0.00364274]
 [ 0.05110413 -0.04355146 -0.08306696]
 [-0.00033265 -0.03613709 -0.05543425]]
[[ 0.01655789  0.05140998 -0.01185657]
 [ 0.05879502  0.04080162  0.00025194]
 [ 0.04726966  0.10167769 -0.00155689]
 [ 0.03809787  0.02019877  0.03117089]
 [ 0.09709632 -0.0012297  -0.01026021]
 [-0.05710785 -0.19342256 -0.12644975]
 [ 0.0214386   0.00288464 -0.00596821]
 [ 0.08264446  0.1365716   0.1354141 ]]
[[-0.05721426 -0.02180633  0.04563966]
 [-0.08585712 -0.0483955  -0.00858355]
 [-0.00792799  0.03760188 -0.02937208]
 [ 0.11636209  0.06498821 -0.01240082]
 [ 0.20644793  0.13624734 -0.00825148]
 [ 0.05304572  0.02862272  0.0146273 ]
 [-0.05121155 -0.04785753  0.02895031]
 [-0.01016178 -0.0062125  -0.00084078]]
[[-0.04964418  0.02667961 -0.01087765]
 [ 0.05836466  0.04608037 -0.02062823]
 [ 0.17037833  0.18195368  0.00757914]
 [ 0.1427467   0.1138631  -0.09030605]
 [ 0.12850246 -0.17924659 -0.3298833 ]
 [-0.07611912 -0.21267946 -0.216038  ]
 [-0.04430787  0.08381207  0.16364348]
 [ 0.08265536  0.11613602  0.21547376]]
[[-0.07113957  0.07876793  0.06977063]
 [-0.00507258  0.12035528  0.12758532]
 [-0.03425499  0.05431275  0.0681299 ]
 [ 0.01931705 -0.05985015 -0.10516728]
 [ 0.13049878 -0.16575548 -0.29590404]
 [ 0.06299107 -0.01832682 -0.05765637]
 [-0.02088305  0.08657903  0.1212353 ]
 [-0.04146052 -0.02110821  0.00785999]]
[[-0.03042428 -0.00769467  0.00407895]
 [ 0.00840817  0.03657123 -0.01042272]
 [ 0.01150866 -0.02575329 -0.05092482]
 [ 0.03141497 -0.06001929 -0.04967988]
 [-0.04911077 -0.09551444 -0.04432613]
 [-0.01005707 -0.11813772 -0.06649283]
 [ 0.00756349 -0.00579704  0.02093307]
 [ 0.01861183  0.05003073  0.04860928]]
[[ 7.74465650e-02  8.35741684e-02  6.67892322e-02]
 [ 4.87156697e-02  8.16341266e-02  2.88965590e-02]
 [-1.57706868e-02  2.96313595e-02  1.56922936e-02]
 [-1.07566625e-01  2.65771348e-04  8.22780654e-02]
 [-3.18716943e-01 -2.68639416e-01 -4.24554236e-02]
 [-1.04545234e-02 -1.07605057e-02  2.94954032e-02]
 [ 1.39632389e-01  1.82992741e-01  4.41438891e-02]
 [-3.92094180e-02 -5.24198003e-02 -6.08163550e-02]]
[[ 0.09785351  0.03477016 -0.18276377]
 [ 0.18447456  0.13774079 -0.13931656]
 [ 0.2096322   0.05722839 -0.0891321 ]
 [ 0.0925647  -0.0839791   0.04971585]
 [-0.12251597 -0.22052233  0.00722306]
 [-0.0631707  -0.07154151 -0.0694783 ]
 [ 0.07682396  0.15017875  0.05285705]
 [ 0.00733051  0.12396915  0.14455938]]
[[-0.03475068  0.00495576  0.03060169]
 [-0.02644082 -0.03685343  0.01891948]
 [ 0.00963853 -0.02734027 -0.02721957]
 [ 0.0038302  -0.05137423  0.01439067]
 [ 0.01004932 -0.02995972  0.00777247]
 [-0.02108692  0.0145624   0.02576146]
 [-0.01477231  0.01180261  0.00751653]
 [-0.01625462 -0.01219615 -0.00070784]]

filter1:
[[ 0.07462082 -0.11970947 -0.03514782]
 [ 0.06332812 -0.03984349 -0.04479175]
 [ 0.07589808 -0.04539159 -0.03184936]
 [ 0.08101765 -0.11323041 -0.08000412]
 [ 0.03319354 -0.11426722 -0.01930709]
 [ 0.01285607 -0.08592192 -0.00974757]
 [-0.03089602 -0.10321743 -0.03823096]
 [ 0.01071806 -0.11373851 -0.03816241]]
[[-0.00393283  0.03607792  0.03145573]
 [-0.00923112  0.00871686  0.05089111]
 [-0.01179322 -0.05560543  0.00584477]
 [-0.07327133 -0.01840664  0.0586998 ]
 [-0.01237591  0.00327544 -0.03702065]
 [-0.02173224 -0.06024417  0.00220632]
 [ 0.00898256 -0.05867387  0.00615864]
 [ 0.04062016 -0.03026791  0.01068217]]
[[ 0.04247113  0.00548816  0.02013791]
 [ 0.03423253  0.01924261  0.03434251]
 [-0.01250327 -0.04213364  0.01923074]
 [-0.02717363 -0.03460629  0.04304948]
 [-0.04911616 -0.10227358 -0.06134246]
 [ 0.02799898 -0.02637155 -0.04275536]
 [-0.05135281 -0.12349984 -0.07164171]
 [-0.05686427 -0.05281263 -0.00483868]]
[[ 0.03511655  0.03205957 -0.10097089]
 [ 0.00322747  0.02435602 -0.02292689]
 [-0.0282758   0.02744625  0.00435967]
 [-0.01784093  0.03557451  0.03305574]
 [-0.00372218  0.02363393 -0.02525087]
 [ 0.07497287  0.11405258  0.0724662 ]
 [ 0.01722409  0.10030959  0.00564338]
 [-0.00486546  0.04158628 -0.02289175]]
[[ 0.03001211  0.09821612  0.09133267]
 [ 0.02204522 -0.00038099  0.03470948]
 [ 0.07719059  0.05782329  0.02289337]
 [ 0.07403377  0.07030958  0.0016387 ]
 [ 0.07698898  0.03348959  0.02253982]
 [ 0.00519124  0.05704387  0.04830385]
 [-0.01598179 -0.00565265  0.03587518]
 [-0.00315466 -0.03421069  0.00404857]]
[[-0.00071762  0.06269117  0.0308016 ]
 [ 0.06510463  0.08280405 -0.00378725]
 [ 0.04450276  0.08421003  0.03183052]
 [ 0.03076302 -0.01072371 -0.00073745]
 [ 0.05094829  0.00146024  0.00394187]
 [ 0.03468456  0.03015011  0.03129408]
 [ 0.0245126  -0.01402377  0.01795736]
 [ 0.07619667  0.076839    0.0169219 ]]
[[ 0.01402046  0.04309934 -0.10855538]
 [ 0.03889146  0.01970968 -0.00566483]
 [ 0.01635447 -0.05410301 -0.03659384]
 [ 0.05667546 -0.06628196 -0.03045998]
 [ 0.03773221 -0.05586103 -0.03233336]
 [ 0.10495353 -0.05494773 -0.0610976 ]
 [ 0.05572136 -0.00228409 -0.05138326]
 [ 0.01727107 -0.10416894  0.02959007]]
[[ 0.02953257  0.03033714  0.07129042]
 [ 0.08063556  0.11599968  0.06041798]
 [ 0.05604423  0.09874133  0.0487162 ]
 [ 0.00175283  0.02395698  0.05316572]
 [ 0.01948383  0.12101902  0.11014691]
 [-0.02718028  0.1342012   0.11038545]
 [ 0.00884034  0.10564763  0.15970898]
 [-0.08164937 -0.05147907  0.12415263]]
[[-0.06958412 -0.02449055  0.07349883]
 [-0.06116103 -0.11507172  0.06582582]
 [-0.0297981  -0.10279008  0.05343816]
 [-0.01155742 -0.12717976  0.00123265]
 [-0.00347262 -0.1607995   0.03534172]
 [-0.07121133 -0.09087578  0.06995625]
 [-0.05927508 -0.1381691  -0.01120669]
 [ 0.01797728 -0.1501131   0.00025231]]
[[-0.03144469 -0.0569257   0.01871839]
 [-0.03528466 -0.00349747  0.09338805]
 [ 0.00257795 -0.0178315   0.01662197]
 [-0.06700344 -0.02704082  0.08866506]
 [-0.06983265 -0.09750898  0.00532089]
 [-0.07233199 -0.06228029 -0.0056487 ]
 [ 0.01144879 -0.07796953 -0.0430846 ]
 [-0.0161052  -0.03899225 -0.03103286]]
[[-0.0078728  -0.10176934  0.06499737]
 [ 0.04297356 -0.07236711 -0.00237398]
 [ 0.00297013 -0.10518266 -0.05331443]
 [ 0.00642714 -0.07033897 -0.07313333]
 [-0.04763927 -0.10542873 -0.05423861]
 [-0.07095661 -0.04827181  0.041677  ]
 [-0.01301924 -0.01494021 -0.00367516]
 [-0.08193178 -0.05527147 -0.01182497]]
[[ 0.07569828 -0.10560536 -0.06881666]
 [ 0.04018581 -0.11350022 -0.14830688]
 [ 0.09527195 -0.06099986 -0.13014585]
 [ 0.05860637 -0.12051506 -0.09154913]
 [ 0.07102783 -0.1137908  -0.10870252]
 [ 0.08368095 -0.03554671 -0.09895545]
 [ 0.09299708 -0.09446757 -0.04991866]
 [ 0.03180244 -0.05912275 -0.0393941 ]]
[[-0.02006848 -0.02264473  0.04254668]
 [ 0.00093771  0.02636687 -0.03453523]
 [-0.08730348 -0.05194853  0.06477566]
 [-0.10478777 -0.0965729   0.02799041]
 [-0.00684405 -0.01607878  0.05818948]
 [-0.02893813  0.0125598  -0.01834504]
 [-0.00790446 -0.02960844  0.04799617]
 [ 0.03920257  0.04217298 -0.00777376]]
[[-0.04998543  0.04247189  0.13635589]
 [-0.06332365 -0.01385841  0.03549388]
 [-0.04069806  0.03936158 -0.00538217]
 [-0.04780397 -0.06171367  0.09101085]
 [-0.04651066  0.01018906  0.05031204]
 [-0.04996092  0.04176941  0.04235463]
 [-0.00300675  0.08958793  0.1373288 ]
 [ 0.06337356  0.01388392  0.03367208]]
[[-0.03293189 -0.07110421 -0.00731164]
 [ 0.00463755 -0.02292519 -0.06897468]
 [ 0.07925168  0.00327372 -0.0331189 ]
 [-0.05802431  0.01710999  0.00160634]
 [-0.06417031 -0.03256382 -0.04755156]
 [-0.01201596  0.03232508 -0.06907455]
 [ 0.07589526  0.031626   -0.03890943]
 [ 0.00296484  0.0486441  -0.05990037]]
[[ 0.01463464  0.03368593  0.03310698]
 [-0.01587252  0.03739519 -0.00045005]
 [-0.03919384  0.04207925  0.04486725]
 [-0.00950709  0.0207018  -0.02572746]
 [-0.01233713  0.00118898  0.01262011]
 [ 0.00053021  0.0399002  -0.00286284]
 [ 0.01373697  0.01611226  0.04717832]
 [-0.00815857  0.0517931  -0.01863037]]

filter2:
[[-0.0494948  -0.04285238  0.1002892 ]
 [ 0.00393234 -0.02663091  0.08950558]
 [ 0.05530369 -0.1033473  -0.10440742]
 [ 0.02352803 -0.08228565 -0.14848465]
 [ 0.03540944  0.00877636  0.07943992]
 [ 0.03434904 -0.00801908  0.14963958]
 [ 0.00680961 -0.03522495 -0.025187  ]
 [-0.00809585 -0.06048787 -0.097695  ]]
[[ 0.0608581   0.12093507  0.04905346]
 [ 0.01044888  0.04153825  0.02541325]
 [-0.0116191  -0.0548067  -0.02717267]
 [ 0.01574698 -0.03353478 -0.04239627]
 [ 0.04101617  0.04483081 -0.02994629]
 [-0.02193841  0.05137645 -0.00652311]
 [ 0.02297174  0.0132042  -0.01808458]
 [-0.01637189  0.00988033 -0.0586734 ]]
[[-0.10004326 -0.05934623  0.0074036 ]
 [ 0.11493101 -0.01657262 -0.07882717]
 [ 0.20065436  0.03515368 -0.07362416]
 [-0.06154357  0.00384197 -0.02314689]
 [-0.15833238 -0.0397501   0.05469644]
 [ 0.01725044 -0.02914657  0.04296438]
 [ 0.09164841  0.01946058 -0.02288387]
 [-0.03283346 -0.00892372 -0.02090563]]
[[-0.22411442 -0.1327836  -0.19187847]
 [ 0.02250787  0.02580759 -0.04885229]
 [ 0.27267617  0.17232451  0.19063519]
 [-0.06980565 -0.05678672 -0.07485875]
 [-0.22002831 -0.03069777 -0.11484886]
 [-0.04337334  0.12831314  0.06949589]
 [ 0.15233442  0.20994367  0.19611356]
 [-0.03698909 -0.03516807  0.05214443]]
[[ 0.05438235  0.02897913  0.01412042]
 [-0.00310424  0.03319599  0.03070826]
 [-0.07879008 -0.07989002 -0.05647627]
 [ 0.02578044 -0.01599557 -0.02069932]
 [ 0.11364519  0.10354736  0.02544512]
 [ 0.06826697  0.02097508  0.05062285]
 [-0.05510646 -0.01609304  0.02819787]
 [-0.03244355 -0.01834791  0.02392317]]
[[-0.02740217  0.00733245  0.03793082]
 [ 0.00116758  0.02420723  0.02617961]
 [ 0.04900312  0.11006726  0.11272613]
 [-0.03452434  0.06098535  0.01456188]
 [-0.0316244  -0.00830546  0.05683255]
 [ 0.05104697  0.06704903 -0.00789468]
 [ 0.01778463  0.06235883  0.01669896]
 [ 0.02551648 -0.00461879 -0.0105916 ]]
[[-0.10416139 -0.1534178  -0.06550581]
 [-0.03255121 -0.06703019 -0.04584917]
 [ 0.20023721  0.1819655   0.1268523 ]
 [ 0.06167233  0.11994605  0.13520353]
 [-0.16775379 -0.15667337 -0.05921232]
 [-0.10949601 -0.14021978 -0.10508908]
 [ 0.10047472  0.0981285   0.01935138]
 [ 0.08051353  0.09126516  0.05803819]]
[[ 0.13640578  0.06110145 -0.00473113]
 [-0.02733326  0.02348784  0.03537386]
 [-0.28519383 -0.19273639 -0.07100847]
 [-0.00619532 -0.07021798 -0.05519072]
 [ 0.15661708  0.03728295 -0.05068784]
 [ 0.06994148  0.06680765  0.03365949]
 [-0.09961728 -0.00547233  0.07278787]
 [-0.02625982 -0.05527986  0.00121839]]
[[-0.06446611 -0.0124637   0.00284073]
 [ 0.05077352  0.1061841   0.04975008]
 [ 0.07533896  0.03297836  0.02741101]
 [-0.01105604 -0.11444869 -0.07727536]
 [-0.03110187  0.02844729 -0.02528884]
 [-0.01150042  0.06845936  0.10505915]
 [ 0.00805843 -0.04441164  0.08357064]
 [-0.04754978 -0.03923585 -0.03811397]]
[[-0.03173251 -0.02891992 -0.01820853]
 [ 0.10644866  0.01653989  0.01346124]
 [ 0.13450149  0.13763419  0.03144476]
 [-0.05414926 -0.0414217  -0.02114565]
 [-0.12084654 -0.15049744 -0.09941272]
 [-0.01946736 -0.0506902  -0.04982755]
 [ 0.05928649  0.02245411 -0.03938301]
 [-0.00570166  0.01729902  0.01483032]]
[[-0.02702117  0.05873478  0.106857  ]
 [ 0.08897915  0.09748868  0.08354375]
 [-0.05691836 -0.18785018 -0.2937383 ]
 [-0.11151056 -0.15393293 -0.12742296]
 [ 0.07274311  0.10767271  0.16051826]
 [ 0.04052056  0.0750416   0.1096436 ]
 [-0.01392991 -0.10016475  0.01727785]
 [-0.01695802 -0.07098003 -0.04508428]]
[[-0.15563901 -0.00479277  0.13326362]
 [-0.0099538  -0.12772803 -0.09470377]
 [ 0.09906243 -0.08595565 -0.18461505]
 [ 0.0696147   0.03190472  0.06887386]
 [-0.05571924  0.05584053  0.11299496]
 [ 0.0193667  -0.01941309 -0.00538095]
 [ 0.05344749 -0.00210752 -0.03734656]
 [ 0.03866835  0.03576254  0.02817643]]
[[ 0.02853781  0.04269725  0.01896444]
 [ 0.02245165  0.04648365  0.00881574]
 [-0.04315426 -0.12462575 -0.10940067]
 [-0.00243957 -0.05071358 -0.06952684]
 [ 0.07355561  0.06079051  0.01834834]
 [ 0.00395662  0.07929071  0.0824317 ]
 [-0.01732549 -0.04903079 -0.01162105]
 [ 0.01020905 -0.05239325 -0.02919417]]
[[ 0.17107677  0.21186358  0.11712899]
 [-0.10962948 -0.15430036 -0.12976219]
 [-0.33099708 -0.43447584 -0.19375227]
 [ 0.07265279  0.14437474  0.12439871]
 [ 0.2341601   0.24256928  0.18763538]
 [ 0.0235859   0.02996999  0.03107661]
 [-0.0818181  -0.20260493 -0.02323846]
 [ 0.04569385  0.05379903  0.04243758]]
[[ 7.46703371e-02  3.60279195e-02  6.21514171e-02]
 [-6.54293001e-02 -9.00577083e-02  3.94482377e-05]
 [-1.16971955e-01 -1.21130638e-01 -1.94803596e-01]
 [ 7.62200505e-02 -1.65536497e-02 -1.12196840e-01]
 [ 1.19020700e-01  1.11450262e-01  9.11104158e-02]
 [-3.79804485e-02  9.00038555e-02  1.09603852e-01]
 [-4.73380648e-02 -9.36777815e-02 -4.61054295e-02]
 [ 5.49183786e-02 -1.09008206e-02 -4.87268791e-02]]
[[ 0.02023737 -0.01331506 -0.02514303]
 [-0.04767754 -0.03192957 -0.03862601]
 [-0.04246933 -0.10528977 -0.02884286]
 [ 0.02991785 -0.01351235 -0.01222486]
 [ 0.01183925  0.02790479  0.01599274]
 [ 0.011545   -0.00316388 -0.023338  ]
 [-0.01949577 -0.03128147 -0.00206684]
 [ 0.00632193 -0.00320192  0.01729579]]

filter3:
[[-0.0975161  -0.0510573   0.06616045]
 [-0.00655409  0.017682    0.09838568]
 [-0.04306878 -0.0093125   0.00048072]
 [-0.02759519 -0.11570334 -0.08462142]
 [ 0.0081448  -0.1281083  -0.01581797]
 [-0.08695377 -0.02925146 -0.02633185]
 [-0.08141281 -0.02549976  0.11003707]
 [-0.03684691 -0.02921651  0.04919221]]
[[-0.01835778 -0.06351241  0.06402028]
 [-0.01514023 -0.0533771   0.09442567]
 [ 0.02413048 -0.03181755 -0.02220681]
 [ 0.05494578 -0.02727236  0.01938573]
 [ 0.12324534 -0.03705218  0.04215264]
 [ 0.14038646 -0.0134765   0.10548635]
 [ 0.05190228  0.01069315  0.0095129 ]
 [ 0.04458543 -0.04009642 -0.00701833]]
[[ 0.0042148  -0.07685902 -0.00347944]
 [-0.04327692 -0.02511899  0.10253946]
 [-0.025909    0.09300228  0.12609546]
 [ 0.03532433  0.03354821  0.10962821]
 [-0.00367501 -0.0026537   0.00055469]
 [-0.10314196 -0.05708592  0.05693626]
 [-0.04140657  0.04528905  0.08184122]
 [ 0.0191069   0.00479113  0.00019641]]
[[-0.13517506 -0.05999544 -0.1384279 ]
 [-0.03469045 -0.07586067 -0.11264717]
 [ 0.0523452   0.05478872 -0.01161688]
 [-0.17327233 -0.09356247 -0.22752014]
 [ 0.00834047 -0.09422819 -0.11203889]
 [ 0.05278882 -0.15104866  0.03250439]
 [-0.11391805 -0.12197975 -0.08507963]
 [-0.00205636  0.005929   -0.05746321]]
[[ 0.02833503  0.00589122  0.02361429]
 [ 0.01730131  0.02203702  0.0313326 ]
 [-0.05382981 -0.07524036 -0.06625404]
 [-0.12123297 -0.0884429  -0.0970733 ]
 [-0.02822287  0.03667846  0.04373004]
 [-0.02500038  0.06134572  0.00260585]
 [ 0.0073724   0.01572707  0.06762935]
 [-0.01100486  0.01976964  0.01223247]]
[[ 0.02820844 -0.02491908 -0.02574385]
 [-0.07166738 -0.05197353  0.00100474]
 [-0.06895864 -0.03883145  0.00502751]
 [ 0.02018149  0.02033722 -0.03762499]
 [-0.07588357 -0.09086833 -0.04185787]
 [-0.03168145 -0.04919387 -0.01724718]
 [ 0.0023108  -0.07137049  0.00318319]
 [-0.04737325  0.01830297 -0.04118984]]
[[ 0.08420843  0.05041945 -0.02218707]
 [ 0.03400346  0.02476306  0.02376317]
 [ 0.06034312  0.19564003  0.10711928]
 [ 0.06345396  0.20658833  0.20696793]
 [ 0.11180743  0.04503481  0.08050764]
 [ 0.06701616  0.0225016   0.04998209]
 [ 0.07461895  0.10594121  0.07791986]
 [ 0.05097068  0.12011331  0.08459044]]
[[-0.00254836  0.03472319  0.04403515]
 [ 0.0333442   0.03225668  0.02852194]
 [-0.13388155 -0.10308125 -0.10945233]
 [-0.08602301 -0.08467298 -0.12775174]
 [ 0.03996281 -0.06878071 -0.05078987]
 [ 0.01727988  0.01702169 -0.0304575 ]
 [ 0.03008524 -0.01978681 -0.08193139]
 [-0.02769268 -0.00786974  0.01853417]]
[[ 0.0393802   0.07336532  0.1185451 ]
 [ 0.07798612  0.04784811  0.10296515]
 [ 0.0641531   0.03791926  0.13339105]
 [ 0.06259796 -0.06245147  0.01018304]
 [ 0.05060809  0.01518865  0.03588395]
 [ 0.08446443 -0.03831225  0.08858506]
 [ 0.09811632 -0.03190895  0.09417108]
 [ 0.0194814   0.06906878  0.09328283]]
[[-0.01725072 -0.09507902 -0.00617249]
 [-0.09046414 -0.02522542 -0.02296102]
 [-0.03530984  0.05076187  0.09162753]
 [-0.0015654  -0.01949083  0.04973259]
 [-0.04537478 -0.0468487   0.04054535]
 [-0.04748388 -0.00242702 -0.04868139]
 [ 0.02556485 -0.01048658  0.08779956]
 [ 0.07131279  0.01065742  0.01110857]]
[[-0.01286531 -0.01618652  0.0011389 ]
 [ 0.01130765 -0.06521939  0.05861334]
 [-0.06347609 -0.08782922 -0.046373  ]
 [-0.12936541 -0.13894628 -0.11427845]
 [-0.05789211 -0.09971001 -0.08922932]
 [-0.0261895  -0.01525145  0.03091533]
 [ 0.02412652  0.00277376  0.03259557]
 [ 0.02531612  0.09236961  0.11774059]]
[[-0.02789933  0.04180835  0.02407715]
 [ 0.0351422   0.02304018  0.04117831]
 [ 0.0097534  -0.01719408  0.04335735]
 [-0.05715015 -0.08309643  0.05520843]
 [ 0.01023722 -0.0254313   0.01856048]
 [ 0.00898055 -0.01777585 -0.02332889]
 [-0.0726731   0.00869606  0.02212852]
 [-0.04177676 -0.05037656 -0.03694765]]
[[ 0.02547025  0.05673435  0.08074812]
 [-0.00263918  0.00493157  0.07355106]
 [-0.00466171 -0.0230173  -0.01007776]
 [-0.02507298 -0.0581837  -0.04684227]
 [ 0.11441682 -0.04181032  0.02841457]
 [ 0.09761246  0.09742242  0.06567175]
 [ 0.09067416  0.07058565  0.09658973]
 [ 0.03899948 -0.02605402 -0.01226807]]
[[-0.07512979 -0.11992249  0.07204507]
 [-0.04978638 -0.01355983  0.06050662]
 [-0.17706582 -0.23932067 -0.09154665]
 [-0.02500075 -0.02381717  0.09189495]
 [-0.09456266 -0.06444892  0.03844314]
 [-0.02816004 -0.02810953  0.05761357]
 [-0.02128076 -0.06802204 -0.05863895]
 [-0.04871351 -0.05955091 -0.01652888]]
[[-0.10235102 -0.00773716  0.05576027]
 [-0.00273449 -0.01140679  0.04686236]
 [-0.08987372 -0.06640489 -0.03857913]
 [-0.04244925 -0.14037824 -0.09209597]
 [-0.02289513 -0.13413228 -0.01068918]
 [-0.04778786 -0.08136736  0.04534104]
 [-0.05205509 -0.06968763  0.05576495]
 [-0.1356152  -0.03168526  0.04828054]]
[[ 0.02802322  0.05119839  0.0525422 ]
 [ 0.04084283  0.04363216  0.066526  ]
 [-0.00328317 -0.02128598  0.00643572]
 [ 0.00720906  0.06710537  0.00360115]
 [ 0.04677996  0.04388392  0.06119136]
 [ 0.0849274   0.03168558  0.01553738]
 [ 0.03132413  0.04575205  0.02037428]
 [ 0.07698343  0.00669724 -0.01540604]]

filter4:
[[-0.01369384  0.07760841 -0.01552725]
 [ 0.11542334  0.06144128  0.07145882]
 [ 0.1458115   0.05248366 -0.00332776]
 [ 0.06097671 -0.06058905 -0.0867624 ]
 [ 0.06286531 -0.02982751 -0.07578211]
 [ 0.02257169  0.00172085 -0.03080281]
 [ 0.070961    0.03242674 -0.02235614]
 [ 0.10939462  0.05131419 -0.04664353]]
[[-0.00155935  0.0307937  -0.01988479]
 [-0.07802572  0.01798227  0.03019521]
 [-0.11411331 -0.06810306 -0.00460404]
 [-0.0732455  -0.00829933 -0.06072675]
 [-0.08410676 -0.05793561 -0.07970077]
 [-0.00594347  0.02484119  0.02938307]
 [-0.05691599 -0.03691027 -0.04026318]
 [-0.1017063  -0.04746064  0.02865428]]
[[-0.12188285 -0.03752924 -0.01550281]
 [-0.0635976   0.01501133 -0.01995286]
 [ 0.03369243  0.15349814  0.02842095]
 [ 0.08969933  0.08570101 -0.07646147]
 [ 0.09827366  0.06958827 -0.07740442]
 [ 0.00337958 -0.04389943 -0.08447567]
 [ 0.03790771 -0.00756703 -0.08200297]
 [ 0.07568613 -0.00710276 -0.07032893]]
[[-0.1791464   0.00514953 -0.06636753]
 [-0.04395583  0.04954603 -0.03135424]
 [-0.03564642  0.15082437  0.18345906]
 [-0.0869697   0.02313731 -0.0982881 ]
 [-0.0084789   0.06884458 -0.14957891]
 [-0.10012408  0.05605484 -0.10795034]
 [-0.04450179  0.04550762 -0.0404431 ]
 [-0.02327848  0.12501572 -0.05503079]]
[[ 0.06616224  0.04413487  0.03798326]
 [ 0.0906835   0.01856035 -0.01925094]
 [ 0.05983086 -0.04746749 -0.08375861]
 [ 0.01504549 -0.10914529 -0.05406521]
 [ 0.0644343   0.00725708 -0.03578895]
 [ 0.03455706  0.01268039  0.02593772]
 [ 0.02358195  0.09608141  0.03664842]
 [ 0.05930814  0.04373439 -0.02387101]]
[[ 0.00606442 -0.00462681  0.05960571]
 [-0.03153306  0.04915489  0.03822377]
 [-0.03345009  0.09350236  0.1570178 ]
 [-0.02682704  0.10469387  0.13524337]
 [ 0.00172538  0.14134623  0.08894236]
 [-0.02290522  0.03871405  0.07826155]
 [-0.00475861  0.09061145  0.08270777]
 [-0.01892758  0.08294363 -0.01067658]]
[[-0.07784868 -0.15258858  0.0247348 ]
 [ 0.01888968 -0.04049142 -0.02453808]
 [ 0.08027314  0.10055112  0.13942708]
 [ 0.14216869  0.10889398  0.13118823]
 [ 0.17188513  0.11848903  0.06374674]
 [ 0.05656841  0.04793505 -0.01832072]
 [ 0.06204328 -0.03978119  0.00429956]
 [ 0.09815804 -0.00371547 -0.03133548]]
[[ 0.16501184  0.03501814  0.01403344]
 [ 0.01581422 -0.00504005 -0.00292578]
 [-0.12527867 -0.15530568 -0.01515722]
 [-0.06944881 -0.10589688 -0.02388295]
 [-0.10649209 -0.05190556 -0.02216081]
 [ 0.03108079  0.03341006  0.03460762]
 [ 0.00876776  0.07938445  0.02574352]
 [-0.04073061 -0.02092169 -0.05303792]]
[[-0.04487277 -0.19323434 -0.09158116]
 [ 0.00240022 -0.06848346 -0.04889386]
 [ 0.12604181 -0.00046923 -0.02967926]
 [ 0.11506354 -0.04591817 -0.07431898]
 [ 0.00360054  0.05645222 -0.04866008]
 [ 0.02495135 -0.03113109 -0.01544868]
 [ 0.00774694  0.04989273  0.04101303]
 [-0.02591028  0.06020693 -0.00160917]]
[[-0.0808183  -0.06361155 -0.01674274]
 [ 0.02296283  0.0165703   0.01144631]
 [-0.00823678  0.03987357 -0.00308944]
 [ 0.09621945  0.0679706  -0.03017242]
 [ 0.01449742 -0.00425376 -0.03167332]
 [-0.02771808 -0.01312657 -0.06658506]
 [-0.02270794 -0.05630006 -0.04035603]
 [ 0.02923403 -0.05339053 -0.01789386]]
[[-0.1344126   0.01387741  0.08206143]
 [ 0.0410763   0.16160442  0.12222358]
 [ 0.09589463  0.08198874 -0.05841452]
 [-0.02960544 -0.02681072 -0.20590213]
 [-0.00264752 -0.00936977 -0.2489917 ]
 [-0.03298485  0.02186862  0.03800885]
 [ 0.04859238  0.13969965  0.12501487]
 [ 0.03670141  0.10873102  0.03287424]]
[[-0.1057963   0.00887963  0.12037592]
 [ 0.00350878 -0.07063499  0.0650513 ]
 [ 0.00816304 -0.04223635  0.01786583]
 [ 0.06500968  0.06301805 -0.00633441]
 [ 0.01653704  0.06158927 -0.10598417]
 [ 0.04689607  0.02239924  0.00895563]
 [ 0.02405583  0.0435858  -0.03576062]
 [ 0.04262558  0.03381582 -0.09662815]]
[[ 0.05706692  0.07280381  0.02607468]
 [ 0.02128009  0.05635555  0.01690606]
 [ 0.02010564  0.03521117 -0.03014821]
 [ 0.03303656  0.01369079 -0.08368689]
 [ 0.057754   -0.02269009 -0.03851808]
 [ 0.05398626 -0.01888875  0.06444615]
 [ 0.05141728  0.04333716  0.07323208]
 [ 0.03407253 -0.02878732  0.00440176]]
[[ 0.18663116  0.1205866   0.04736169]
 [ 0.06488615  0.05430435 -0.0457601 ]
 [-0.09566209 -0.15977962 -0.1352965 ]
 [ 0.0120244  -0.04390404  0.0351932 ]
 [-0.00389702 -0.02654575  0.05055298]
 [ 0.06152328  0.06045631  0.0506689 ]
 [-0.09309272 -0.03429101  0.03714983]
 [-0.05801626 -0.15528496  0.03602359]]
[[ 0.08060132  0.09728173  0.03077738]
 [ 0.06663095  0.08481464  0.02075812]
 [ 0.04901696  0.00093125 -0.07002082]
 [ 0.03657402 -0.09188045 -0.11902791]
 [ 0.06878564 -0.04813907 -0.07493701]
 [-0.00874858  0.03614917 -0.01206091]
 [ 0.03838818 -0.03492573  0.11406702]
 [ 0.05771064  0.04064357  0.02888606]]
[[ 0.03486898  0.04767834  0.04336132]
 [ 0.00530777 -0.01355648 -0.00050139]
 [-0.04538013 -0.01447209  0.01548912]
 [-0.02596205 -0.01570331  0.02685841]
 [-0.01634902  0.02710078  0.05273175]
 [-0.00182102  0.0581556   0.06281809]
 [ 0.00572908  0.04003201  0.04241722]
 [-0.05340591  0.03798298  0.01198622]]

filter5:
[[ 0.04197525 -0.08169599  0.05191672]
 [ 0.08772631 -0.0872002   0.02032523]
 [ 0.08312616 -0.04605688 -0.02012726]
 [ 0.07446615 -0.0225269   0.01686876]
 [ 0.09734924 -0.02126532 -0.0305019 ]
 [ 0.03172348  0.05770948  0.07167385]
 [-0.02164455  0.06664643  0.02877878]
 [ 0.02411734  0.06397068  0.0458303 ]]
[[ 0.04982295  0.11484379  0.08606508]
 [ 0.06348846  0.00093458 -0.04458174]
 [ 0.08107519  0.06104655 -0.04971789]
 [ 0.04851902  0.06160101  0.02263109]
 [ 0.05886318  0.05931752 -0.01659734]
 [ 0.04645562  0.09519025  0.01565503]
 [ 0.07993881  0.12275379 -0.0252122 ]
 [ 0.05312268 -0.00260731 -0.03499068]]
[[-0.00408985 -0.1090947   0.00027469]
 [ 0.01155931  0.03330832 -0.0379106 ]
 [-0.03247702  0.00845434  0.04493291]
 [-0.06385455 -0.00886922 -0.04749878]
 [-0.09203184  0.00741297  0.00440963]
 [-0.06922825  0.02399423  0.06737146]
 [-0.07784797  0.0462176   0.0070362 ]
 [-0.05968849  0.02665671  0.00401784]]
[[ 0.03258402 -0.04468254  0.08296661]
 [ 0.06944951 -0.02907824  0.0509797 ]
 [ 0.19184598 -0.04977338 -0.00606873]
 [ 0.18531153 -0.09700451  0.06711688]
 [ 0.19951633  0.04629145  0.07701054]
 [ 0.09496763  0.04648322  0.00951214]
 [ 0.01986407 -0.0295886   0.0763685 ]
 [-0.0327377  -0.0818534   0.05725434]]
[[-0.03584106 -0.03041602 -0.0423413 ]
 [-0.07892939 -0.07167967 -0.04968852]
 [-0.06816433 -0.07108211 -0.03825524]
 [-0.01946865 -0.10636622 -0.03794881]
 [-0.08543617 -0.08864655 -0.07112662]
 [ 0.01014384 -0.04538714 -0.06738742]
 [ 0.00524166 -0.09538335 -0.08285934]
 [-0.01304467 -0.02256381 -0.07068858]]
[[ 0.0505027   0.025202    0.01085197]
 [ 0.03315546  0.01440796  0.03976159]
 [-0.0397555   0.02696748  0.04587092]
 [-0.00594388  0.01381008 -0.05114424]
 [-0.04240477  0.05484047 -0.02680171]
 [-0.03054282 -0.00800227  0.07271978]
 [ 0.04176537  0.08270628  0.02815552]
 [ 0.04137458  0.073782   -0.03024777]]
[[ 0.09958696  0.07407834 -0.07404261]
 [ 0.04333812  0.04925358  0.01944008]
 [-0.01121065  0.03044819  0.02222176]
 [ 0.03821177  0.00462735  0.0178294 ]
 [-0.04743467 -0.04521877 -0.00266406]
 [ 0.00952687 -0.00869242 -0.05245505]
 [ 0.01568295 -0.00436974 -0.01415076]
 [ 0.00040764 -0.06397928 -0.02557256]]
[[ 0.12532112  0.02114709  0.04443491]
 [ 0.07033357 -0.03837457 -0.01232097]
 [ 0.06702876  0.0332139   0.04385268]
 [ 0.06924506  0.03287409  0.01912982]
 [ 0.1694582   0.04628558  0.12598446]
 [ 0.07118097  0.08714142  0.08135997]
 [ 0.08203957  0.05521553  0.07035894]
 [-0.00376563  0.00827571  0.01823916]]
[[-0.0965814  -0.05158954 -0.09899771]
 [-0.0218253  -0.04961677 -0.10426942]
 [-0.03334844 -0.06208157 -0.14519355]
 [ 0.07612048 -0.11206188 -0.1040409 ]
 [ 0.02016072 -0.09796542 -0.04153096]
 [ 0.06871134  0.05527371 -0.07231046]
 [-0.08478672 -0.04723813 -0.09639423]
 [-0.04821953 -0.007334   -0.02576473]]
[[-0.04750862 -0.05093228  0.00787765]
 [ 0.01140517 -0.05186213  0.00585182]
 [-0.06108436  0.00583023  0.04158685]
 [-0.0346311  -0.00164274  0.02087002]
 [-0.07832136  0.01415397 -0.05540572]
 [-0.0089079   0.00034649  0.01092017]
 [-0.00503807  0.00985152 -0.06840648]
 [-0.09509054 -0.01521792 -0.03080015]]
[[ 0.02045478  0.01010826  0.09837089]
 [-0.00829343  0.11882859  0.09869969]
 [ 0.05235386  0.08117457  0.06435041]
 [ 0.04472247 -0.05029634  0.04664097]
 [ 0.06420936  0.10169716 -0.00317796]
 [ 0.00968008  0.06354546  0.03751558]
 [ 0.06436392  0.06020295  0.00253901]
 [ 0.10373678  0.08882517  0.06658901]]
[[ 0.08928853 -0.02492839 -0.08305565]
 [ 0.08748005  0.01898818 -0.0601005 ]
 [ 0.15997547  0.04082198 -0.03985583]
 [ 0.08587528  0.07625799  0.01472889]
 [ 0.09524944  0.15240875  0.09947111]
 [ 0.08955991  0.01401423 -0.0080046 ]
 [-0.00471846  0.14770561  0.10411435]
 [ 0.11094467  0.05117544 -0.04834898]]
[[ 0.00790436 -0.03084929 -0.00428103]
 [-0.08617973 -0.04748982 -0.04528482]
 [-0.00174105 -0.08130992 -0.04646822]
 [ 0.01696713 -0.02639739  0.06141177]
 [ 0.01950888 -0.00670605  0.07689214]
 [ 0.01988174 -0.0434614  -0.00940764]
 [-0.01773036  0.04478744 -0.0088478 ]
 [-0.02017186 -0.02509485 -0.02206974]]
[[-0.04735997 -0.04504328  0.08759028]
 [-0.06047158 -0.04866265 -0.02094625]
 [-0.09501048 -0.10938728 -0.04297234]
 [ 0.00637721 -0.05686935 -0.01786222]
 [-0.04639076 -0.02814593  0.01327581]
 [ 0.0579647  -0.03545202  0.09274348]
 [ 0.12722582  0.02434946  0.08228312]
 [-0.04223478 -0.16762903 -0.07815213]]
[[-0.04871447 -0.03761172  0.00990624]
 [ 0.01036698  0.00113715  0.03431123]
 [ 0.04034993  0.08252981  0.02861464]
 [ 0.05818363  0.13495032  0.03992318]
 [ 0.04668399  0.15641555  0.08384977]
 [ 0.0437631   0.18916577  0.03103872]
 [ 0.11775612  0.0986086   0.00615144]
 [-0.002009    0.13243733  0.02667925]]
[[-0.01483847 -0.02046281 -0.01023143]
 [-0.0051972  -0.0346297   0.01590115]
 [-0.00557938 -0.06113022 -0.02063731]
 [ 0.0454758  -0.00942811  0.0009891 ]
 [ 0.00645422 -0.06074972 -0.01148983]
 [-0.04169234 -0.05108817  0.00331201]
 [-0.02334445 -0.01637873 -0.00470251]
 [-0.01368778 -0.04018169 -0.00700977]]

filter6:
[[ 0.07216232 -0.00437295 -0.02891612]
 [ 0.03620694 -0.07357409 -0.06282414]
 [ 0.05905305 -0.09243282 -0.19072995]
 [ 0.02147901 -0.09597975  0.00427202]
 [ 0.0329797  -0.01967508 -0.01254878]
 [ 0.02203995 -0.02037607 -0.00691705]
 [ 0.02770948 -0.00633951 -0.03034612]
 [ 0.000366   -0.0412909  -0.05948621]]
[[ 0.12191668  0.1441327  -0.02226743]
 [ 0.05178321 -0.01250318 -0.02262796]
 [ 0.11456686  0.00468621  0.03012946]
 [ 0.09868436  0.08796996  0.02364618]
 [ 0.10029378  0.08644603 -0.07310935]
 [ 0.08955618  0.09403596  0.00345419]
 [ 0.0128195   0.12738034 -0.02778364]
 [ 0.01738832  0.12196474  0.03093593]]
[[-0.04440508 -0.00666284 -0.03988066]
 [-0.10214508 -0.0541165  -0.12252915]
 [-0.05661304  0.00469159 -0.12166108]
 [-0.05775819 -0.0023968  -0.02160297]
 [-0.04298848  0.0505442  -0.01941281]
 [-0.01649288  0.06435515 -0.00526707]
 [-0.00636583  0.06469546 -0.05279212]
 [ 0.032191    0.05892855 -0.01873793]]
[[ 0.01963164 -0.11287125 -0.08936567]
 [-0.07922214  0.03194533 -0.06034461]
 [ 0.10824353 -0.03312626 -0.04891509]
 [-0.06328379  0.00927209  0.01518302]
 [-0.11021502  0.00982965 -0.01141263]
 [-0.07540477 -0.02638758 -0.02726987]
 [-0.1395879   0.09811733  0.02402476]
 [-0.078599   -0.03126887 -0.0562487 ]]
[[-0.03606322 -0.08963081  0.02032426]
 [-0.01570411 -0.09511548  0.03034456]
 [-0.06056345 -0.09317641  0.04399551]
 [-0.03204574 -0.09878077  0.01304288]
 [-0.00724027 -0.08748183  0.02047728]
 [-0.06927226 -0.11205803  0.00979117]
 [ 0.00246344 -0.1157347  -0.02048394]
 [ 0.00412511 -0.11583927 -0.04533646]]
[[-0.02008991  0.05685904 -0.0039225 ]
 [ 0.01465891  0.02675233  0.00893626]
 [ 0.07835715  0.06622383  0.01391326]
 [-0.02364726  0.00583303  0.03301107]
 [ 0.01667486  0.10278128 -0.00367819]
 [-0.02539208 -0.00516782  0.08476833]
 [-0.03749009  0.03244798  0.04246241]
 [-0.06667033 -0.02236165  0.06862319]]
[[-0.05425283  0.00081343 -0.05833067]
 [-0.08673671  0.00748408 -0.10315823]
 [ 0.0175537   0.06145436 -0.05307795]
 [-0.03324759  0.03441596 -0.01121753]
 [-0.06884871 -0.0115444  -0.01210317]
 [ 0.00899882  0.08873484 -0.02328832]
 [ 0.01050299  0.01943627 -0.03847044]
 [ 0.04691213 -0.02807346 -0.07160309]]
[[-0.00719813 -0.05281774 -0.02825899]
 [ 0.02369979 -0.01646871  0.03419908]
 [-0.0565935  -0.04877438  0.05416607]
 [ 0.00284471 -0.00906187  0.00542286]
 [-0.00196401 -0.00831514  0.03728513]
 [-0.03551657 -0.02045606  0.02046153]
 [-0.03009439 -0.14462644 -0.00896578]
 [ 0.02658096 -0.09248716 -0.01027466]]
[[ 0.05307833  0.13049078 -0.04989837]
 [ 0.03152255  0.1292956  -0.03460456]
 [ 0.04618303  0.14249855 -0.05774387]
 [ 0.03890656  0.05187593  0.01241945]
 [-0.02592562 -0.00676308 -0.03435978]
 [-0.00262133  0.08896828 -0.10279532]
 [ 0.05941025  0.16668358 -0.06220398]
 [ 0.01498569  0.13587914 -0.10725822]]
[[-0.01870771  0.00259358 -0.05075129]
 [ 0.00312904 -0.0231604  -0.08099376]
 [ 0.04959331  0.00056638 -0.06378997]
 [-0.03161566  0.0204574  -0.04621377]
 [ 0.01313778  0.04699646 -0.06230619]
 [ 0.04007467  0.02177097 -0.06507558]
 [ 0.0258928   0.04931127  0.03739707]
 [ 0.01804595  0.0012917  -0.0080836 ]]
[[ 0.17136136  0.09275094 -0.07096183]
 [ 0.15349248  0.03276501 -0.10731137]
 [ 0.03205063  0.02790281 -0.202495  ]
 [ 0.08513176  0.125865   -0.09179526]
 [ 0.13238415  0.10726631 -0.00702943]
 [ 0.12890431  0.02410822  0.00504692]
 [ 0.09177754  0.15939985 -0.05588434]
 [ 0.08627428  0.1512415  -0.13531306]]
[[ 0.12428599  0.11494283  0.09274524]
 [ 0.11745571  0.08740802  0.00424262]
 [ 0.2351995   0.09440412 -0.08456403]
 [ 0.19633092  0.08361029 -0.04254337]
 [ 0.26883936  0.18050732  0.03619062]
 [ 0.23551819  0.22519583 -0.01561448]
 [ 0.24078017  0.31239152  0.00619424]
 [ 0.17990339  0.15456395  0.03597226]]
[[ 0.00298343 -0.00945475 -0.02964053]
 [ 0.06457562 -0.03441433  0.00875026]
 [-0.0014694  -0.0220916  -0.03123294]
 [ 0.03147819  0.03293898 -0.01063646]
 [ 0.09910765 -0.02024955 -0.0589934 ]
 [ 0.03352435 -0.01924156 -0.06583767]
 [ 0.08939095  0.02142863 -0.03943064]
 [ 0.05955586  0.006004   -0.02515032]]
[[ 4.05075215e-02 -3.18455845e-02 -1.53432906e-04]
 [-1.15827724e-01 -6.34661913e-02  4.52036746e-02]
 [-4.50692922e-02 -3.66557576e-02 -4.84039309e-03]
 [-1.06821405e-02 -1.32448412e-02 -8.61714780e-02]
 [ 1.56039134e-01  1.39461756e-01  3.07141757e-03]
 [ 3.33685130e-02 -2.54643173e-03 -6.19204715e-02]
 [ 9.38448757e-02  9.63758025e-03 -4.85125557e-02]
 [-7.88256526e-02  2.16996223e-02  2.61980277e-02]]
[[ 0.19630209  0.02482036 -0.08080824]
 [ 0.03542886 -0.0073926  -0.00805089]
 [ 0.05813851 -0.04084916 -0.02037442]
 [ 0.17996879 -0.00279259 -0.05273813]
 [ 0.19997881 -0.0623912   0.03251562]
 [ 0.12938264 -0.01529894  0.04600189]
 [ 0.26328826  0.02439164 -0.05743178]
 [ 0.20943862  0.03956656  0.00271852]]
[[-0.00232451 -0.03778183 -0.02792739]
 [-0.02579571  0.00479215 -0.02805829]
 [-0.01715889 -0.00585553  0.01376708]
 [ 0.0054391  -0.03584382 -0.01283111]
 [-0.00181077  0.04773995 -0.02367782]
 [ 0.01337552  0.03190265 -0.01326326]
 [ 0.02095647 -0.01887182 -0.00775692]
 [-0.00788682  0.03177633 -0.00967801]]

filter7:
[[-0.12192747  0.02574226  0.00257061]
 [-0.07462765 -0.00230213  0.0215606 ]
 [-0.00126406 -0.08988357 -0.10287613]
 [ 0.02287058 -0.08976709 -0.23676331]
 [ 0.06905394  0.03169571 -0.1236889 ]
 [-0.06483499  0.06026658  0.09085614]
 [-0.12942536  0.00139076  0.19974586]
 [-0.08814636 -0.00887846  0.08266466]]
[[ 2.1181604e-02 -6.3697305e-05  4.3499421e-02]
 [-7.0174843e-02 -2.1632403e-02  6.0621671e-02]
 [-6.4650960e-02 -1.9206244e-02 -2.3821836e-02]
 [ 6.8321250e-02  4.7564238e-02 -8.7338135e-02]
 [ 4.8591346e-02 -3.2072585e-02 -8.6563446e-02]
 [ 5.8206199e-03 -3.6578827e-02  1.3694033e-02]
 [ 9.3345018e-03  4.7871646e-02  3.2105539e-02]
 [-9.0229968e-03  7.1027301e-02 -1.8012086e-02]]
[[-0.20450468 -0.07985292  0.02831936]
 [-0.0783065  -0.08736999 -0.03577727]
 [ 0.17372426  0.11264412 -0.03857607]
 [ 0.16196753  0.05569816 -0.13014945]
 [ 0.04265561 -0.00111948 -0.05796136]
 [-0.11502766 -0.05959522  0.02194104]
 [-0.07140041 -0.08652855  0.07108915]
 [ 0.04965806  0.05735325  0.05504544]]
[[-0.17200738 -0.05583251 -0.10434499]
 [ 0.10277601  0.01578986 -0.01686711]
 [ 0.20081699  0.06401798 -0.03973146]
 [ 0.02725263  0.00085751 -0.13365449]
 [ 0.0780155   0.02930271  0.04367584]
 [-0.12011059  0.1030346   0.03175213]
 [-0.18851812  0.2061794   0.2234542 ]
 [-0.1098788   0.12936036  0.13641886]]
[[ 0.0951095  -0.00353773  0.0041627 ]
 [ 0.04307065  0.05771864  0.02142319]
 [-0.05731915 -0.06897397 -0.06508227]
 [-0.01312104 -0.06378141 -0.051926  ]
 [-0.04294696 -0.07007369 -0.03209308]
 [ 0.03853359  0.01996698  0.06862444]
 [-0.05194568  0.0671472   0.10115432]
 [-0.04922021  0.03947084  0.00837745]]
[[-0.00117133 -0.00584849  0.010232  ]
 [-0.04003061  0.03126466  0.08940792]
 [ 0.04629475  0.02334846  0.10639036]
 [ 0.00869142  0.07483897  0.03316863]
 [-0.00364358  0.06944869  0.05639768]
 [-0.0016294   0.00704092 -0.0018363 ]
 [ 0.08955441  0.07730403 -0.02999601]
 [ 0.07190408  0.07987694 -0.03304588]]
[[-0.08273788 -0.20232074 -0.0154857 ]
 [-0.08292606 -0.04819938 -0.04894057]
 [ 0.09230781  0.14670816 -0.00169776]
 [ 0.09760684  0.11575203  0.05033596]
 [ 0.064196    0.05442428  0.02364138]
 [-0.01734823 -0.06520014 -0.05943922]
 [-0.01179267 -0.24080028 -0.03092912]
 [ 0.02507599 -0.05114869  0.03678954]]
[[ 0.09245326  0.03907487 -0.01871726]
 [ 0.03500028  0.02191097  0.00538614]
 [-0.13794453 -0.0360797  -0.03801118]
 [-0.06348916 -0.11038464 -0.03254854]
 [-0.04799255 -0.10347041 -0.06347732]
 [ 0.0492967   0.06058401 -0.02233914]
 [-0.02088839  0.09679839  0.05205006]
 [-0.08059923  0.00876408  0.05914202]]
[[-0.09273132  0.03594254  0.09415147]
 [-0.02715943  0.11852287  0.04793921]
 [-0.01806073  0.13195255  0.03550331]
 [ 0.02381148  0.05392748 -0.09483131]
 [ 0.04869263  0.04959738 -0.0538782 ]
 [-0.06122335 -0.01027806  0.01008829]
 [-0.03536942 -0.16522911  0.12458118]
 [-0.05378946 -0.13145773  0.02060919]]
[[-0.04946623 -0.10099427 -0.03446908]
 [-0.02958244 -0.0622555  -0.0536169 ]
 [ 0.04029754  0.02146203  0.02139353]
 [ 0.05163925  0.09629815 -0.02799264]
 [ 0.02707093  0.02096477 -0.03102325]
 [-0.04353543 -0.0229922  -0.04800624]
 [ 0.02702876 -0.04720164 -0.05148283]
 [ 0.02733276  0.02884728  0.05120053]]
[[-0.0384677   0.12232578  0.14132355]
 [ 0.02377728  0.14267702  0.14676188]
 [ 0.06873309  0.11172917  0.11643576]
 [ 0.09135332  0.09441547  0.02375962]
 [ 0.03667952 -0.10503551 -0.10529552]
 [-0.18209338 -0.01083917  0.14349525]
 [-0.24273752  0.01609128  0.2021509 ]
 [-0.14834107 -0.06445134  0.0205608 ]]
[[-0.11428307  0.05742296  0.15509546]
 [-0.01990169 -0.03726194  0.08622754]
 [ 0.12779807  0.05992791 -0.00980559]
 [ 0.09329951  0.08618331 -0.06558143]
 [ 0.07192394  0.05943687 -0.01864614]
 [-0.02603503  0.01147996  0.00429125]
 [-0.07003681 -0.02402121 -0.00366131]
 [ 0.01643944 -0.01122485 -0.00401529]]
[[-0.05411409 -0.00708191  0.04074022]
 [-0.04222674  0.03363758 -0.0038191 ]
 [-0.08387725 -0.11837303 -0.07877116]
 [-0.01616817 -0.12248321 -0.08013713]
 [-0.00237043  0.00905904 -0.09401398]
 [-0.03415307 -0.02133772  0.01013323]
 [-0.0145004  -0.00079044  0.02349363]
 [-0.040118   -0.04340664 -0.02790399]]
[[ 0.1871337   0.22253433  0.02063287]
 [-0.04887476 -0.04804426 -0.01861712]
 [-0.14170957 -0.15177654 -0.0281362 ]
 [-0.04929185 -0.07608444  0.0265779 ]
 [-0.02688597 -0.00800172  0.06636457]
 [ 0.10064856  0.09       -0.01455823]
 [ 0.06073784  0.09568477 -0.13660005]
 [ 0.00289717  0.05801203 -0.08863884]]
[[ 0.14713258  0.12203763  0.00802941]
 [ 0.06878277  0.03344828  0.00653913]
 [ 0.08667713 -0.05981444 -0.06266364]
 [ 0.0887702  -0.04792015 -0.04526101]
 [-0.01320715 -0.02066485 -0.01649198]
 [ 0.01508778  0.14632116 -0.0046416 ]
 [-0.01336284  0.12363396  0.14442265]
 [-0.0248175  -0.02837408 -0.0479131 ]]
[[-0.0079293   0.00685473 -0.01148941]
 [ 0.01105376 -0.00921984 -0.0135504 ]
 [-0.02518299 -0.02950394 -0.01463704]
 [ 0.01601339 -0.06224035  0.00211136]
 [-0.01249489  0.02039942  0.00239491]
 [-0.01821015  0.02558398  0.02280975]
 [-0.01521865  0.01333714 -0.02407035]
 [-0.03674143 -0.02201302 -0.01573503]]

filter8:
[[ 0.08394124 -0.11235408 -0.05293062]
 [ 0.06988605 -0.08812795 -0.11477339]
 [ 0.045217    0.05914719 -0.11891375]
 [-0.08087336  0.07767715 -0.01759281]
 [-0.10231171  0.00050564 -0.05345445]
 [-0.14809164 -0.14246339 -0.07813073]
 [-0.05917943 -0.15755624 -0.01470677]
 [-0.05852436 -0.21717665 -0.05728561]]
[[ 0.20434518  0.19418746  0.01690174]
 [ 0.10082953  0.0835277  -0.03964374]
 [ 0.1769286   0.22574197  0.03707114]
 [ 0.10853051  0.1590497   0.07709528]
 [ 0.14001523  0.15021604  0.11762185]
 [ 0.09592345  0.08545696 -0.02128478]
 [ 0.20357487  0.08538436  0.04291877]
 [ 0.20935282  0.07690951 -0.02654352]]
[[-0.09382772 -0.11112748 -0.05824774]
 [-0.05978651 -0.03981211 -0.01999888]
 [-0.09777421 -0.07870468 -0.0182925 ]
 [-0.04799124 -0.02681079 -0.07137658]
 [-0.05699237 -0.06659745 -0.03948461]
 [-0.01879128 -0.06983302  0.01655906]
 [-0.05199945  0.01871611 -0.02410973]
 [ 0.02928397  0.01334145  0.00300564]]
[[-0.02353102 -0.06516333 -0.15276328]
 [-0.22167681  0.04171866 -0.15619065]
 [-0.12816712  0.06908222  0.03210791]
 [ 0.01229065  0.07668526  0.09663828]
 [ 0.11425294  0.17488758  0.04596182]
 [ 0.13008527  0.03020677  0.00237723]
 [ 0.23512746  0.12482353 -0.02539511]
 [ 0.0420301   0.10140377 -0.02829175]]
[[-0.04040998 -0.0260846   0.0269639 ]
 [-0.03639361 -0.06736705  0.00041508]
 [-0.04104565 -0.08309554 -0.04518388]
 [-0.06280454 -0.06455674 -0.03882917]
 [-0.1209061  -0.11630229 -0.06945807]
 [-0.15815511 -0.05200436  0.00856337]
 [-0.15593044 -0.04635545  0.01870316]
 [-0.07669143 -0.07380264 -0.01019308]]
[[ 0.11686476 -0.04422453 -0.01319762]
 [ 0.05140333  0.02026865 -0.02164212]
 [ 0.1052478  -0.03393357  0.03390523]
 [-0.00127247 -0.03328314  0.03285884]
 [-0.00177241 -0.01025229 -0.01908634]
 [ 0.01253018 -0.02286065 -0.01965612]
 [ 0.0727233  -0.05317879  0.05110765]
 [-0.01057752 -0.04058293  0.05466656]]
[[-0.02097363 -0.01006988 -0.03950365]
 [-0.05982281 -0.05714544  0.04886367]
 [ 0.029689   -0.08618119 -0.01890038]
 [-0.02532526 -0.04524853 -0.04057577]
 [ 0.02876182 -0.06619007  0.0366896 ]
 [ 0.07562705 -0.01656129 -0.02242781]
 [ 0.02302275  0.00726405 -0.05813694]
 [-0.07314427  0.05337718 -0.04883263]]
[[-0.00262426  0.00588669  0.01716987]
 [-0.02984411 -0.0609167  -0.02983797]
 [ 0.03077877 -0.04938626 -0.05843893]
 [-0.01017059  0.02656983 -0.06256165]
 [-0.0363258   0.03176886 -0.01196657]
 [ 0.02728572  0.05500007  0.03274215]
 [-0.03377884  0.00710523 -0.02144372]
 [-0.02075467 -0.04613506  0.06969439]]
[[ 0.00337866  0.09566384 -0.00341122]
 [-0.00358684  0.1951241   0.04298207]
 [ 0.03084952  0.16431965  0.02432474]
 [ 0.03798948  0.09542093  0.06794547]
 [ 0.07391861  0.09126168  0.00693026]
 [-0.00949657  0.05339518  0.02180933]
 [ 0.09078963 -0.04514845  0.06486689]
 [-0.01693607  0.01139668 -0.01403003]]
[[ 0.00248843 -0.00309503 -0.04375047]
 [ 0.03203747  0.01909962  0.03861228]
 [ 0.00494416 -0.04124913  0.03621022]
 [-0.07809018 -0.08636368 -0.03138642]
 [-0.04445649 -0.08182774 -0.02368884]
 [-0.03007487 -0.05108891 -0.02085717]
 [-0.0536521  -0.08034801 -0.05760298]
 [ 0.00315799 -0.06354595  0.00589392]]
[[ 0.16323373  0.16928808  0.01296294]
 [ 0.03342631  0.19603656 -0.00056519]
 [-0.04728995  0.12776911  0.0884534 ]
 [-0.07337063  0.1533177   0.1489703 ]
 [-0.00519506 -0.01331817  0.06828107]
 [-0.04527239 -0.04841571  0.01574194]
 [-0.00722268 -0.11503468 -0.03439417]
 [-0.01392144 -0.09484886 -0.0647402 ]]
[[ 0.05674514 -0.02275634  0.00529806]
 [-0.00128057 -0.00048689 -0.02575301]
 [-0.05257979  0.06901484  0.03815623]
 [-0.05551234  0.07707568 -0.03434385]
 [ 0.04100079  0.08003853  0.00997335]
 [ 0.03263025 -0.0211137   0.05214969]
 [ 0.09490405  0.01148414  0.03504531]
 [ 0.10927971  0.07475373 -0.03637406]]
[[ 0.01304124  0.0020497  -0.05647811]
 [-0.05559651 -0.05042846 -0.06545735]
 [-0.01554112 -0.00153232 -0.00049425]
 [ 0.00648203  0.02203884 -0.0347781 ]
 [-0.02753731  0.00837415 -0.02420544]
 [-0.05007521 -0.02740886 -0.02150485]
 [-0.02765445 -0.02707074 -0.04206535]
 [ 0.0140469  -0.07083765 -0.02036471]]
[[-0.0066244   0.08688147  0.02726053]
 [-0.04894605  0.0296355  -0.07403202]
 [ 0.10806086  0.02918162 -0.04879917]
 [-0.07613084 -0.03270749 -0.13046527]
 [-0.11858712  0.05266852 -0.07815406]
 [ 0.03713497 -0.01498403 -0.06697848]
 [ 0.05668861  0.04602709 -0.07020324]
 [ 0.02712623  0.0224512  -0.04607176]]
[[ 0.13129874 -0.09623702  0.07930753]
 [ 0.16226643 -0.00521691  0.1034129 ]
 [ 0.19531728  0.09884641  0.05321702]
 [ 0.12902625  0.19267364  0.06706078]
 [ 0.15204342  0.10885643  0.11260316]
 [ 0.09163437  0.07934798  0.08718331]
 [ 0.09181724 -0.00935693  0.12281678]
 [ 0.08687758  0.03742767  0.07143611]]
[[-0.03921326 -0.01289298 -0.02892408]
 [-0.0070852  -0.03330485 -0.03317018]
 [ 0.01285035 -0.02482396  0.00528393]
 [-0.00727317 -0.05601807 -0.02236552]
 [ 0.00061737 -0.04147475  0.01774893]
 [-0.01709685 -0.02312312 -0.03434118]
 [ 0.02681011 -0.05686178 -0.0169532 ]
 [ 0.00136251  0.01500134 -0.05022063]]

filter9:
[[-7.8162022e-02 -2.9225109e-02 -4.2121738e-02]
 [-5.2002292e-02  5.9081549e-03 -1.0737536e-01]
 [-3.0176578e-02  2.0145375e-02 -1.3111843e-01]
 [-8.8781387e-02 -6.1641909e-02 -5.8839496e-02]
 [-6.4358033e-02 -5.6214146e-02 -1.2170403e-01]
 [ 2.2102972e-02 -3.2781875e-03 -1.6032389e-01]
 [-2.2509629e-02 -1.0524357e-04 -1.3136812e-01]
 [-7.8877904e-02  2.3332547e-02 -8.2672931e-02]]
[[ 0.08666381  0.03078206 -0.00117421]
 [ 0.07085759  0.03018344  0.08718396]
 [ 0.01623292  0.03750807  0.01163352]
 [ 0.05768641  0.04153161 -0.00188734]
 [ 0.0679847   0.08050346  0.11352   ]
 [ 0.00705791  0.05652764  0.10132537]
 [ 0.02412     0.06722846  0.09567217]
 [ 0.00823058  0.06396445  0.08359002]]
[[-0.01320669 -0.12870716 -0.02856385]
 [-0.019544   -0.11199097 -0.00222359]
 [-0.0374207  -0.07680475  0.02223372]
 [-0.04177809  0.00407951  0.00677145]
 [-0.14712468 -0.09060421 -0.00893682]
 [-0.14206454 -0.01385852  0.05277771]
 [-0.1501701  -0.13190225  0.01806786]
 [-0.04985394  0.03508092  0.03759694]]
[[ 0.15243906  0.01046729  0.04143441]
 [ 0.0286297  -0.02967457  0.00387372]
 [ 0.00440241 -0.08404224 -0.03647027]
 [ 0.01097534 -0.01749409  0.02009991]
 [-0.05366915 -0.08896492 -0.0120202 ]
 [-0.03667036 -0.04980489  0.05438022]
 [-0.07939462 -0.01645055 -0.0764077 ]
 [-0.14229992  0.08370052 -0.00549625]]
[[ 0.01181544  0.03543372  0.00733153]
 [-0.02812104  0.00474396 -0.02744122]
 [-0.01290214  0.03147171  0.00804415]
 [-0.05711661 -0.05858264 -0.0098548 ]
 [ 0.01333215 -0.05009557  0.03300454]
 [ 0.03800354 -0.04020452 -0.05974593]
 [ 0.0111293   0.03400802 -0.01695812]
 [ 0.04969069 -0.04423967 -0.02124242]]
[[ 0.07937164  0.00036235  0.0033555 ]
 [ 0.05816623  0.01236271  0.00228964]
 [-0.00288237 -0.00467587 -0.00323762]
 [ 0.09424373  0.0868332   0.02367337]
 [ 0.08520517  0.06099496  0.06195686]
 [ 0.08086585  0.10428139  0.02595887]
 [ 0.0516134   0.03472989  0.08982439]
 [-0.00245285  0.06160364  0.10477784]]
[[-0.02489346 -0.15607883 -0.10772739]
 [-0.1163656  -0.08504124 -0.10666473]
 [-0.16931297 -0.07628795 -0.0699237 ]
 [-0.04660203 -0.10827909 -0.04182412]
 [-0.08782706 -0.12385661 -0.07033986]
 [ 0.04909586  0.02509453  0.04198512]
 [-0.02267559 -0.0669453   0.03048761]
 [ 0.02501461  0.03666547  0.01759197]]
[[-0.04535034 -0.06640474  0.00282942]
 [-0.08544905 -0.05662173  0.04890017]
 [ 0.01953403  0.01463836 -0.03218304]
 [-0.03499568 -0.06059206 -0.03782944]
 [ 0.03748823 -0.00143149  0.05875367]
 [ 0.01825769  0.01804278 -0.05454296]
 [ 0.01899415  0.05095487 -0.00798594]
 [ 0.13609059  0.09913871  0.01187038]]
[[ 0.04980526 -0.0284875  -0.02034625]
 [ 0.01237438 -0.04959247  0.00756729]
 [ 0.03241813 -0.0415347  -0.00569343]
 [-0.02868256 -0.02433479 -0.05096151]
 [-0.01363811 -0.07363731 -0.05521522]
 [-0.01614205  0.00032005 -0.04219829]
 [ 0.00416229 -0.00226839  0.03181702]
 [-0.0116749  -0.00599673  0.0228399 ]]
[[-0.09876512 -0.11689163 -0.06610592]
 [-0.11212917 -0.12665215 -0.07677994]
 [-0.06031837 -0.08568467 -0.05700786]
 [-0.10325287 -0.08342522 -0.01671631]
 [-0.11927064 -0.0994532  -0.07137702]
 [-0.02530793 -0.07784589 -0.04790683]
 [-0.05417084 -0.09315438 -0.03443648]
 [-0.06929731  0.01026247 -0.02695402]]
[[ 0.02878811  0.01676414  0.02161888]
 [ 0.02943697 -0.01600696 -0.03888611]
 [ 0.00248356 -0.00504327  0.0184534 ]
 [-0.0229876  -0.01596883  0.02454857]
 [-0.07378952 -0.08450034 -0.07742546]
 [ 0.00746019 -0.07801475 -0.07317811]
 [ 0.03546826  0.015833   -0.02966085]
 [ 0.00312788 -0.02094014 -0.02296401]]
[[ 0.09200563  0.00976068 -0.05460488]
 [ 0.02550712  0.04501152 -0.00643218]
 [ 0.032599    0.08549831  0.00744884]
 [ 0.05321725  0.0798516   0.00012987]
 [ 0.00220013  0.06398953  0.02125734]
 [-0.01099533  0.00162666  0.02999666]
 [ 0.04992389  0.01949925  0.05984617]
 [ 0.03897993 -0.01768715  0.03749079]]
[[-0.04585973 -0.06038351 -0.05516974]
 [-0.03924202  0.00847353 -0.0419723 ]
 [-0.0471097  -0.10829104 -0.06269651]
 [-0.05563022 -0.11781561 -0.05509138]
 [-0.03692236 -0.04281912  0.00524302]
 [ 0.01450275 -0.05263273 -0.07357971]
 [-0.07261021 -0.0222473  -0.04119179]
 [-0.0471386   0.03848126 -0.00828277]]
[[-0.11070611 -0.06965724  0.01962804]
 [ 0.02970827 -0.03024884  0.01295834]
 [-0.01220408 -0.01970606  0.05679093]
 [-0.00888347 -0.03210899 -0.02850024]
 [ 0.05377542  0.05094402 -0.00302308]
 [-0.03605732 -0.0701201   0.02025366]
 [ 0.02894747  0.05023004 -0.02567093]
 [ 0.05026044  0.09061959 -0.02085007]]
[[ 0.01394617 -0.08307546 -0.08259714]
 [ 0.05971248 -0.04882335 -0.08100787]
 [ 0.05963898  0.04321554 -0.01676682]
 [ 0.00776684  0.00381228 -0.06486564]
 [ 0.06365757  0.05512684 -0.11893965]
 [ 0.10625159 -0.00107124 -0.03001804]
 [ 0.01173136  0.06737396 -0.03295884]
 [ 0.04852547  0.04505938  0.02962344]]
[[-0.03883778 -0.02060599 -0.05098737]
 [-0.03012231 -0.04882081 -0.0088039 ]
 [-0.01349613 -0.04509425 -0.06145704]
 [-0.05071205 -0.09653729  0.0066242 ]
 [-0.00880988 -0.03379905 -0.01586795]
 [-0.05913269 -0.07247366  0.02340391]
 [-0.03325025 -0.01217151 -0.00675923]
 [-0.04395559  0.01934589 -0.02205495]]

filter10:
[[ 1.2860737e-02  5.7128005e-02 -7.8236364e-02]
 [-8.4912725e-02  5.8977827e-02 -1.0452502e-01]
 [-5.4304406e-02  1.6193021e-02  1.1253101e-02]
 [-5.7629496e-02 -2.8953489e-02 -7.6575637e-02]
 [ 1.9724578e-02 -3.0295808e-02 -1.7329419e-04]
 [ 2.8564582e-02 -9.8357245e-02 -1.3223900e-01]
 [ 8.2301013e-02 -1.9868587e-01 -1.1533497e-01]
 [ 3.3678956e-02 -1.2424482e-01 -6.2967792e-02]]
[[ 0.03830907 -0.00711706 -0.00639397]
 [ 0.02382598 -0.01737453 -0.0249217 ]
 [-0.04182199 -0.02366586  0.02148125]
 [-0.0610541  -0.01250226 -0.05649165]
 [-0.03387793 -0.02813245  0.00217112]
 [-0.05229869  0.01139111  0.03852828]
 [-0.02582818 -0.01953002  0.01903333]
 [ 0.04949822  0.04049204 -0.06258865]]
[[-0.04657819 -0.00277451  0.01522571]
 [-0.02896989  0.01933171  0.0615371 ]
 [-0.03803908  0.02368385  0.07300207]
 [ 0.04682174  0.04485826 -0.05857592]
 [ 0.00030735  0.05013563  0.06493625]
 [ 0.09673037  0.09662174 -0.05045263]
 [ 0.07173505  0.02921028 -0.00845112]
 [ 0.08729922  0.01533259  0.03188681]]
[[ 0.09778434 -0.2659065   0.01478681]
 [ 0.02012502 -0.19499238  0.14603502]
 [ 0.07521588 -0.21556665  0.13757399]
 [-0.05037627 -0.01933618  0.07346977]
 [-0.02704946  0.05118306  0.05170633]
 [-0.07791381  0.05550453  0.01769681]
 [-0.21122965  0.09543358 -0.17101815]
 [-0.14614624 -0.0566858  -0.02520745]]
[[-0.00267838 -0.01599986 -0.04616389]
 [ 0.0112955   0.0384829  -0.02893601]
 [-0.03691143  0.03885084 -0.0087609 ]
 [ 0.02118598 -0.02011435  0.00020098]
 [ 0.00970242 -0.04269343 -0.01046072]
 [ 0.03626453 -0.04325264  0.00761394]
 [-0.02009456 -0.04853013  0.00411697]
 [-0.05568142 -0.04218578 -0.04598247]]
[[ 0.01026117  0.03548158  0.03669556]
 [ 0.00810542  0.03682263 -0.01008322]
 [ 0.0523055   0.02480645 -0.02365918]
 [-0.01399439 -0.0384338   0.01261212]
 [ 0.04292599 -0.00672687  0.03713904]
 [ 0.03431635  0.00275352  0.04401843]
 [ 0.0309643   0.0610651   0.01673886]
 [ 0.01427981  0.00260797 -0.0104806 ]]
[[-0.0823288  -0.01533129 -0.05115792]
 [-0.03755388 -0.02746457 -0.0013946 ]
 [ 0.00287797 -0.04056665 -0.00362554]
 [-0.03146217 -0.04989717 -0.0025326 ]
 [-0.06109037 -0.0352153  -0.04735829]
 [-0.02080281 -0.02316985 -0.01487611]
 [ 0.00561771 -0.03007742 -0.00996237]
 [ 0.09286756  0.03093395 -0.01009277]]
[[ 0.04955185 -0.01428304 -0.04958642]
 [-0.01487364  0.01796351 -0.06103262]
 [ 0.01174699  0.09286727  0.03890702]
 [-0.02860435  0.07559127  0.09694993]
 [ 0.01729383  0.06412505  0.13420217]
 [ 0.03888806  0.04549181  0.13664334]
 [ 0.00429582  0.02890845  0.03579918]
 [-0.02226694  0.0157938   0.04909125]]
[[-0.0723323  -0.10822903 -0.06630038]
 [ 0.03551971 -0.09518285 -0.03834972]
 [-0.00717062 -0.09465773  0.00561988]
 [-0.09375026  0.00424083  0.00444554]
 [-0.10189243 -0.02385713  0.00153407]
 [-0.0560044   0.02133784 -0.04571816]
 [-0.13548331 -0.06153944 -0.06923445]
 [-0.11767492 -0.01259359 -0.07306732]]
[[-0.08316394  0.01163666  0.05594868]
 [-0.04446752 -0.08252878  0.03583748]
 [ 0.00152247 -0.04873322  0.01669732]
 [-0.06477109  0.01361064 -0.03029764]
 [ 0.01646306  0.01403685 -0.01606348]
 [-0.0205851  -0.01706053 -0.02226861]
 [ 0.05239664  0.03963581  0.06438407]
 [ 0.00022702 -0.01701978  0.05516095]]
[[ 0.00347359 -0.04418821  0.01506334]
 [-0.08416436  0.04123193  0.01620075]
 [-0.00919156 -0.03470791  0.05761172]
 [ 0.04462371 -0.02191153  0.02807083]
 [ 0.06416839 -0.00737825 -0.04573038]
 [ 0.07410075 -0.01386065 -0.10988414]
 [ 0.00111726  0.07172207 -0.13443512]
 [ 0.0384283  -0.03481247 -0.15175113]]
[[-0.01595848  0.00219619 -0.01556106]
 [-0.06534759  0.02479718 -0.03458018]
 [-0.06546718 -0.00248558 -0.0701353 ]
 [ 0.03916994  0.02478807  0.0115462 ]
 [ 0.03808869 -0.050151   -0.0465426 ]
 [ 0.06406811 -0.04820549  0.03156743]
 [ 0.11175005  0.00095865 -0.03445128]
 [ 0.12429377  0.00416787 -0.00235608]]
[[-0.01337497  0.03487628  0.04623333]
 [ 0.10118914  0.01024475  0.10482444]
 [ 0.10884327  0.04473862  0.04692542]
 [ 0.07356977  0.10412657  0.05091961]
 [ 0.08857895  0.05654316  0.0044508 ]
 [ 0.00699838  0.07514235 -0.04821633]
 [ 0.07218896  0.01443007 -0.05678305]
 [-0.01285247  0.03522528 -0.04636295]]
[[-0.0456664  -0.03933373  0.01062571]
 [ 0.03531352  0.0092226   0.06089353]
 [-0.00908261 -0.03487026  0.03473061]
 [ 0.0143692  -0.11807871 -0.02295714]
 [-0.0614388  -0.07814586 -0.08201046]
 [-0.03635062 -0.09133975 -0.02632308]
 [ 0.01823485 -0.08632518 -0.04209601]
 [ 0.00907657 -0.01947647 -0.08024898]]
[[-0.07833408  0.02208013 -0.0950491 ]
 [-0.05453236  0.09894492 -0.08644634]
 [-0.05180332  0.12853199 -0.06014238]
 [ 0.00315774  0.03045833 -0.05592852]
 [ 0.0087976   0.01709991 -0.05133358]
 [-0.02289174 -0.04123602 -0.00438679]
 [ 0.011981   -0.07591312 -0.0468069 ]
 [-0.01022291 -0.07190625 -0.05960923]]
[[ 0.06378373  0.0082871  -0.05426295]
 [ 0.09167551  0.04829227  0.02424515]
 [ 0.03947273  0.02738617 -0.02519027]
 [ 0.07085073  0.03165029  0.01060838]
 [ 0.02131855  0.08494539 -0.02549527]
 [ 0.05074653  0.08903773  0.001823  ]
 [ 0.09454726  0.04560702 -0.04536486]
 [ 0.09058466  0.03405808  0.01774525]]

filter11:
[[-0.0340541  -0.03923539  0.03143274]
 [-0.06341948 -0.0006958   0.06495847]
 [-0.12630238 -0.04260185  0.0959959 ]
 [-0.09464    -0.02031918  0.02405237]
 [-0.0059185  -0.00967078  0.06582275]
 [ 0.00081142 -0.02729748  0.05215211]
 [ 0.0288452  -0.04661741  0.00753531]
 [ 0.03585474 -0.07159963 -0.02556532]]
[[-0.09962655 -0.06268071 -0.01484642]
 [-0.04666886 -0.04802286  0.01752005]
 [ 0.00704961  0.0087069   0.00406049]
 [-0.01292001  0.00754081  0.02656943]
 [-0.06249472  0.06393347  0.01811121]
 [-0.05688187  0.03441291 -0.00800681]
 [-0.02178797  0.02214403  0.08831531]
 [-0.00314564  0.00205971  0.03847527]]
[[-0.02973523 -0.02373357 -0.00257378]
 [-0.04410326 -0.02294812  0.03269641]
 [-0.13109644 -0.05939576  0.06390772]
 [-0.16311426 -0.12163574  0.09638087]
 [-0.12388071 -0.10384695  0.06711973]
 [-0.00543903  0.01817254  0.08237083]
 [ 0.10590035  0.09924846  0.11222602]
 [ 0.01712739  0.01511991 -0.03087413]]
[[ 0.01691346  0.153355    0.10045841]
 [-0.08338597  0.1290236   0.13135754]
 [-0.11253022  0.10304646  0.07359751]
 [-0.08269446  0.10931941  0.12249075]
 [-0.1335342   0.06777053  0.03300648]
 [ 0.02549708 -0.01334787  0.04544523]
 [-0.02171594 -0.03074127  0.11567812]
 [-0.03928625 -0.09573071 -0.04912529]]
[[-0.05173128 -0.03703087 -0.01357812]
 [-0.04037755  0.0367022   0.006508  ]
 [-0.00476452  0.05869602  0.02400507]
 [-0.00754252  0.02625204  0.02445125]
 [ 0.0629204   0.01564381  0.03734235]
 [ 0.01101285 -0.09777057 -0.07793731]
 [-0.05324062 -0.11207971 -0.17242831]
 [ 0.03619966 -0.11152844 -0.07825097]]
[[ 0.0474547  -0.00564435  0.06480984]
 [-0.0020743   0.01419975  0.00112575]
 [-0.06333353 -0.02392505 -0.0357741 ]
 [-0.01515573 -0.00234548 -0.02765218]
 [-0.01501328 -0.0164163   0.00563907]
 [-0.03945907 -0.03577108  0.05343005]
 [-0.04280137  0.05372221  0.09842229]
 [-0.0244766  -0.0241739   0.04152821]]
[[ 8.4416643e-02 -1.1137547e-02  1.2483471e-02]
 [-6.7178684e-05 -8.9477509e-02  1.4500701e-02]
 [ 3.6452152e-02 -9.0808026e-02  3.4482304e-02]
 [-4.2189773e-02 -1.1672511e-01 -7.3264070e-02]
 [-1.1351546e-01 -1.2032301e-01 -7.8143351e-02]
 [-9.5864590e-03 -7.2778180e-02  9.4733285e-03]
 [-1.0872412e-05  1.1753998e-01  1.1993665e-01]
 [ 3.0558736e-03  8.8925578e-02  8.4350452e-02]]
[[-0.08034478  0.02240825  0.00309089]
 [-0.03785825  0.06135075  0.02969604]
 [-0.01899246  0.05111153  0.01803331]
 [ 0.00994455  0.07109611  0.02375294]
 [ 0.03356151  0.02644536 -0.01608892]
 [-0.0868258  -0.09679607 -0.05284867]
 [-0.06670691 -0.20591018 -0.10284557]
 [ 0.04082507 -0.10313158 -0.06249429]]
[[ 0.02478762 -0.01007251 -0.05969234]
 [-0.03775868 -0.06983569 -0.00478136]
 [-0.09435142 -0.0208258   0.03965632]
 [-0.01325883 -0.02902353  0.03136358]
 [-0.00227204 -0.03422279  0.01220159]
 [ 0.04644114  0.02755013  0.06040876]
 [ 0.12426767  0.0534243   0.02676474]
 [ 0.13038915 -0.00244566 -0.08915987]]
[[-0.007261   -0.03716088 -0.02546953]
 [-0.036201   -0.07644784 -0.08205608]
 [-0.10568466 -0.11932468 -0.12016075]
 [-0.04403318 -0.11469767 -0.09445805]
 [-0.06673474 -0.08807433 -0.07720219]
 [-0.01840506 -0.00122956 -0.01635317]
 [ 0.01660838  0.06435708  0.09650624]
 [ 0.01746324  0.04914184  0.04689468]]
[[-0.08459359 -0.10619166 -0.04857671]
 [-0.07409463 -0.0235803   0.05924264]
 [-0.08273871  0.08436814  0.06237257]
 [-0.07469273  0.09735738  0.19554421]
 [-0.08096886  0.1775893   0.18280452]
 [ 0.04742728  0.07296143  0.09339351]
 [ 0.00528944  0.00584157 -0.00112615]
 [ 0.02504811 -0.03635019 -0.11469599]]
[[ 0.06558697 -0.00233074 -0.02352748]
 [-0.0561965   0.01297878  0.03236639]
 [ 0.00574559  0.00925274  0.05500392]
 [-0.01269238  0.01276397  0.06023734]
 [-0.11673051  0.04539542  0.0556177 ]
 [-0.0463274  -0.01240222  0.04092906]
 [ 0.01374192  0.05095834  0.0014117 ]
 [-0.02009675  0.01368072  0.02409591]]
[[-0.04759235 -0.06590848 -0.01252139]
 [-0.07225236 -0.03166832 -0.00617502]
 [-0.02184252  0.05757166  0.04399574]
 [-0.04422965  0.01317234  0.00673418]
 [-0.00487334  0.04803566 -0.01907953]
 [ 0.02655863 -0.00876429 -0.00542037]
 [ 0.00797978 -0.07739507 -0.07135554]
 [ 0.00377907 -0.05767528 -0.06369609]]
[[-0.00370975  0.02219347 -0.0049519 ]
 [ 0.08010685  0.13644427  0.06539863]
 [ 0.08393358  0.1206331   0.12479612]
 [ 0.00127907  0.08753567  0.06137747]
 [ 0.13463041  0.10242997  0.06235102]
 [ 0.02016468 -0.08743183 -0.01915014]
 [ 0.01894     0.00163762 -0.11719739]
 [-0.01069451  0.01933051 -0.00452946]]
[[-0.02748035 -0.04322533 -0.03751766]
 [-0.0969379   0.04995997  0.01282827]
 [ 0.00215963  0.09216288  0.11126231]
 [-0.04037535 -0.01046724  0.09116845]
 [ 0.05363079  0.11735799  0.14098457]
 [ 0.07924234  0.02686905  0.01931538]
 [ 0.10868733  0.04349504 -0.13622554]
 [ 0.10388927  0.03257985 -0.086928  ]]
[[-0.03657953 -0.02076647  0.02931249]
 [ 0.00325417  0.00394014  0.00681634]
 [-0.02879179  0.01219682 -0.00313787]
 [-0.04265543  0.02326174 -0.01031233]
 [-0.0501168   0.00822986 -0.01504945]
 [-0.02916794 -0.01726043 -0.02670134]
 [-0.04483686 -0.05856651 -0.03010125]
 [-0.01911222 -0.03892457 -0.02458301]]

filter12:
[[-0.0845501   0.04582663  0.11410631]
 [-0.03779362  0.10797738  0.16199996]
 [ 0.05710391  0.03123603  0.0455825 ]
 [ 0.07387122 -0.01594101 -0.07858925]
 [ 0.08427727 -0.07070703 -0.23220491]
 [-0.01269143 -0.08293415 -0.21081762]
 [-0.04381871 -0.05852016 -0.02870765]
 [-0.04606454 -0.06169674  0.04531833]]
[[ 0.01187382  0.0461234  -0.0360008 ]
 [ 0.02146682  0.01028785 -0.00463395]
 [-0.03419812  0.019008    0.01440108]
 [ 0.05141744  0.05862808 -0.08209701]
 [-0.00679421 -0.03369825 -0.07516991]
 [ 0.03534069  0.01116392 -0.00726396]
 [ 0.07137188  0.06412852  0.05442755]
 [-0.05802697 -0.02924077  0.02517725]]
[[-0.21545899 -0.15785278  0.04466682]
 [-0.20629777 -0.1074915   0.0610945 ]
 [-0.02034483  0.09852296  0.05756232]
 [ 0.1494074   0.173061    0.06737229]
 [ 0.15321761  0.20784298  0.01741291]
 [-0.05241153  0.03087403 -0.09288312]
 [-0.07909828 -0.15982382 -0.08956239]
 [ 0.00161949  0.01379633  0.02698624]]
[[-0.1593776  -0.13002937 -0.15172021]
 [-0.03119238 -0.0802885   0.08789212]
 [ 0.07625    -0.10893449  0.07798409]
 [ 0.06550797 -0.14994195 -0.15455957]
 [ 0.12715454 -0.07245732  0.14132227]
 [-0.00942457 -0.03309215 -0.11351273]
 [-0.02326654 -0.08488829 -0.39275122]
 [ 0.01093116  0.03578266  0.02459603]]
[[ 0.02003502  0.09008101  0.05969573]
 [ 0.03837885  0.06419905  0.05854275]
 [ 0.05627902 -0.04962363 -0.08042368]
 [-0.02417817 -0.10407816 -0.08697617]
 [-0.07337105 -0.13246647 -0.13031001]
 [-0.01540361 -0.01492854 -0.00029369]
 [-0.01889033  0.04640293  0.11185538]
 [ 0.01235181  0.01624426  0.03293945]]
[[-0.05186414 -0.07611627 -0.0505583 ]
 [-0.00833301 -0.05398353 -0.00310239]
 [-0.00727554 -0.01932755  0.04649197]
 [-0.0254122  -0.04755244  0.04983106]
 [ 0.02640315  0.01404798  0.04318504]
 [ 0.02463771  0.01977448  0.05417167]
 [-0.02915468  0.01473627 -0.06545883]
 [-0.00787466 -0.01055007 -0.01882852]]
[[-0.19060475 -0.21784814 -0.06267812]
 [-0.18686089 -0.1953026  -0.103733  ]
 [-0.09405977  0.03129058 -0.04089575]
 [ 0.06834892  0.16789906  0.07990735]
 [ 0.12280112  0.2845242   0.26273504]
 [ 0.04964971  0.12883613  0.1280226 ]
 [-0.00763562 -0.04082062 -0.06926589]
 [-0.01046732 -0.0126864  -0.01686018]]
[[-0.00495885  0.04959565  0.00780485]
 [ 0.00072446  0.02110142  0.00447124]
 [-0.08333061 -0.08854017 -0.04232109]
 [-0.07078857 -0.12697797 -0.04383053]
 [-0.09331392 -0.18811885 -0.14032419]
 [ 0.03772477 -0.00312155 -0.08763972]
 [ 0.06817204  0.14027204  0.01470576]
 [ 0.01327225  0.02107642  0.05258011]]
[[-0.03245953 -0.11856306 -0.09415039]
 [ 0.00070678 -0.07552138  0.02175603]
 [-0.07118656  0.01600221  0.00041679]
 [ 0.05921834 -0.01168963 -0.13810393]
 [ 0.09140164  0.06531667 -0.08966456]
 [-0.01361112  0.01863726 -0.07876909]
 [-0.09046426  0.01172712  0.00088382]
 [-0.06036616  0.01478365  0.03606907]]
[[-0.07500956 -0.15728495 -0.0916168 ]
 [-0.05644069 -0.15205996 -0.03897883]
 [ 0.01663776 -0.00823368  0.01925356]
 [ 0.02866166  0.05339866  0.10651165]
 [ 0.03946945  0.06533229  0.07326221]
 [-0.02227653 -0.02832961 -0.00463289]
 [-0.02926151 -0.02423894 -0.03215531]
 [-0.00127738  0.00464086  0.00749023]]
[[-0.10447548 -0.02263152  0.11203805]
 [-0.03514439  0.0111989   0.11460856]
 [ 0.07650434  0.02889824  0.16798894]
 [ 0.15128364 -0.02304279 -0.02108943]
 [ 0.03942202 -0.21432291 -0.24684319]
 [-0.18618368 -0.195432   -0.20849326]
 [-0.16327085 -0.08892154  0.08741158]
 [-0.04735304  0.03884651  0.1840541 ]]
[[-0.11881169 -0.01513661  0.12079572]
 [-0.08067096 -0.01981579  0.08114623]
 [-0.03037705 -0.03681035  0.02296326]
 [ 0.05059151  0.03328262 -0.02578209]
 [ 0.15089683  0.05294481 -0.04968088]
 [ 0.02224445  0.02239441  0.03361496]
 [-0.1318756  -0.08534854  0.00632361]
 [-0.01474477 -0.04204255 -0.02585557]]
[[ 0.0192467   0.07844071  0.05429912]
 [ 0.0046413   0.11110394  0.08638941]
 [ 0.03655345  0.01815937 -0.01194666]
 [ 0.03165853 -0.02552788 -0.07759997]
 [ 0.02898674 -0.02353589 -0.12265869]
 [ 0.02769976 -0.00567638 -0.05725563]
 [ 0.00024982  0.04855048  0.05294013]
 [ 0.00016429  0.01609717  0.01813017]]
[[ 0.05450684  0.19060765  0.14066055]
 [-0.00163838  0.05486427 -0.0224314 ]
 [-0.13441762 -0.18401532 -0.15297188]
 [-0.04515378 -0.15065709 -0.05336972]
 [-0.13583466 -0.20767488 -0.06413867]
 [ 0.04709058 -0.00111592  0.03411425]
 [-0.01452349  0.03213958  0.14443836]
 [-0.00745722 -0.0249355  -0.0118947 ]]
[[-0.03429506  0.0840829   0.08106475]
 [ 0.03592538  0.0472951   0.0859824 ]
 [ 0.06677217 -0.00487439 -0.06158229]
 [ 0.04752156 -0.05348776 -0.09048417]
 [ 0.03336562 -0.10290689 -0.20776968]
 [ 0.01989304  0.03023623 -0.04751284]
 [-0.1299041   0.02865635  0.22239333]
 [-0.07027563  0.00130507  0.09340937]]
[[ 0.04898562  0.08139222  0.00863024]
 [ 0.03422866  0.05284505  0.03987312]
 [ 0.01788297 -0.00768098 -0.00695241]
 [ 0.00754811 -0.02622309 -0.00725973]
 [-0.01241749 -0.02660397 -0.01887223]
 [ 0.00936182  0.00751457 -0.00823103]
 [ 0.01740575  0.01308573 -0.00990904]
 [ 0.0063975  -0.01529239 -0.02396585]]

filter13:
[[ 0.08275652 -0.04061294 -0.04005832]
 [ 0.06021614 -0.044416    0.00649594]
 [ 0.10901155  0.00764989 -0.07957373]
 [ 0.0503944   0.03426105 -0.10905288]
 [-0.04866554  0.04446755 -0.09119374]
 [-0.09032644  0.02340052 -0.0068542 ]
 [-0.10730729 -0.07050569  0.02000151]
 [-0.0547433   0.00170435  0.01187805]]
[[ 0.00294896 -0.0025157  -0.02718247]
 [ 0.03887383  0.04888869  0.04736989]
 [ 0.01141208  0.02618759  0.02405949]
 [ 0.09346151  0.15198188 -0.02510361]
 [ 0.05241276  0.09107531 -0.02681264]
 [-0.00801014  0.06211765 -0.02779666]
 [ 0.03576833  0.11862554  0.02872466]
 [ 0.07517113  0.03671361  0.01620609]]
[[ 0.04391584 -0.01341056  0.01197855]
 [-0.03089963  0.00242489 -0.03249716]
 [-0.00522997  0.02202919  0.01362407]
 [-0.04169146 -0.04018597 -0.04247396]
 [-0.04568547 -0.05208921 -0.06307784]
 [-0.06526587 -0.01062935 -0.10973362]
 [ 0.02694928 -0.03632309 -0.0428533 ]
 [ 0.05219837  0.00587541 -0.04467976]]
[[-0.11414113 -0.01752154  0.06760322]
 [-0.07621994 -0.00852872 -0.00512986]
 [-0.02641554 -0.01652951  0.09215834]
 [ 0.02122117 -0.07641329 -0.01651516]
 [-0.03184161 -0.07935502  0.00294829]
 [-0.04994176 -0.09770454  0.01227006]
 [-0.00622618 -0.16660252 -0.04639436]
 [-0.09307302 -0.14591488 -0.12449278]]
[[-0.05728976 -0.13667442 -0.03705416]
 [-0.11842818 -0.15118459 -0.05323554]
 [-0.08102921 -0.1722527  -0.05576401]
 [-0.00597109 -0.01757015 -0.06997572]
 [-0.02875829  0.04425495  0.04939743]
 [-0.03894789  0.04466567  0.07090092]
 [-0.07816821  0.05591331  0.06542037]
 [-0.00937766  0.05472754  0.08715751]]
[[-0.01457851 -0.03268453 -0.05503318]
 [-0.01926496  0.05089653 -0.01614377]
 [ 0.04310336  0.08883267  0.01321472]
 [-0.00457922  0.04943093  0.04744564]
 [ 0.00515336  0.07806255  0.01305704]
 [-0.00424233 -0.0323983   0.02748829]
 [ 0.06226828  0.05003723  0.03547417]
 [ 0.06590797  0.06283591  0.03073367]]
[[-0.02736641  0.09122875  0.09089532]
 [-0.01298724  0.07846744  0.082873  ]
 [ 0.06275241  0.06223574  0.07204483]
 [-0.02812386  0.01832008 -0.03676846]
 [-0.01930267 -0.04355012 -0.03575198]
 [-0.07383902  0.02167015 -0.06991257]
 [-0.02661915 -0.05544881 -0.08337186]
 [-0.00087467  0.00106938 -0.04006296]]
[[-0.11022786 -0.01725934 -0.04002374]
 [-0.10119327 -0.01136517 -0.07763878]
 [-0.08351032 -0.10039954 -0.13770129]
 [ 0.01255989 -0.06672972 -0.12216969]
 [ 0.01175254 -0.0032289  -0.0370567 ]
 [ 0.02392475  0.01802266 -0.03903967]
 [-0.09252436 -0.00633305 -0.03452443]
 [-0.03702432 -0.00511026  0.02377799]]
[[ 0.04807034  0.1333485   0.05077648]
 [ 0.02453717  0.03661098  0.00999764]
 [ 0.08175384  0.10085757  0.0484919 ]
 [ 0.0848126   0.11766941  0.07275178]
 [ 0.02348535  0.09750766  0.07875688]
 [ 0.02671418  0.08014323  0.00681869]
 [ 0.02874803  0.10709193  0.02390737]
 [-0.03796034  0.04707489  0.02527773]]
[[ 0.0503297  -0.03638142 -0.0453109 ]
 [ 0.04752024 -0.01709305 -0.05377667]
 [ 0.01613098 -0.01979488 -0.00187361]
 [-0.00114648 -0.00542456 -0.01058059]
 [-0.0773082  -0.0677027  -0.02949359]
 [-0.00576107 -0.05792645 -0.03013404]
 [-0.03826869 -0.03790213 -0.00798786]
 [ 0.02877207 -0.06260291  0.02511107]]
[[-0.00623014 -0.01472944  0.02820498]
 [-0.01295121 -0.03187252  0.02777661]
 [-0.00038429 -0.12974988  0.04477664]
 [-0.0465943  -0.05419767 -0.00347074]
 [-0.13171352 -0.05461642 -0.01436877]
 [-0.07453061 -0.02134827 -0.05970233]
 [-0.05992099 -0.06243392  0.03759342]
 [-0.0011318  -0.10918804 -0.06886163]]
[[-0.04440747 -0.08025219  0.01749871]
 [-0.01682895 -0.06987823  0.03779262]
 [ 0.00935952  0.00881071  0.07261098]
 [-0.04645256 -0.0140941   0.05461227]
 [-0.04073719 -0.01364939  0.07949898]
 [-0.07934279 -0.04731594  0.06044017]
 [-0.02206218 -0.08780477  0.0470414 ]
 [-0.04635961 -0.06149909 -0.00796564]]
[[-0.06140257 -0.0390288  -0.04115096]
 [-0.02842207 -0.03702763 -0.09620675]
 [-0.01738448 -0.10407824 -0.04305202]
 [ 0.09383415  0.01310613 -0.02130947]
 [ 0.04636171  0.045678   -0.02448689]
 [ 0.01245838  0.00876816  0.07220938]
 [-0.01021473 -0.00893964  0.06941948]
 [-0.00053511 -0.05238868 -0.02167112]]
[[-0.02306145 -0.13560086 -0.02727902]
 [-0.0088854  -0.04818409 -0.01443049]
 [-0.00090864 -0.05113034 -0.05245374]
 [-0.03719525 -0.00832441  0.0164213 ]
 [-0.01264802  0.01428876  0.0622522 ]
 [ 0.02492774 -0.03153826  0.01968694]
 [-0.06999269 -0.23023224 -0.06574323]
 [-0.1034025  -0.10754298 -0.06868339]]
[[-0.0449027   0.01904987 -0.03201441]
 [ 0.04354207 -0.00431796 -0.00237082]
 [-0.04603913 -0.0679507  -0.08283865]
 [-0.03688427  0.04321156 -0.0849032 ]
 [-0.07187565  0.02962744 -0.05252813]
 [-0.06423949  0.02729341 -0.00545447]
 [-0.10924129  0.01292565 -0.01196695]
 [-0.10081461 -0.04127286  0.0582177 ]]
[[ 0.0171147  -0.02889955 -0.07146316]
 [-0.03663888 -0.04477605 -0.06124068]
 [ 0.03092474 -0.027474   -0.07409702]
 [ 0.00653579  0.00311703  0.02572405]
 [ 0.07652933  0.0033408  -0.0068683 ]
 [-0.0114029   0.01001604 -0.02590011]
 [ 0.03135294  0.03757297 -0.03328528]
 [-0.02226547 -0.00755074 -0.00236606]]

filter14:
[[ 0.04317865 -0.01058262 -0.04198297]
 [ 0.0601813   0.07538919  0.03719607]
 [ 0.08060887 -0.01691124  0.02845763]
 [ 0.03177521 -0.06471788 -0.02164616]
 [ 0.05607181 -0.08665632 -0.08217738]
 [ 0.07666431 -0.0548259  -0.04975363]
 [ 0.04784742 -0.04838896 -0.07040605]
 [ 0.09100574 -0.02707887  0.01672232]]
[[ 0.05613874  0.0025502   0.07345901]
 [ 0.03719818 -0.00810013 -0.02090472]
 [-0.04653843 -0.06294898 -0.05775941]
 [-0.06671753 -0.09222548  0.02864625]
 [ 0.00142455 -0.04654503  0.00657677]
 [-0.03616094 -0.00794194 -0.06036375]
 [-0.02746968 -0.08338304 -0.11119392]
 [ 0.00029824  0.01946227 -0.03172326]]
[[ 0.09033028  0.02385888  0.06124879]
 [ 0.08761848  0.07651948 -0.03227385]
 [ 0.12644754  0.0812149  -0.03364067]
 [ 0.15959723  0.07161949 -0.09168076]
 [ 0.11375507 -0.02046962 -0.09531963]
 [ 0.06811374 -0.0061615  -0.17288883]
 [ 0.11552879 -0.05163131 -0.14522777]
 [ 0.01652786  0.01770848 -0.13323532]]
[[ 0.11353154  0.03490886 -0.00806371]
 [ 0.12254392  0.07986898  0.07093085]
 [ 0.06835974  0.06369824  0.04151594]
 [-0.03429867  0.11168739 -0.00819136]
 [ 0.03830002  0.08033809 -0.00078881]
 [ 0.02971756  0.12268101  0.00534072]
 [ 0.07776917  0.14647415 -0.01102527]
 [ 0.10591995  0.13108604  0.10658403]]
[[ 0.01538789  0.05585623  0.00574413]
 [ 0.03406018  0.07791824  0.02939898]
 [-0.01113552 -0.01959273  0.00721912]
 [-0.06766791 -0.04608357  0.01296311]
 [ 0.00432329  0.00587479  0.01397225]
 [-0.00553929  0.01399577 -0.00496667]
 [-0.04975982 -0.06390239  0.02802139]
 [ 0.0083991  -0.01240576  0.00334312]]
[[ 0.01568861  0.04160449  0.01721316]
 [ 0.01815692  0.02567572  0.07762093]
 [-0.00248388  0.01222588  0.02963304]
 [ 0.00977434  0.01211461 -0.02967221]
 [-0.0310519  -0.02144085  0.03804988]
 [-0.03371036 -0.01513681  0.06384113]
 [-0.01612365 -0.03060753  0.04628721]
 [-0.05797817 -0.04395525  0.07705115]]
[[-0.08278422  0.01524033  0.07564097]
 [-0.08034813 -0.06340215  0.06468982]
 [ 0.05587507  0.07274009  0.07439745]
 [ 0.09237003  0.12493543  0.14956957]
 [ 0.06140359  0.16089578  0.07007066]
 [ 0.06618082  0.08970886  0.00628729]
 [ 0.11122697  0.14172749  0.03046931]
 [ 0.0531415   0.07246566  0.06927997]]
[[ 0.1329553   0.12498903  0.10236695]
 [ 0.1197729   0.10439976  0.07010584]
 [ 0.07394293  0.06235445  0.01720347]
 [ 0.00800934 -0.02776169  0.01449249]
 [ 0.06161605 -0.00737308  0.01248206]
 [ 0.06171488  0.00957522  0.05948789]
 [ 0.08968557  0.02079381  0.10053209]
 [ 0.03772451 -0.04349292  0.0730837 ]]
[[-0.12042724 -0.08658496 -0.03533439]
 [-0.0618502  -0.0352104   0.00689765]
 [-0.09936655  0.01897463 -0.0023663 ]
 [-0.07384979 -0.06992748 -0.01009479]
 [-0.09920762 -0.08243601 -0.02743694]
 [-0.12771943 -0.00945481 -0.06595908]
 [-0.13903765 -0.05024852 -0.08488373]
 [-0.11495545 -0.08377546 -0.0053221 ]]
[[ 0.02651043 -0.03742769 -0.0292197 ]
 [-0.00887019  0.04776827 -0.00411197]
 [ 0.02540486  0.03093356 -0.01128646]
 [ 0.10095132  0.05317589 -0.03858264]
 [-0.00654058  0.01815139 -0.05535683]
 [ 0.03496826 -0.03569346 -0.04455649]
 [ 0.07335858 -0.02854884  0.01291559]
 [-0.00536944 -0.06207668 -0.08777747]]
[[ 0.10814755  0.06054269  0.12701862]
 [ 0.14166774  0.10292803  0.08025833]
 [-0.01000671  0.1506642  -0.00712851]
 [ 0.03211608  0.04439937  0.01743444]
 [ 0.04930673  0.09645393  0.03075054]
 [ 0.03920788  0.07858329  0.09323213]
 [-0.01294521  0.06794997 -0.02488783]
 [-0.02278743  0.00750647  0.0436916 ]]
[[ 0.10099875  0.05803785  0.07887654]
 [-0.03799451  0.03302412 -0.02797511]
 [ 0.06403667  0.04133026 -0.01948113]
 [ 0.02034287 -0.02748748  0.00021432]
 [-0.03014924 -0.04684245  0.01709685]
 [ 0.02562959 -0.02316026 -0.0394908 ]
 [ 0.04267666 -0.01082828 -0.09553935]
 [ 0.04483806  0.09553667  0.02073083]]
[[ 0.09253583  0.06079756  0.02665663]
 [ 0.00352513  0.03407428  0.06412819]
 [-0.02302411 -0.03991294 -0.04037669]
 [ 0.03292296 -0.01786353 -0.06970091]
 [-0.0859982  -0.07555471 -0.04799524]
 [-0.04822691  0.00110537 -0.03763873]
 [-0.00463797 -0.0776935  -0.05479003]
 [ 0.00889597  0.0425549   0.03842168]]
[[ 0.02454227  0.03908876  0.05618261]
 [ 0.0244843  -0.00120853 -0.08591098]
 [-0.0507995   0.01006462  0.02446826]
 [-0.04785265  0.05456669 -0.02354023]
 [ 0.00532446  0.06205965  0.00463142]
 [ 0.0211926   0.04244222 -0.05891007]
 [ 0.03563638  0.08221785  0.07542711]
 [ 0.07973856  0.11198501  0.11983748]]
[[ 0.03243275 -0.01299695 -0.01834401]
 [ 0.07672851  0.06118872 -0.02148888]
 [ 0.01481808  0.0518111   0.05226272]
 [ 0.02625491 -0.01762938 -0.03280701]
 [-0.00250402 -0.06660637 -0.06494793]
 [ 0.0274819  -0.00714455  0.01550385]
 [-0.01188144  0.01720768  0.01645125]
 [ 0.09884474  0.04399092  0.00902992]]
[[-0.0074635  -0.02064445  0.01367016]
 [ 0.03769688 -0.01447291  0.01533299]
 [ 0.0342187  -0.01234973  0.0049571 ]
 [-0.02836184 -0.04704766  0.00265856]
 [ 0.00209936  0.02292502 -0.0011963 ]
 [ 0.0131781   0.04362179 -0.00651267]
 [-0.02864911  0.00200291  0.06746914]
 [ 0.05119988  0.06701703  0.10021431]]

filter15:
[[-0.06131506 -0.0429191   0.0390708 ]
 [-0.09101686 -0.01817651  0.02574715]
 [-0.10566264 -0.0993974  -0.019392  ]
 [-0.00664918 -0.02065704 -0.0475579 ]
 [-0.06299083  0.02813049 -0.07365448]
 [-0.0359091   0.03252608  0.01483655]
 [-0.13681908 -0.05224607 -0.10309477]
 [-0.00704359  0.05118564 -0.00840103]]
[[ 0.04682657  0.05665049 -0.02005249]
 [ 0.06892056  0.00721203  0.0263487 ]
 [ 0.05742423  0.03169882  0.03764015]
 [-0.02029384  0.03799267  0.10229132]
 [ 0.00760237 -0.00895514  0.04263991]
 [ 0.04650539  0.04534156  0.02371876]
 [ 0.03635688  0.05444526  0.02320943]
 [ 0.02891301  0.10070038  0.04850563]]
[[ 1.8669838e-02  5.4669660e-03  8.8302062e-05]
 [ 2.8491104e-02  4.3662038e-02  2.3194430e-02]
 [ 7.3859007e-03  4.8568983e-02  8.6225800e-02]
 [-3.6311496e-02 -6.2080011e-02  5.4828443e-02]
 [-3.4948349e-02  2.5878806e-04  3.7763212e-02]
 [ 2.6774438e-02  4.9020129e-04  8.8063918e-02]
 [ 3.7487339e-02 -4.5473687e-02  6.3643739e-02]
 [-2.2786709e-02  1.6017967e-03  2.9610863e-02]]
[[-0.09261046  0.00108047 -0.12620695]
 [-0.08330512  0.01232234 -0.06040078]
 [-0.1381369  -0.02863812 -0.05127892]
 [-0.02250521  0.01917704 -0.11202944]
 [ 0.0029833  -0.00103701 -0.10856821]
 [-0.02678078 -0.01037954 -0.12014682]
 [-0.08683306  0.02305216 -0.04423552]
 [-0.0713114   0.06013914 -0.03097576]]
[[ 0.04749133  0.01160461 -0.07568383]
 [ 0.02541919  0.00346924 -0.06764599]
 [ 0.05353589  0.05611389 -0.02750223]
 [ 0.02373391  0.03724045  0.00980692]
 [ 0.01492516  0.03126719  0.00233775]
 [-0.01548892  0.03745169 -0.01877136]
 [-0.01807534 -0.02172708  0.01860811]
 [ 0.01613062 -0.0450324  -0.02507826]]
[[ 0.0273907  -0.01111761  0.0108083 ]
 [ 0.09136665  0.02972967  0.01744514]
 [ 0.01976493 -0.01003538  0.03353382]
 [ 0.00086001 -0.01813881 -0.03675188]
 [-0.02218504  0.02538063 -0.00685263]
 [ 0.01663136  0.00200484  0.03301458]
 [ 0.08114127 -0.00343151 -0.02699976]
 [ 0.06768049  0.05560023 -0.04224063]]
[[ 0.03686251  0.02657693 -0.06793077]
 [-0.06002802  0.01878527 -0.01097652]
 [-0.00854144  0.06863884 -0.03317697]
 [ 0.03077357  0.04048311  0.01573798]
 [ 0.07861607  0.12416896 -0.01814714]
 [ 0.05684005  0.07831082 -0.01542117]
 [ 0.01474079  0.13457651 -0.05411636]
 [-0.05790137  0.07179375 -0.02625534]]
[[ 0.0369806  -0.01760654 -0.1111156 ]
 [-0.02710043 -0.02266898 -0.15087432]
 [-0.01122245 -0.02299047 -0.1168908 ]
 [ 0.02825699  0.04905361 -0.1470349 ]
 [-0.00217021 -0.00680498 -0.1327184 ]
 [ 0.0267255  -0.04331036 -0.12978406]
 [ 0.03923049 -0.03065948 -0.03393658]
 [ 0.01356861  0.06733565 -0.00293669]]
[[-0.07099338 -0.06009099  0.07260066]
 [-0.03452478 -0.00011953  0.01858236]
 [-0.08941264 -0.01440801  0.04216516]
 [-0.11608851  0.0505693   0.06770318]
 [-0.06772538  0.08706675  0.07157276]
 [-0.00596351  0.0254006   0.09766146]
 [-0.00921952  0.06787972  0.07125627]
 [ 0.02382752  0.0333949   0.0584304 ]]
[[-0.02431038  0.03536728 -0.02867482]
 [ 0.03069615  0.06043674 -0.00873648]
 [-0.04277378  0.03750535  0.02490338]
 [-0.03001167 -0.00301818 -0.03302923]
 [-0.03955613  0.00812716 -0.00720824]
 [ 0.00528716 -0.03979327 -0.0202356 ]
 [ 0.01743752  0.01322546 -0.02684606]
 [-0.03415842 -0.04088892  0.01352898]]
[[-0.03752456  0.06197292  0.03438544]
 [-0.06087515  0.07354032  0.00161577]
 [-0.06073101  0.02342015  0.04399488]
 [-0.04400503  0.0164871   0.04411627]
 [ 0.00236392 -0.02914774  0.05047509]
 [-0.07043482 -0.01817069  0.03950968]
 [-0.07865368  0.01096593  0.03865409]
 [ 0.0331074   0.00067405  0.00141058]]
[[-0.10136924  0.02845823 -0.01630369]
 [-0.09901901  0.04691958  0.04966044]
 [-0.02516138  0.02626114  0.00857758]
 [-0.00444984 -0.04400191  0.06550775]
 [-0.03481111 -0.01563513  0.02321283]
 [-0.03776698 -0.02323001  0.03019049]
 [-0.05894648  0.06595433  0.03478112]
 [-0.01900195  0.09921731  0.06259879]]
[[ 0.08074387  0.02130347 -0.07945663]
 [-0.01202105  0.01559274 -0.01661345]
 [-0.03960843  0.04704142 -0.00027894]
 [-0.03637575  0.07551493  0.04635361]
 [ 0.06930652  0.05791691 -0.03628787]
 [ 0.09404402  0.09828932  0.01556661]
 [ 0.08430997  0.05524085  0.03180695]
 [ 0.05112605  0.08787172  0.0157518 ]]
[[ 0.08366481  0.0417746   0.01538637]
 [-0.00040377 -0.08354831 -0.04077408]
 [-0.05355513 -0.01543438  0.022273  ]
 [-0.04571176 -0.01889887  0.02856964]
 [-0.08988596 -0.06116911 -0.02601772]
 [-0.04281089 -0.05969304 -0.03180133]
 [-0.08803145 -0.02234183 -0.00213245]
 [-0.1346954  -0.13359353  0.04714658]]
[[ 0.05428011  0.0294045  -0.00553855]
 [ 0.06317406  0.00365442  0.08789998]
 [ 0.06381296  0.0585745   0.04544419]
 [ 0.02939815  0.10754749  0.05018811]
 [ 0.03479182  0.00667053  0.07954487]
 [ 0.02066039 -0.01144726 -0.00150156]
 [ 0.07052079  0.00792769  0.06190059]
 [ 0.02716432 -0.00871202 -0.00839788]]
[[ 0.03635376  0.08407725 -0.01293073]
 [ 0.02351481  0.05874163 -0.00026274]
 [-0.00358293  0.00298902 -0.04338139]
 [ 0.03445724  0.03828293 -0.02750831]
 [ 0.07790862  0.05318272  0.0019789 ]
 [ 0.08509964  0.09159862  0.02039761]
 [ 0.08449568  0.08908696  0.03453439]
 [ 0.05375684 -0.00496103 -0.00287979]]

filter16:
[[-0.11387526 -0.01390598  0.11245179]
 [ 0.02591421  0.04925989  0.15596983]
 [ 0.08073638  0.09244554  0.01731545]
 [-0.06515389  0.0044701  -0.11850985]
 [-0.08905168  0.00213831  0.02820573]
 [ 0.01304999  0.04016013 -0.01087121]
 [-0.1067964  -0.04047808 -0.12739636]
 [-0.11619586 -0.10422504 -0.15162876]]
[[ 3.1339701e-02  6.3855365e-02  7.4730486e-02]
 [-1.0174546e-02  5.5982012e-02  5.8408283e-02]
 [-6.4260237e-02 -6.7663342e-02 -3.2701585e-02]
 [ 6.3696001e-03  2.6933476e-03 -1.0991540e-02]
 [-6.7237362e-02  5.5056099e-02 -3.5238694e-02]
 [-1.1033598e-02  4.9783360e-02  1.2591744e-05]
 [-1.6689030e-02  9.0044089e-02  9.5766976e-02]
 [ 5.2407715e-02  5.0101936e-02  7.9545908e-02]]
[[-0.13866746 -0.0754007   0.00423593]
 [-0.02150288  0.04099492  0.00932457]
 [ 0.03167383  0.07245165  0.03983293]
 [-0.05259981 -0.03525552  0.02918383]
 [-0.10823327 -0.01793771  0.08932311]
 [ 0.00292032  0.0576604   0.07612187]
 [ 0.04062698  0.07312009  0.01168453]
 [ 0.05344107  0.06027729  0.04251607]]
[[-0.22513165 -0.23926552 -0.18526678]
 [ 0.00906247  0.00344949  0.05904579]
 [ 0.19140399  0.05788692  0.22055268]
 [-0.00968333 -0.06928729 -0.01412922]
 [ 0.02967071 -0.0564056  -0.16997541]
 [ 0.10603255  0.06382688  0.05233952]
 [ 0.19393268  0.01902655 -0.06914593]
 [ 0.14408158 -0.01782633 -0.01112665]]
[[ 8.0002069e-02  5.6719512e-02  3.3247564e-02]
 [ 5.8837973e-02  3.4906566e-02 -2.2895485e-02]
 [-6.4599693e-02 -7.7812538e-02 -8.9011721e-02]
 [-3.1495091e-02  1.0274443e-02 -2.3876414e-02]
 [ 5.4485768e-02  7.4131303e-02  1.4206225e-02]
 [ 9.5894098e-02  1.0603628e-01  4.7825139e-02]
 [ 4.2438440e-02  5.4873303e-02 -4.9020392e-03]
 [ 4.3664537e-02 -1.4953295e-02 -1.0340658e-04]]
[[-0.07854018 -0.05438399 -0.02643103]
 [-0.08382522  0.01359665 -0.00908587]
 [-0.00853112  0.04368465 -0.00252247]
 [-0.03349562  0.01409887  0.01732084]
 [-0.02020239  0.00176564 -0.05024316]
 [ 0.03032699 -0.00769223 -0.02396273]
 [-0.02428585  0.04247413  0.00512282]
 [ 0.05284939  0.0737332   0.08142928]]
[[-0.18761592 -0.10798241 -0.09220405]
 [-0.0985252  -0.06870446 -0.09585768]
 [ 0.01763648  0.08577091  0.05502115]
 [ 0.03224596  0.05916721  0.07108605]
 [-0.03400177 -0.01787884 -0.05736496]
 [-0.13567193 -0.07963961 -0.04737761]
 [ 0.04122784  0.04770875  0.02788912]
 [-0.00703899  0.04784458  0.05673685]]
[[ 0.14043325  0.03702228  0.03308278]
 [-0.01071625  0.02184672 -0.00170479]
 [-0.18450087 -0.14470384 -0.00980363]
 [-0.00599624 -0.02110834  0.00057237]
 [ 0.0473864   0.07796205 -0.00344592]
 [ 0.04391257  0.03163039 -0.00847466]
 [-0.00847036 -0.03655157 -0.04095752]
 [-0.10293097 -0.04677637 -0.01948448]]
[[-0.1104084  -0.04746133 -0.07458969]
 [ 0.08984823  0.08158844 -0.01012648]
 [ 0.09773161  0.06227506 -0.05172366]
 [ 0.00743572 -0.0368478  -0.09677017]
 [ 0.01452884  0.00083788 -0.07448965]
 [-0.04388956  0.0493687   0.0021786 ]
 [ 0.00733007  0.15019147  0.00290745]
 [ 0.00261331  0.13928339 -0.07160763]]
[[-0.03147436 -0.03070704 -0.01050689]
 [ 0.00147657  0.0246126   0.01654154]
 [ 0.00714995  0.08233602  0.05471875]
 [-0.01268641 -0.00814297  0.04041657]
 [-0.04843782 -0.08432705 -0.05585433]
 [-0.03012696 -0.06865884 -0.02164814]
 [ 0.0816796   0.00447239 -0.01777839]
 [ 0.04101244 -0.0034477   0.01242524]]
[[-0.05446696  0.00188748  0.18997498]
 [ 0.05255514 -0.01780712  0.04598815]
 [-0.0536564  -0.16735172 -0.22157213]
 [-0.19232352 -0.24199562 -0.12137514]
 [-0.07125539 -0.0066146   0.01470966]
 [-0.02780269  0.01755413 -0.05120511]
 [-0.02702048  0.009637   -0.06816926]
 [-0.00908729  0.00715566 -0.04342622]]
[[-0.07933815  0.04388482  0.09468096]
 [ 0.00786937  0.02002805 -0.0606114 ]
 [-0.01055506  0.01158647 -0.19266681]
 [ 0.00640482 -0.02324131 -0.03677246]
 [-0.06315977  0.01753752 -0.02380194]
 [ 0.01910944  0.04999499 -0.01775557]
 [-0.02105425  0.00434328  0.0606739 ]
 [ 0.06299359  0.09244172  0.08738092]]
[[-1.1773388e-02  2.3466714e-02  6.0853191e-02]
 [-3.7931236e-03  1.4346387e-02  3.4632701e-02]
 [-1.6946292e-02 -5.8078371e-02 -1.3933933e-01]
 [-2.9746212e-02 -6.3639075e-02 -7.9863310e-02]
 [-4.3195248e-02 -9.0911249e-03 -8.5906452e-03]
 [ 2.9122218e-02  4.6505515e-02  4.0650427e-02]
 [ 1.9096456e-02  1.3639368e-02  1.7028807e-02]
 [ 6.8328249e-05 -2.1606361e-02  5.2677747e-02]]
[[ 0.14041482  0.2243422   0.01939832]
 [-0.06386403 -0.06805617 -0.2036552 ]
 [-0.24219446 -0.29558444 -0.30018166]
 [ 0.11799897  0.09133238  0.00674093]
 [ 0.09344032  0.09241743  0.089395  ]
 [ 0.0521594   0.06047666  0.03411385]
 [-0.04235728 -0.04327123 -0.01260938]
 [ 0.02642733 -0.01574942  0.02424452]]
[[ 0.02260712  0.01325582  0.0454522 ]
 [ 0.0095339  -0.04119983 -0.03520196]
 [ 0.00825469 -0.12409264 -0.19233635]
 [ 0.10308187 -0.02501497 -0.0208381 ]
 [ 0.03552868 -0.0122747   0.04097206]
 [-0.00659487  0.04524663  0.04664417]
 [ 0.05744372 -0.03972423  0.03543128]
 [ 0.00938631 -0.03786354  0.06146607]]
[[ 0.02504588 -0.00424278  0.01782319]
 [-0.03631601 -0.02733192 -0.01925972]
 [-0.07090739 -0.07798592 -0.01589441]
 [-0.06502356 -0.04261732  0.028132  ]
 [ 0.01690623 -0.00727161  0.01886095]
 [ 0.04016749 -0.00571091  0.02719041]
 [ 0.02489301  0.01604015  0.0069999 ]
 [-0.01536231  0.02833391  0.02079984]]

filter17:
[[-1.00481935e-01 -5.51805720e-02  7.63907358e-02]
 [-2.18962599e-02 -1.33206844e-01 -1.92560889e-02]
 [ 5.37137575e-02 -4.38347943e-02 -1.64741158e-01]
 [ 9.86691937e-02  3.88530865e-02 -8.18878934e-02]
 [ 1.14118077e-01  1.73920449e-02 -4.38554026e-02]
 [ 2.80074310e-02  7.35190883e-02  8.54319558e-02]
 [-6.16038218e-02 -3.59958634e-02  1.22274645e-01]
 [ 1.27337713e-04  1.66141894e-02  1.90270543e-02]]
[[ 0.0128449   0.0560888   0.07593743]
 [-0.03771297  0.02275777  0.0550301 ]
 [-0.03193512 -0.05326555 -0.02804937]
 [ 0.00200259 -0.04555655 -0.03949935]
 [ 0.03651424  0.01332995  0.00635877]
 [ 0.02942638  0.09257714  0.0584446 ]
 [ 0.07744142  0.11610208  0.17462963]
 [-0.05398389  0.10058361  0.06659353]]
[[-0.05784063 -0.05435134  0.00453657]
 [ 0.09760563  0.07487547  0.04171746]
 [ 0.17427777  0.12608063 -0.00129225]
 [ 0.13074058  0.07979383  0.05732641]
 [-0.03446256  0.02172215  0.05385525]
 [-0.08586706 -0.05572591  0.09763285]
 [-0.12654327 -0.07530095  0.0442963 ]
 [ 0.00284     0.02876352  0.09160589]]
[[-0.15035538 -0.18695526 -0.09276091]
 [-0.10869917 -0.00800517 -0.09513288]
 [-0.05700589 -0.04547907 -0.0326521 ]
 [-0.05156061 -0.06590636 -0.15148638]
 [-0.1013972  -0.05460268 -0.09921897]
 [ 0.01284558  0.06025501 -0.00723342]
 [-0.15016587  0.09561045 -0.02619147]
 [-0.06565677  0.10383949  0.04974234]]
[[ 0.12598664  0.03982614  0.01368227]
 [ 0.01632879 -0.05387183  0.00053341]
 [-0.11335243 -0.18565077 -0.0850849 ]
 [-0.0174854  -0.14207526 -0.10807993]
 [ 0.05955285 -0.02690063 -0.05690587]
 [ 0.13141997  0.02719639  0.03215024]
 [ 0.09257495  0.06073628  0.11321153]
 [ 0.02704112  0.01423306  0.07215278]]
[[-0.00072391  0.07171674 -0.05084788]
 [ 0.04566379  0.02086484 -0.01354128]
 [ 0.03024288  0.03978978  0.04592614]
 [ 0.04678415  0.0490623   0.0214498 ]
 [ 0.00434256  0.10480253  0.00303674]
 [ 0.00705471  0.04346973 -0.00125912]
 [ 0.04816901  0.09269135  0.05598035]
 [ 0.0619055   0.00130362  0.00114178]]
[[-0.07267272 -0.11615054 -0.08584107]
 [ 0.09795386 -0.01424984 -0.02259236]
 [ 0.12860823  0.18326709  0.08324458]
 [ 0.15581883  0.16265477  0.08655757]
 [ 0.04402236  0.04617857  0.01585609]
 [ 0.04564876 -0.03350325  0.04420391]
 [ 0.01728135 -0.10420276 -0.07070449]
 [ 0.0054051  -0.04715494 -0.07759251]]
[[ 0.13267848  0.07537517  0.02286207]
 [ 0.00342731  0.03533344  0.02755888]
 [-0.11778992 -0.08409943 -0.02908574]
 [-0.05897573 -0.02988758 -0.02995537]
 [ 0.0718075   0.06653879 -0.03750593]
 [ 0.08837269  0.05891576  0.01645873]
 [ 0.12577662  0.11910795  0.07263441]
 [ 0.00937921  0.03753791  0.10440871]]
[[-0.05832611  0.04321958  0.04502521]
 [-0.00112815  0.04480581  0.00591022]
 [-0.04999508  0.00072866 -0.08616961]
 [-0.08305568 -0.06039213 -0.03334825]
 [-0.04945673 -0.08700825 -0.05623667]
 [-0.02662459 -0.05125101  0.01158966]
 [-0.09213992 -0.07994185  0.03845285]
 [-0.08726247 -0.00510542  0.04457543]]
[[ 0.04833112  0.02859603 -0.00542415]
 [ 0.12956546  0.1080713   0.03353212]
 [ 0.13251573  0.08306725  0.07836337]
 [ 0.05363436  0.03931457  0.05514685]
 [ 0.00483359  0.0237849   0.03976498]
 [-0.08310892 -0.07897287 -0.04395994]
 [-0.07294599 -0.06553883 -0.05686897]
 [-0.03979528 -0.02537208 -0.03639981]]
[[ 0.0576918   0.03506924  0.15035433]
 [ 0.07579374  0.01704125  0.08575177]
 [ 0.00989405 -0.06993961 -0.13203341]
 [-0.01870642 -0.15619816 -0.08392458]
 [-0.09260936 -0.03407628 -0.07437083]
 [-0.11374485  0.04719787  0.05384236]
 [-0.01799906  0.10767075  0.12730423]
 [-0.01267216  0.15607466  0.09947449]]
[[-0.16252118 -0.23812017 -0.09508773]
 [-0.0753146  -0.17189506 -0.12862256]
 [-0.05164789 -0.07369965 -0.12160379]
 [ 0.06754283 -0.06914283 -0.08901431]
 [ 0.03539686 -0.04084736 -0.00380792]
 [-0.04721228 -0.00834451  0.04581201]
 [-0.14120501 -0.04083928  0.06452814]
 [-0.01552598 -0.0077364   0.0134626 ]]
[[-0.00062023  0.05505919  0.06403402]
 [-0.00886788 -0.04704097  0.00644275]
 [-0.07884043 -0.12935968 -0.07429419]
 [-0.0798217  -0.09307727 -0.03605275]
 [-0.05244095 -0.02511407 -0.0603996 ]
 [ 0.07784396  0.0707909   0.05660519]
 [ 0.0346821   0.10544493  0.12871324]
 [-0.02417226  0.05571418  0.08429463]]
[[-0.17068997 -0.05479844  0.00959427]
 [-0.09559321 -0.17349045 -0.13325162]
 [-0.13447694 -0.3033326  -0.19397186]
 [ 0.04583609  0.00929288  0.01912363]
 [ 0.10708974  0.06470815  0.05138549]
 [-0.0009708   0.13425611  0.0798138 ]
 [ 0.11108527  0.14109555  0.0854177 ]
 [-0.04124104 -0.03265257 -0.02894141]]
[[-0.18184696  0.00868096  0.08001111]
 [-0.10499772 -0.11459765 -0.00261983]
 [-0.02308463 -0.1725618  -0.13287154]
 [-0.03995089 -0.1640361  -0.09922353]
 [ 0.06011674 -0.09091369 -0.00308866]
 [-0.00044061  0.03287232  0.03211896]
 [-0.0658594   0.01000399  0.08593539]
 [-0.1358985  -0.03494699 -0.00763203]]
[[ 0.01853747  0.01473676  0.00446089]
 [-0.01668055 -0.02360003 -0.01648777]
 [-0.08166763 -0.09622305 -0.03343622]
 [-0.04523465 -0.05757964 -0.01287846]
 [-0.00886498 -0.01433474  0.01699746]
 [ 0.04909144  0.09162707  0.04704306]
 [ 0.02507265  0.12346273  0.04542422]
 [ 0.02647548  0.09173577  0.03997349]]

filter18:
[[-0.03046464 -0.0459412   0.09598366]
 [-0.07720792  0.0113421   0.13507108]
 [-0.04477127 -0.09531361  0.07985279]
 [-0.07012004  0.00188507 -0.00902723]
 [-0.09507225 -0.04195808 -0.04498737]
 [ 0.01741448 -0.11058451 -0.03715445]
 [-0.04777888 -0.12005948 -0.0187919 ]
 [ 0.03055156 -0.1199177  -0.01146334]]
[[ 0.08639588  0.07305121  0.05583546]
 [-0.01577395  0.03914692  0.08006565]
 [ 0.06415877  0.17576306 -0.01540884]
 [ 0.05198235  0.1577399   0.03855834]
 [ 0.09793176  0.08498567  0.03739604]
 [ 0.00374221  0.11253603 -0.02133029]
 [ 0.04701944  0.09210254  0.07381095]
 [-0.00637492  0.07062271  0.07985697]]
[[-0.03932888 -0.07838999  0.02631935]
 [-0.05219696 -0.01657857  0.0167917 ]
 [-0.04215781  0.01950545  0.03407089]
 [ 0.0281475   0.0310487   0.02542166]
 [-0.00417058  0.08990745  0.09085171]
 [-0.08241571  0.01417529  0.09224305]
 [-0.05435444 -0.04297606  0.01780731]
 [-0.02520887 -0.0431693   0.0355695 ]]
[[ 0.02853476 -0.07206741  0.01689189]
 [ 0.1311769   0.00975559  0.15741463]
 [ 0.11072826  0.02336986  0.08067183]
 [ 0.01559762 -0.04659981  0.07625981]
 [ 0.0458337  -0.01032168  0.10744213]
 [-0.04357398 -0.01253223  0.01828223]
 [-0.06007116  0.00622891 -0.06827084]
 [-0.07993291 -0.01560387 -0.01063854]]
[[ 0.03610709  0.00674426 -0.02968735]
 [ 0.01967722  0.01561705 -0.03641424]
 [ 0.02579778  0.01390037 -0.03726746]
 [-0.01573104 -0.03545067 -0.07913784]
 [ 0.01044696 -0.08192795 -0.04902445]
 [-0.0551004  -0.04692321 -0.04779051]
 [-0.00071801 -0.03451631 -0.07757357]
 [-0.03539126 -0.07436416 -0.03032658]]
[[-0.04946597  0.06392407 -0.02034109]
 [-0.02226579  0.01490223  0.02330464]
 [ 0.06739036  0.03447733  0.02280187]
 [-0.03845047  0.05868448  0.00498399]
 [ 0.05898005  0.03168097  0.03234344]
 [-0.03113645  0.09953046  0.07141779]
 [ 0.02159392  0.03767081  0.04938636]
 [ 0.03392391  0.02419604  0.04787084]]
[[-5.7511766e-05 -2.7980754e-02 -1.2773557e-02]
 [-8.0749281e-03 -8.1501693e-02 -2.1357002e-02]
 [-1.2908503e-02  4.2980269e-02  5.1074207e-02]
 [ 6.8533279e-02 -2.7468404e-02  3.2432023e-02]
 [ 2.6358152e-02  1.0067883e-02  5.5916708e-02]
 [ 1.1096994e-02  7.2623059e-02  7.5130194e-02]
 [-5.4535836e-02  1.1158965e-02  4.7884163e-02]
 [-6.9970973e-03 -7.0720136e-02  2.7396981e-02]]
[[ 0.07433878  0.00827066 -0.01998558]
 [ 0.10204752  0.03060264  0.00741419]
 [ 0.05574564 -0.01383284 -0.01377929]
 [ 0.02364336 -0.03708545 -0.00135581]
 [-0.03153292 -0.09204667 -0.07309785]
 [-0.02967909 -0.056035   -0.07703685]
 [ 0.04579684 -0.07249308 -0.10708765]
 [-0.00872401 -0.08464693 -0.09715677]]
[[-0.02229642  0.03983682  0.02085535]
 [-0.01995733  0.0730119   0.04919116]
 [ 0.04724561  0.09664289  0.02442332]
 [-0.05109232  0.10527328  0.02012408]
 [-0.02737666  0.03020681 -0.02773431]
 [ 0.08591074 -0.00134948 -0.03962664]
 [ 0.03606296  0.02902647  0.01704911]
 [ 0.10089552  0.01194165  0.02499208]]
[[ 0.0021189   0.03744815  0.04212178]
 [-0.03740279 -0.00205834 -0.01603679]
 [ 0.03292511  0.0403412  -0.01473745]
 [ 0.02533241  0.01963653  0.02090029]
 [-0.02109115  0.0435804  -0.02324395]
 [-0.04479335  0.0376703  -0.03168453]
 [-0.06568134 -0.05984432 -0.03236452]
 [-0.07631251 -0.02730082 -0.0255151 ]]
[[ 0.02885727 -0.08891993 -0.02102227]
 [ 0.05081842 -0.08163877  0.03021605]
 [-0.00330071  0.04088434 -0.02999246]
 [ 0.00708256  0.0418017   0.01998359]
 [ 0.07274511  0.04461285 -0.07769068]
 [ 0.08184343  0.03301139  0.00497848]
 [ 0.01491078 -0.04278678 -0.07472517]
 [-0.03508196 -0.04796057 -0.12107994]]
[[-0.033069    0.04884508  0.11932639]
 [-0.01951058 -0.01454154  0.11854918]
 [-0.00785655  0.045337    0.09807258]
 [ 0.0193703   0.06557753  0.07209618]
 [ 0.03269548  0.14242038  0.09793933]
 [ 0.02144464  0.12942605  0.12712282]
 [-0.02472785  0.14554891  0.09611574]
 [ 0.03178054  0.18939109  0.07874817]]
[[ 0.03089805  0.01580924  0.02892989]
 [ 0.05234717  0.08113657  0.11190366]
 [ 0.02276794  0.01289684  0.06916166]
 [ 0.05898331  0.07961954  0.04096016]
 [ 0.04127418  0.05872205  0.00689453]
 [-0.01397097  0.01619292  0.02969518]
 [ 0.06192205 -0.0203887   0.01268889]
 [ 0.00179957  0.0064968  -0.0265421 ]]
[[ 0.07330883  0.04334856  0.05732918]
 [ 0.09542695  0.07557392  0.03892925]
 [-0.00848755  0.03943978 -0.03502364]
 [ 0.1361035   0.0374882  -0.0568606 ]
 [ 0.18923327  0.08300046 -0.04832282]
 [ 0.03187136  0.02030827  0.00349287]
 [ 0.17789572  0.07776026 -0.00202321]
 [ 0.12739263 -0.00404084 -0.02476143]]
[[ 0.05402053  0.00182366  0.02076693]
 [-0.02044963 -0.00338095 -0.00757652]
 [-0.02977764 -0.00805596 -0.0477169 ]
 [ 0.02662429 -0.06770123 -0.02416118]
 [ 0.03448921 -0.06861941 -0.07023496]
 [ 0.03189443 -0.00929093  0.02070152]
 [ 0.14898905 -0.06967945 -0.02002202]
 [-0.0034975  -0.02221293  0.04776948]]
[[ 0.07247345  0.04137994  0.02721813]
 [ 0.08096719  0.03958186  0.03548829]
 [ 0.02386111  0.02582696  0.01871194]
 [ 0.04106506  0.0433059   0.03015373]
 [ 0.03327321 -0.00636682 -0.01016282]
 [ 0.01516557 -0.04640688 -0.01439036]
 [ 0.03722811  0.02368603 -0.02722824]
 [ 0.02712571 -0.00819146 -0.03746429]]

filter19:
[[-0.05848241 -0.02203907  0.13892402]
 [-0.02138913  0.00485713  0.07962808]
 [ 0.03280612  0.03270942 -0.092544  ]
 [-0.00480611 -0.02017825 -0.11405728]
 [ 0.02179064  0.06971244 -0.11745108]
 [-0.10274498  0.12202973  0.01395091]
 [-0.14730917  0.06457054  0.08561129]
 [-0.12897694 -0.02067444  0.09127439]]
[[-0.01896216 -0.00891575  0.03128798]
 [-0.03226388  0.08853894  0.14039224]
 [-0.05102537 -0.06254074  0.04117784]
 [ 0.03806549  0.02738609  0.037727  ]
 [-0.02864277  0.1286575   0.07223383]
 [ 0.01407675  0.03234794  0.07093065]
 [-0.02277565  0.07347062  0.19787061]
 [-0.0775232   0.11251394  0.11668461]]
[[-0.11445039 -0.03854755 -0.03517707]
 [-0.09447972 -0.03430603 -0.02593117]
 [ 0.02840614  0.02582625 -0.05366198]
 [-0.02073774  0.00706171 -0.05118559]
 [ 0.03281986  0.04780972  0.01043137]
 [-0.04576278  0.04224462  0.06559833]
 [-0.11355429 -0.04283153  0.12565324]
 [-0.00831288 -0.03979813  0.09292751]]
[[-0.0425298  -0.08420695  0.0944518 ]
 [-0.01662466 -0.08644728  0.02810241]
 [ 0.20593385  0.0486952   0.1653352 ]
