param weight_fc1:=
[ 0.02051676  0.03757652 -0.01697734 -0.02728625  0.04700584 -0.03597803
  0.06371892  0.04892733 -0.0484817   0.04880994 -0.05379144 -0.0139649
  0.03522669  0.05715783 -0.07588846  0.06431445]
[-0.04722752  0.02093215  0.02445916  0.01456265  0.01045009  0.01096635
 -0.01877687 -0.0149059   0.03618911  0.00140456  0.04289923  0.0167136
 -0.03793108 -0.01730595  0.03351145 -0.01485179]
[-0.00227167  0.00886961  0.02933915 -0.03372747  0.00226921 -0.0057846
 -0.01515138  0.00422207  0.02196457  0.00665086  0.0187494   0.0180388
 -0.02752012  0.01441232  0.0177053   0.00412465]
[-0.0649492  -0.01800612  0.03129381  0.02647053 -0.01338089  0.03780667
  0.00105917 -0.04442149  0.01980429 -0.0151015   0.03203971  0.03086096
 -0.01745184  0.0024007   0.00634699 -0.02794809]
[-0.02055731  0.00275714  0.05889105  0.01388472 -0.01330896  0.00696293
 -0.0546331  -0.02540851  0.05377549 -0.02266898  0.06202154  0.02124684
 -0.05667955 -0.02453983  0.06716044 -0.05297867]
[ 0.03804315  0.07203152 -0.06621118 -0.05631656  0.07583744 -0.0486678
  0.10505403  0.07403259 -0.08134648  0.08834995 -0.11647436 -0.08877696
  0.07710119  0.10180479 -0.11412248  0.08115207]
[ 0.02649518  0.055987   -0.03911386 -0.02717203  0.04902114 -0.03165471
  0.05453561  0.06615192 -0.05378927  0.06348505 -0.08407691 -0.0680896
  0.04641539  0.11543632 -0.10766701  0.05836977]
[ 0.02782022  0.04134022 -0.03237789  0.0037062   0.03041684  0.00017641
  0.02336405  0.05382683 -0.02355288  0.02338084 -0.06225132 -0.02902935
  0.02592221  0.06134181 -0.05898941  0.01745955]
[ 0.04045389  0.06467364 -0.07251945 -0.05517681  0.07528187 -0.03963312
  0.06359214  0.09549551 -0.07044848  0.05603362 -0.08719049 -0.06369951
  0.03980439  0.08571455 -0.08287128  0.04277663]
[-2.7523585e-02  5.3458802e-02 -1.0284672e-02  1.7461724e-03
  4.1934941e-02 -4.0528355e-03  1.7265454e-02  3.4061972e-02
 -1.8052971e-02  3.4507856e-02 -2.2614561e-02 -3.0921256e-02
 -4.8902511e-05  3.0113684e-02 -4.9850971e-02  9.2885680e-03]
[-0.01907894  0.04142508 -0.01329887  0.00546274  0.03369296  0.01532464
  0.03054611  0.01978445 -0.02787579  0.03812601 -0.01765554 -0.02591048
  0.00057407  0.03295249 -0.01333079  0.01962034]
[ 0.0375428   0.02592617  0.0042975  -0.03842621  0.07170504  0.00256156
  0.05380243  0.08109533 -0.03885159  0.05563933 -0.07883982 -0.04223126
  0.07520051  0.05474114 -0.08286763  0.04909902]
[ 0.01460149 -0.03800493 -0.0001899   0.02030534  0.01488757  0.00365718
  0.03468321  0.01278685 -0.02572422  0.01835711 -0.01309337  0.01220226
  0.02927427  0.03814592 -0.0018116   0.00212189]
[ 0.00565344  0.03045975 -0.0010451  -0.00253138  0.02339126  0.00361129
  0.03269035  0.03452899 -0.01498009  0.02292213 -0.03551992 -0.01028056
  0.01394082  0.03581474 -0.05210702 -0.00314774]
[-0.00800485  0.00529892  0.02370326  0.00769242 -0.03889549 -0.01370296
 -0.05272022 -0.02918529  0.0513197  -0.02019639  0.06659343  0.04046698
 -0.02344601 -0.0346558   0.06730343 -0.02866164]
[-0.02780494  0.02658613 -0.0120335   0.01341571  0.03334713  0.00622473
  0.02761544  0.00361245  0.00325948  0.00720237 -0.03616482 -0.00321013
  0.01044459  0.0463335  -0.02513117 -0.00123031]
[-0.03019436  0.02159728  0.03968516 -0.00461964  0.00212607  0.00235322
 -0.02805186 -0.00012443  0.03869426 -0.01003673  0.00439635  0.02008041
 -0.04526555 -0.01644531  0.01756379 -0.04158153]
[-0.00065748  0.06853832 -0.02115592 -0.05953587  0.03786699 -0.03209338
  0.03942827  0.0572453  -0.0077997   0.07102799 -0.02920728 -0.02382979
  0.03175354  0.06502596 -0.01586812  0.04574067]
[ 0.06521161  0.11623898 -0.06490025 -0.07392821  0.09170639 -0.05809621
  0.08704378  0.08959876 -0.08040023  0.09401882 -0.09135951 -0.07944488
  0.04735716  0.08729471 -0.10234106  0.08038965]
[ 0.01091691  0.05222139 -0.01738574 -0.03898753  0.05661857 -0.028704
  0.04955753  0.04535471 -0.03699036  0.04870769 -0.05078029 -0.02445199
  0.02972715  0.08450394 -0.07087284  0.04170335]
[-0.02502072  0.04026151  0.01032536  0.0014015   0.02826426 -0.01606038
  0.0220965   0.03149066  0.00230808  0.03319326 -0.01281378 -0.00691702
 -0.00522659  0.03023853 -0.01829246  0.02894632]
[ 0.06897351  0.11175377 -0.07660565 -0.09932503  0.11500815 -0.08780803
  0.1376648   0.09155389 -0.09245736  0.10475358 -0.11496042 -0.09752784
  0.09645661  0.1197104  -0.12330177  0.11375469]
[ 0.02856359  0.01438714 -0.00462144 -0.03550522  0.02390015 -0.03150295
  0.00635341  0.00987839 -0.01282743  0.02374973 -0.01666256 -0.02298461
  0.01223207  0.04345977 -0.01001179  0.02423239]
[-0.02769626  0.01062146  0.00677666  0.01290761  0.01084349 -0.01312629
 -0.00258983  0.00771041  0.00099268  0.008183    0.00420678  0.00208403
 -0.00082044  0.0125878  -0.03143571  0.00781786]
[ 0.0115264   0.03817677 -0.02648501  0.00511441  0.03747424 -0.01691177
  0.02239217  0.01144827 -0.01416767  0.0216086  -0.03902125 -0.01686191
  0.01314658  0.05864749 -0.03390251  0.01568574]
[-0.03641776 -0.03228876  0.03792097  0.03149608 -0.03690758  0.04625511
 -0.03253716 -0.03295166  0.05262607 -0.03915795  0.03779911  0.0283005
 -0.04293395 -0.02887237  0.05501757 -0.03978631]
[ 0.11947573  0.16785821 -0.1603295  -0.15753928  0.15234606 -0.16156597
  0.11843115  0.164093   -0.12123634  0.18361129 -0.14810014 -0.1255428
  0.11161835  0.18106416 -0.14250866  0.15367635]
[ 0.02209308  0.057216   -0.03886914 -0.04221765  0.0273906  -0.0353369
  0.03149013  0.06497034 -0.02354709  0.07485821 -0.0722393  -0.04048447
  0.05701456  0.06212944 -0.03518235  0.0697464 ]
[ 0.08929836  0.08645304 -0.10325547 -0.07292882  0.07861803 -0.0964356
  0.08619075  0.1120515  -0.10265638  0.11292046 -0.09231891 -0.11027795
  0.08491845  0.13017552 -0.08848074  0.11292205]
[ 0.05927361  0.04700186 -0.00877511 -0.05067898  0.03109317 -0.06525404
  0.04901219  0.03324281 -0.03948597  0.02073165 -0.02852237 -0.02261283
  0.05510008  0.0518882  -0.0241263   0.03822107]
[ 0.02461731  0.0538166  -0.04595726 -0.03906189  0.08081588 -0.07495712
  0.03875974  0.06734533 -0.02966032  0.091692   -0.05648604 -0.05042274
  0.04132307  0.08746552 -0.02848633  0.06071723]
[-0.06720017 -0.00757006  0.03017725  0.03268296 -0.02889675  0.03703536
 -0.01457701 -0.00876751  0.01890825  0.00158696  0.02404078  0.01974704
 -0.01565759  0.02740408  0.00303415 -0.01507424]
[ 0.05886669  0.05582894 -0.03880873 -0.0398319   0.03130708 -0.04358206
  0.0745853   0.04683186 -0.03552864  0.06766292 -0.04846929 -0.05104778
  0.06610212  0.078279   -0.04395039  0.0417829 ]
[-0.01141391  0.037737   -0.03791238  0.01522813  0.01172441  0.01344189
 -0.00995071 -0.01318325  0.02309847  0.00131235  0.02172739 -0.02508451
 -0.0218361  -0.01405177  0.00292377  0.00406336]
[-0.01841885  0.02900819  0.01617051  0.03906091  0.01010855 -0.01063231
 -0.0381644  -0.02062511  0.02871255 -0.02514715  0.04868891  0.01127534
 -0.04139846 -0.0077074   0.08646958 -0.00843335]
[-0.06066458 -0.01969127  0.05026008  0.04789287 -0.02715807  0.05357073
 -0.01276106 -0.03976916  0.03925839 -0.0022262   0.04543769  0.0378136
 -0.02284329  0.0041771   0.03814046 -0.03393108]
[-0.06715377 -0.03975302  0.0659189   0.06981632 -0.04088663  0.08597405
 -0.07540933 -0.09302314  0.0769299  -0.04758548  0.09575888  0.06729314
 -0.09684701 -0.06458688  0.11701676 -0.07756632]
[ 0.01371447  0.06540724 -0.00751773 -0.04920662  0.05190871 -0.01185244
  0.06966752  0.05005709 -0.01509082  0.07425292 -0.07980479 -0.04617355
  0.02906603  0.06622333 -0.08076588  0.05363117]
[-0.03218961  0.04587742 -0.01763679 -0.00617327  0.03382445 -0.00346896
  0.0364071   0.02765434 -0.02846559  0.04430918 -0.05418499 -0.02657435
  0.00655161  0.05744672 -0.05991766  0.0293327 ]
[ 0.02386174 -0.01009351  0.01304798  0.00488297  0.00039153  0.00415837
  0.03678152  0.0056677  -0.02436085  0.025268   -0.01103476 -0.03925614
  0.04507184  0.05046585 -0.0457      0.03145798]
[ 0.04681515  0.06080161 -0.07912892 -0.02770979  0.07427802 -0.05841064
  0.06058869  0.08291726 -0.07159235  0.05991918 -0.06665894 -0.09138058
  0.02845298  0.08776318 -0.09777787  0.04764576]
[-2.0353710e-02  1.9418066e-02  6.6633062e-03  8.5055735e-03
  1.8866066e-02 -3.3857466e-03 -6.4992299e-03  8.8423049e-06
  2.4418226e-02 -1.8572714e-03  2.6424566e-02 -1.4440495e-03
 -3.4106909e-03  4.0467107e-03 -1.8040495e-02 -3.6114126e-03]
[-0.03864326  0.04220318  0.01360912  0.01824369  0.01443105  0.01973737
 -0.01970305 -0.02240761  0.00763163  0.01195691  0.02946579 -0.00123916
 -0.00598833  0.00710791 -0.00452431 -0.03925284]
[-0.02510801  0.00417712  0.03373283 -0.03888096  0.02613715  0.04589561
  0.00889659  0.01826371  0.01898503 -0.00704222 -0.09764726  0.05631663
  0.03428425  0.05978036 -0.03709371  0.00147906]
[ 0.01782552  0.02525127 -0.0412413   0.02715365  0.02028592 -0.0496552
  0.03219551  0.04889885 -0.06142661  0.03872174  0.02116711 -0.05133623
  0.02225806  0.06160936 -0.02087558  0.04219877]
[-0.03974529  0.00794184  0.0097731   0.01924527 -0.00337194 -0.00015676
  0.01523963  0.00941995 -0.0078598   0.00670126 -0.00154011 -0.01864184
 -0.01111181  0.02080795 -0.01498476 -0.01279309]
[-0.00034708 -0.02667078  0.00548855  0.03636733 -0.01157023  0.01248471
 -0.03715611 -0.03679432  0.04837585 -0.0382966   0.03966866  0.02396222
 -0.02712473 -0.04688612  0.06433249 -0.01268232]
[-0.03640109  0.0437698   0.00584846 -0.00725058  0.00018424  0.01845441
 -0.0045428  -0.00705908  0.00871717  0.01547328 -0.0061919  -0.00396597
 -0.01143586  0.01042457  0.00967584 -0.00957964]
[ 0.02353697  0.07854313 -0.06451841 -0.05309584  0.04276234 -0.05262228
 -0.02186937  0.04504038  0.00523898  0.0407174  -0.02817155 -0.0093625
  0.01541608  0.04802954  0.00636432  0.01650527]
[ 0.06768928  0.08012615 -0.05116015 -0.06959275  0.04097756 -0.08007985
  0.01997349  0.05945742 -0.01157553  0.06555133 -0.04531508 -0.06951097
  0.02752008  0.05231108  0.00339488  0.04677999]
[ 0.04553777  0.11257003 -0.08279829 -0.0760174   0.0972374  -0.06114521
  0.04258712  0.05723678 -0.0504511   0.0875821  -0.06865835 -0.03902541
  0.0329106   0.07244782 -0.07323761  0.06174145]
[ 0.00405844  0.05278385 -0.02200185 -0.03624681  0.01288781 -0.01991866
  0.03672725  0.01450668  0.00496412  0.03432756 -0.02140018  0.0026385
  0.01173249  0.03420324 -0.00675519 -0.00029543]
[-0.03107035  0.03724779 -0.01238847  0.00364875 -0.00585167  0.00401909
 -0.01033115 -0.02295971  0.01100336  0.02356867 -0.02103928 -0.0145808
 -0.02602084  0.01070565  0.02271034 -0.01003366]
[ 0.04971378  0.08278466 -0.07178461 -0.07850318  0.11615501 -0.06938369
  0.10711484  0.10581148 -0.09485351  0.12461855 -0.11312294 -0.08465863
  0.09896749  0.12420578 -0.08982817  0.10847764]
[-0.02210164  0.01185959  0.00430341  0.02052016 -0.00085244  0.00781756
  0.01467119 -0.00636067 -0.00438076  0.01789538  0.01783214 -0.00266664
 -0.0268008   0.02308265  0.03862402 -0.00427425]
[-0.030555    0.02949137  0.01529094  0.00829104  0.00206893  0.00554186
  0.0081211  -0.00835181  0.00751803  0.03237575  0.00016739  0.00939077
 -0.00795192  0.02145473  0.0190166   0.00549275]
[-0.01677649  0.07142721 -0.05742048 -0.00333221  0.03721195 -0.02267184
  0.00675981  0.03506314 -0.01941472  0.04438755 -0.01813504 -0.01920531
  0.0137021   0.02989107 -0.03118587  0.02608841]
[-0.00749468  0.00494871  0.02616671  0.00649248 -0.03747605  0.01756041
  0.01009135 -0.03401347  0.01863804 -0.0040036   0.03053833  0.00536231
  0.00980982  0.00681749  0.04699656 -0.01789739]
[ 0.12097811  0.14881599 -0.10220305 -0.11315011  0.16007395 -0.06748021
  0.1026446   0.12408977 -0.10261214  0.10438833 -0.1354161  -0.08833518
  0.07999625  0.14444025 -0.12121233  0.06080034]
[-0.00915093  0.04835583  0.02015871 -0.01009688 -0.01069944 -0.00138791
 -0.03111835  0.02215398  0.01334179  0.03455719  0.00062243  0.01493487
 -0.02660356  0.01587298  0.00383217 -0.02061156]
[ 0.05190945  0.05790554 -0.07323429 -0.04131494  0.07692402 -0.05832067
  0.05350822  0.08596147 -0.0967228   0.07662375 -0.11569531 -0.07314784
  0.06467289  0.10614487 -0.10184989  0.06225159]
[ 0.07739733  0.01812895 -0.03626551 -0.05095119  0.0440946  -0.03687363
  0.05901395  0.03919946 -0.00970984  0.04424528 -0.03593471 -0.01817318
  0.0311666   0.03272032  0.00801408  0.04164053]
[-0.00304409  0.04056531 -0.02626256 -0.00607765  0.00528677 -0.05197312
 -0.0032173  -0.02254809  0.00361556  0.02250168  0.02121562 -0.0396725
 -0.03563225 -0.01255898  0.02618207  0.01657783]
[-0.046865    0.01001883  0.04514007  0.0290597   0.01107525  0.04687798
 -0.01556394 -0.01426197  0.01413393  0.01104406 -0.02145307  0.03652654
  0.0001871   0.020819   -0.0062566  -0.01240469]
[ 0.19677934  0.18352275 -0.15244868 -0.1302897   0.18085301 -0.1851521
  0.20721476  0.17231776 -0.12995903  0.1572056  -0.20889293 -0.17910914
  0.207338    0.22209819 -0.13141146  0.18730906]
[-0.07029685 -0.02642454  0.07336133  0.12069346 -0.0684116   0.06693359
 -0.05645199 -0.06888903  0.08235299 -0.0558483   0.07658532  0.01557776
 -0.06844378 -0.09235074 -0.03803881 -0.08822128]
[ 0.09060342  0.12519191 -0.12236664 -0.05157971  0.1075092  -0.10426533
  0.05716266  0.06034883 -0.06109625  0.07794603 -0.0522406  -0.07915233
  0.08283862  0.09626883 -0.04070548  0.0968016 ]
[-0.03777372  0.01533433  0.00538653  0.02872878 -0.0103961   0.03760036
 -0.01292203 -0.03614283  0.03000137 -0.0224085   0.03055479  0.03605485
 -0.01439078 -0.01043681  0.04039933 -0.04276846]
[-0.06150811 -0.00377703  0.02469145  0.04502006 -0.01652288  0.04487357
 -0.05616711 -0.07221394  0.04532035 -0.05067791  0.07577956  0.06221248
 -0.05322584 -0.03748537  0.07855134 -0.05297038]
[ 0.07169781  0.10352615 -0.06966445 -0.07663083  0.07906322 -0.11540726
  0.08780893  0.09518259 -0.0800542   0.12097175 -0.11533674 -0.10451517
  0.08819136  0.10874429 -0.11304341  0.10172569]
[ 0.03076202  0.06717215 -0.02342697 -0.10807759  0.0814667  -0.06250118
  0.07048247  0.05887718 -0.01943762  0.05656313 -0.07946656 -0.00442145
  0.05743074  0.08230665 -0.0054252   0.02550589]
[ 0.0467988   0.07029132 -0.09383515 -0.01547502  0.10154419 -0.08384623
  0.11702353  0.05367305 -0.05639336  0.08943213 -0.06955969 -0.09550614
  0.1080784   0.10458932 -0.09451687  0.08294678]
[ 0.04555601  0.07639573 -0.08472368 -0.04417549  0.07553738 -0.03132931
  0.08489649  0.05069932 -0.05470925  0.08369344 -0.09721035 -0.07125922
  0.04158225  0.08122002 -0.12057257  0.03064222]
[-0.05860017 -0.00721816  0.03725272  0.06616927 -0.02864766  0.02792513
 -0.0110776  -0.02632213  0.0125733  -0.01401407  0.04511185 -0.02674796
 -0.03164604 -0.02029191 -0.02417723 -0.04386026]
[-0.01843764  0.05802258 -0.0007053  -0.0280703   0.03137507  0.00668713
  0.01301831  0.00479268  0.00603375  0.03125205 -0.00677004  0.00889926
  0.01381065  0.0448773   0.01348422 -0.00534873]
[-0.06122958 -0.03889442  0.05430898 -0.02199693 -0.06406977  0.0231751
 -0.03978835 -0.00423412  0.05717245 -0.01481999  0.03264772  0.08257808
 -0.03556613 -0.02928953  0.13259546 -0.01243482]
[ 0.02019593  0.05376007 -0.09685747 -0.01696514  0.05299261 -0.033803
  0.05421039  0.05834963 -0.05441396  0.06845852 -0.04876769 -0.03970602
  0.04130979  0.09889584 -0.05903231  0.05184616]
[-0.02965737  0.02267385  0.00366182  0.01665707  0.01344461  0.01860151
  0.02305277 -0.01213992 -0.02731257  0.00394002 -0.018672   -0.0059098
  0.00732724  0.01939669 -0.04344574 -0.00516557]
[-0.03316448 -0.02708029  0.04094884  0.01211503 -0.04756937  0.03867636
 -0.01886645 -0.02987491  0.05956246 -0.02923021  0.05390252  0.0377506
 -0.01966946 -0.03267681  0.04278171 -0.03351486]
[-1.5896777e-02  3.9444692e-02  1.1949744e-02 -1.2676235e-02
  1.5668184e-02  7.9085864e-03 -1.1540746e-02  1.0779786e-03
  4.6783597e-03  2.2128856e-02 -2.5119429e-02  5.9180688e-03
 -2.8630951e-04 -9.6329532e-05 -1.9567356e-02  3.0424591e-04]
[ 0.02702443  0.05969569 -0.0729542  -0.02421716  0.03061076 -0.06261616
 -0.02258387 -0.02590376  0.03954811  0.01827139  0.03108808 -0.03795722
  0.024912   -0.00755514  0.06552713  0.02131356]
[ 0.00246734  0.07175412 -0.06556299  0.02368682  0.04588517 -0.05110257
  0.01710172  0.02843495 -0.01338627  0.04609565 -0.0023917  -0.05062642
 -0.00710068  0.04802591 -0.01966717 -0.00338539]
[ 0.06639811  0.12172776 -0.10176463 -0.08852752  0.12882404 -0.09954369
  0.04687196  0.07450289 -0.06661051  0.1108486  -0.06374394 -0.05298053
  0.05054352  0.05147504 -0.03430242  0.05805666]
[-0.01418478  0.03071265 -0.04503302  0.01071661  0.03413601 -0.04868334
  0.0132457   0.00508767  0.03576104  0.00090043  0.01547869 -0.01234355
  0.01497795  0.0137592   0.04231396  0.02104441]
[-0.01887313  0.03882872  0.00827756  0.00367848  0.02011508  0.0134868
 -0.0241467  -0.00772188  0.02656951  0.0148394   0.00685091 -0.00415457
 -0.01626592 -0.01348378 -0.00424661 -0.00571068]
[ 0.1482389   0.19797139 -0.21275955 -0.1918685   0.22937383 -0.16988057
  0.20487215  0.22146767 -0.20357074  0.21358953 -0.20839088 -0.13388284
  0.16323914  0.282715   -0.21586753  0.18807197]
[-0.02472076 -0.00941755  0.00316336 -0.00125091  0.00877527  0.0151893
 -0.03396314 -0.00097415  0.01300699 -0.01505361  0.00398516  0.03364687
 -0.01094207  0.00757947  0.058617   -0.00737412]
[-0.00991777  0.02976107 -0.01291171  0.02167443  0.01718241  0.0121728
 -0.01592865 -0.00769807  0.00412672  0.01284695 -0.00589315  0.00994053
  0.00603435  0.02249328  0.00921516 -0.00961921]
[ 0.03203703  0.12787037 -0.10985675 -0.04351874  0.09504286 -0.09714799
  0.10310828  0.08650193 -0.0710819   0.10360856 -0.07622307 -0.11285812
  0.06851172  0.10974776 -0.08484642  0.08066833]
[ 0.04246176  0.07043306 -0.06963556  0.00911513  0.02958206 -0.11710501
  0.03689355  0.05518178 -0.04440664  0.04862595  0.02220022 -0.078485
  0.05002678  0.08935603  0.05800526  0.07675243]
[ 0.14859745  0.19469464 -0.20442352 -0.15735327  0.19721332 -0.13042736
  0.10256219  0.18270786 -0.1430288   0.16903193 -0.1464505  -0.09561557
  0.11918737  0.1944644  -0.10691652  0.13032229]
[ 0.02726435  0.06302036 -0.05721988  0.00408497  0.04845897 -0.07129095
  0.01389356  0.03090711 -0.02656005  0.02372393 -0.03221907 -0.03542503
  0.04915942  0.08099671  0.03259737  0.02988119]
[ 0.07182268  0.07573467 -0.06769169 -0.07977943  0.09108949 -0.06770149
  0.09525083  0.08573389 -0.09614869  0.11291507 -0.10990191 -0.05023259
  0.08430521  0.13546945 -0.07880452  0.06455511]
[ 0.10342875  0.05343966 -0.09876347 -0.09848169  0.04875557 -0.11352025
  0.05000496  0.06905889 -0.04523872  0.07485022 -0.03782243 -0.05654677
  0.06801879  0.06706454 -0.03176336  0.1049709 ]
[-0.07226674 -0.02796339  0.08506995  0.14788887 -0.09956153  0.09548274
 -0.12554799 -0.07100312  0.09704954 -0.09647071  0.08253609  0.01719441
 -0.12617019 -0.09415536  0.06866205 -0.073839  ]
[-0.03467664  0.03310521  0.01191644 -0.04428797  0.00282597  0.01515699
 -0.00747207  0.00190007  0.00395813  0.01191278 -0.02399853  0.02209992
  0.01294127  0.04647091  0.00844108 -0.00221397]
[ 0.3050513   0.31100404 -0.28730127 -0.34759122  0.30206138 -0.33281142
  0.301143    0.3253082  -0.2840215   0.34051657 -0.31684053 -0.32115126
  0.26618207  0.30726403 -0.35598257  0.31346354]
[-0.08770248 -0.03936002  0.07928684  0.09921398 -0.04939171  0.08184493
 -0.04456961 -0.02648919  0.04027861 -0.01979435  0.07096642  0.0016317
 -0.05380688 -0.05959977 -0.00136064 -0.01600421]
[ 0.2487844   0.2710198  -0.24881561 -0.23971474  0.21515955 -0.27063203
  0.20763583  0.19417287 -0.1743782   0.23164566 -0.20079802 -0.2051341
  0.22501673  0.23179325 -0.12630446  0.27604485]
[-0.07404479 -0.01953972  0.0675197   0.04709517 -0.01186033  0.037847
 -0.04902546 -0.03634705  0.05161082 -0.02876164  0.04335585  0.04635545
 -0.05112332 -0.01852233  0.05385734 -0.0432911 ]
[-0.05325655 -0.01771301  0.04575367  0.04429638 -0.06240118  0.03231174
 -0.0751339  -0.08919052  0.09298383 -0.07294564  0.10410072  0.07803681
 -0.07798623 -0.04440087  0.13952164 -0.05698598]
[ 0.0381746   0.0981951  -0.03668883 -0.04061865  0.08973096 -0.03214337
  0.07992806  0.09581417 -0.06406991  0.07890609 -0.09410229 -0.08922763
  0.06623451  0.09098214 -0.15494993  0.050954  ]
[-0.00303788  0.05841672 -0.09261464 -0.01662306  0.07221227 -0.02553098
  0.01160729  0.00979072  0.00693815  0.02680744 -0.04510973  0.01384579
  0.0553784   0.06769419  0.05454148  0.00900882]
[ 0.18541816  0.23505422 -0.17140041 -0.1685502   0.19647588 -0.22577438
  0.22826391  0.22671482 -0.21750915  0.22938325 -0.20193851 -0.23839547
  0.1787994   0.2125056  -0.29966497  0.2400186 ]
[ 0.08532592  0.08191524 -0.08352381 -0.04569206  0.11770717 -0.08038126
  0.08204554  0.07182885 -0.08735977  0.09491491 -0.06719041 -0.12907489
  0.07476985  0.07562464 -0.12447223  0.10172683]
[-0.03784911 -0.00063704  0.04838987  0.06761728 -0.01656431  0.06318263
 -0.01353973 -0.01099091  0.02368842 -0.02739674  0.02397231 -0.01821199
 -0.03094568 -0.0101694  -0.05449086 -0.04533469]
[-0.02421338  0.01963392  0.02694826  0.008308   -0.00036447 -0.01176436
 -0.02796445 -0.0147243   0.05916596 -0.01760926 -0.01122157  0.00759506
 -0.00051382 -0.00314809  0.0596243  -0.01495574]
[-0.05206891 -0.10146349  0.13438678  0.07658187 -0.07761962  0.07000356
 -0.1219585  -0.07581354  0.13274845 -0.13212357  0.01768908  0.1308552
 -0.09457597 -0.08398484  0.16536015 -0.11449635]
[ 0.13653469  0.15800394 -0.13140197 -0.16758077  0.16864203 -0.21066244
  0.18786825  0.19395426 -0.158622    0.20248717 -0.1379832  -0.15052392
  0.15581515  0.11811233 -0.21201488  0.1873565 ]
[ 0.00147946  0.04653684 -0.02923791 -0.01728855  0.03567316 -0.02381415
  0.03489082  0.02938064 -0.03142925  0.04290062 -0.03575301 -0.03965985
  0.0086354   0.02565151 -0.03236942  0.02174489]
[-0.02419026 -0.02452699  0.02614809  0.00984001 -0.01254967  0.00504696
 -0.00939623 -0.0426853   0.0504148  -0.02255927  0.04440523  0.00829614
 -0.02965534 -0.03430362  0.03072563 -0.02271747]
[-0.01958884  0.00307643 -0.00305438  0.02803181  0.02607766  0.00408462
  0.00299998  0.00454506  0.01344632  0.00260734  0.01222074  0.00647546
  0.00574803  0.0224585   0.00590971 -0.01132485]
[ 0.06618188  0.04653754 -0.05047182 -0.02440447  0.04984875 -0.0784
  0.01423992  0.0256258  -0.00821339  0.03261244 -0.00638894 -0.0682442
  0.05707636  0.06444763  0.05079585  0.04938193]
[ 0.05264544  0.11643146 -0.0791689  -0.02019126  0.08491673 -0.07454207
  0.064656    0.07638367 -0.06830595  0.06235671 -0.03070905 -0.11198533
  0.04166067  0.07264639 -0.13208431  0.07244271]
[ 0.007186    0.08213145 -0.08731787  0.02576644  0.04059547 -0.03847412
  0.00612615  0.03117009  0.00125098  0.02494182 -0.00127941 -0.0659894
  0.03438128  0.05641546 -0.01457803  0.02403383]
[-0.02954225  0.01974572  0.04168643  0.05136575  0.00623244  0.02890006
  0.00758008  0.01625129 -0.01315532  0.00955953 -0.00465801 -0.03876758
 -0.0156922  -0.00799855 -0.07970812 -0.00288393]
[-0.04081274  0.01813008 -0.00282944  0.03017418  0.00598071  0.01165849
 -0.00731057  0.00366991  0.02753747  0.00888323  0.01943952 -0.01474728
 -0.01743168 -0.00333768  0.00219467 -0.01681575]
[ 0.19497982  0.2507986  -0.2574586  -0.24073826  0.26209512 -0.24660186
  0.24844044  0.26906085 -0.2555452   0.24308446 -0.26793393 -0.2009257
  0.22520182  0.29764602 -0.22152671  0.21963392]
[ 0.02209186  0.05922315 -0.07533187 -0.04868823  0.01652713 -0.05721787
  0.01436394  0.01627854 -0.01997419  0.03589556  0.01393456 -0.00444815
  0.00274465  0.03427239  0.02446665  0.02862485]
[-0.03248392  0.033218    0.02535368  0.02080037  0.01789032  0.01989535
  0.00310653 -0.01646386 -0.00288574  0.00015277  0.01082836 -0.0228017
 -0.00011218  0.004165   -0.02837039 -0.01056294]
[ 0.13920738  0.18432567 -0.13342428 -0.13653882  0.18501459 -0.16701934
  0.2001507   0.1695953  -0.157388    0.16738176 -0.17526898 -0.15524656
  0.16333266  0.18099153 -0.20617548  0.18061511]
[ 0.11255323  0.11105596 -0.06889575 -0.07804767  0.05928684 -0.12011902
  0.07634869  0.08574535 -0.04706811  0.08554114 -0.05882063 -0.12923403
  0.05602052  0.09873513 -0.13278806  0.1082736 ]
[ 0.03147672  0.10384646 -0.12021602 -0.04925491  0.09072296 -0.06406152
  0.05362524  0.09623974 -0.05777063  0.07098478 -0.05632486 -0.08645447
  0.04154499  0.12623072 -0.05372621  0.07690571]
[ 0.03143976  0.05270302 -0.00907524  0.0025284   0.03838786 -0.0357498
  0.00546246  0.02931515 -0.02858478  0.05723241 -0.04056681 -0.06130825
  0.01274465  0.07858107 -0.03774605  0.03048245]
[ 0.11796892  0.15135005 -0.1706269  -0.13817704  0.12739605 -0.14315385
  0.10130317  0.12465591 -0.13338692  0.14236136 -0.11249613 -0.10729442
  0.14916353  0.19845425 -0.04504948  0.1113338 ]
[ 0.10012965  0.04524232 -0.04612526 -0.0886467   0.05290384 -0.06794816
  0.05574857  0.0292972  -0.02512766  0.03124393 -0.0727136  -0.07893043
  0.06346858  0.08566541 -0.06664633  0.03765429]
[-0.11125375 -0.02829229  0.13244204  0.1255146  -0.05442479  0.08758346
 -0.10772424 -0.06187264  0.09134518 -0.04452394  0.09033167  0.02102532
 -0.12036954 -0.09859745  0.02569229 -0.06493595]
[-0.02674471 -0.01298267  0.03684779 -0.00450458 -0.01574603  0.03432086
 -0.0378865  -0.03229034  0.04985712 -0.01489385 -0.0078209   0.05684093
 -0.03943219  0.01577817  0.07036243 -0.03221446]
[ 0.16718003  0.2295172  -0.27282542 -0.17679496  0.19828053 -0.2409821
  0.2142525   0.14276274 -0.16036062  0.18473451 -0.16455394 -0.1505318
  0.23722118  0.2308917  -0.10464735  0.21550156]
[-0.05355024  0.01782924  0.0641489   0.02113306 -0.02362908  0.03680577
 -0.04945069 -0.04901236  0.01629206 -0.01246794  0.05663069  0.03338708
 -0.03824158 -0.0354685   0.0766423  -0.02269271]
[ 0.2674258   0.29401252 -0.25437784 -0.26739806  0.19671117 -0.35546666
  0.16355819  0.17394112 -0.14788571  0.23913762 -0.16676822 -0.23323731
  0.20497347  0.21971029 -0.14758638  0.26331583]
[-0.0603845  -0.00438144  0.04719754  0.05057363 -0.01134471  0.0378335
 -0.02718044 -0.02096348  0.03547832 -0.00397002  0.0607181   0.00945448
 -0.03282861 -0.00390908  0.03140758 -0.02229131]
[-0.06152773 -0.05574422  0.09556632  0.04632917 -0.06565846  0.03607961
 -0.06420078 -0.05824729  0.08095367 -0.05506414  0.08358653  0.05436651
 -0.06288585 -0.0544134   0.07862616 -0.06541878]
[ 0.06187418  0.0750761  -0.12795515 -0.04976195  0.1290798  -0.0813276
  0.10312591  0.10833105 -0.11367568  0.10250685 -0.11544936 -0.13663542
  0.07379525  0.11989953 -0.15710112  0.06009011]
[ 0.01855991  0.05841647  0.00476701 -0.00840875  0.03486889 -0.01379236
  0.02134053  0.02437718  0.00832939  0.03940679 -0.02313577 -0.05732335
 -0.00071005  0.05185468 -0.1042409   0.01250811]
[ 0.10184883  0.12270866 -0.260877   -0.10248192  0.12877113 -0.13986872
  0.1276204   0.07192039 -0.14560778  0.12096254 -0.12817712 -0.05166687
  0.18274455  0.1493159  -0.06076836  0.11201977]
[ 0.01333413  0.07928529 -0.06177719 -0.00309628  0.04375013 -0.00708316
  0.03225373  0.05502613 -0.05810459  0.04322536 -0.01337925 -0.0535672
  0.029942    0.08214311 -0.06929351  0.03141272]
[-0.02511486  0.04124463 -0.01764609  0.00588322  0.02294186  0.00609627
  0.00382089  0.0147369   0.00707003  0.02437702  0.00583865 -0.01086402
 -0.01264244  0.03816207 -0.00540035  0.00299382]
[-0.03841401  0.02581147  0.04187681  0.01712739 -0.01058016  0.01692598
  0.00790277 -0.00312391  0.02219193  0.01004499  0.02754602 -0.00988437
 -0.03923041  0.03926342 -0.01810028 -0.04254165]
[ 0.01232704  0.02188626 -0.01967367 -0.02916243  0.00295716 -0.06542923
 -0.02053068  0.03837106  0.00014189  0.040568   -0.06885283 -0.01296809
  0.0092285   0.03121875 -0.09289207  0.00241793]
[ 0.12490422  0.13915183 -0.1210852  -0.11786281  0.1368778  -0.12427158
  0.14413427  0.07000483 -0.09228883  0.07959232 -0.12071278 -0.08311642
  0.15266633  0.15197165 -0.12378087  0.11063126]
[-0.02831793  0.02513322  0.01759197  0.02525822  0.01496627  0.04173003
  0.00732713  0.00194296 -0.00054741  0.01344193  0.01128626  0.02108234
 -0.00061762  0.0162358   0.0027421  -0.00687193]
[ 0.01423685 -0.0110765   0.04636494 -0.00026613 -0.03531625 -0.02000934
 -0.02056629 -0.00933887  0.02514246 -0.0088953   0.01753674 -0.00622216
 -0.0009517  -0.01367087  0.01572431 -0.00406351]
[-0.04463703  0.0140843   0.02001758  0.0227502  -0.0043576   0.02719752
  0.02522252 -0.00857535  0.02852861  0.01673333  0.00695121  0.00300951
 -0.01263728  0.00838018 -0.01948432 -0.00663055]
[ 0.08597947  0.12505354 -0.06281643 -0.08383951  0.09045977 -0.12605825
  0.04335072  0.03958159 -0.01659361  0.09159494 -0.02968642 -0.11281613
  0.04746488  0.06175653 -0.04002365  0.12491755]
[ 0.15470003  0.19533473 -0.2281944  -0.13415678  0.20680232 -0.20490563
  0.15512414  0.11757623 -0.14698768  0.16319658 -0.14794193 -0.14737186
  0.19688061  0.14918835 -0.11471727  0.1966426 ]
[-0.02999386 -0.01392751  0.01269581  0.02337326  0.03370034  0.05119001
  0.00819     0.03886817  0.00099963 -0.00338737  0.01926631 -0.03519333
 -0.01915495  0.02509676 -0.04737043 -0.01400591]
[-0.01388021  0.03411955 -0.10445513 -0.01138747  0.10486218 -0.01221202
  0.05867966  0.04605675 -0.0206442   0.05937066 -0.05644159 -0.00474898
  0.08689022  0.08052049 -0.01639595  0.01477274]
[-0.05171264  0.03458876  0.03667581 -0.00075717 -0.00594687  0.02385043
 -0.00620837 -0.00095559  0.02813105 -0.00898061 -0.00765193 -0.00589722
 -0.03348813  0.03427689 -0.020245   -0.00268916]
[ 0.18462364  0.18346998 -0.23948604 -0.16285697  0.2281361  -0.20141971
  0.2184812   0.19005263 -0.16101374  0.19631295 -0.24564365 -0.16838776
  0.22614497  0.26777095 -0.19106913  0.17174175]
[ 0.02843692  0.0906935  -0.06600349 -0.0767731   0.04315915 -0.08443539
  0.02960832  0.02820719 -0.04973209  0.06869835 -0.02438043 -0.0453971
  0.02753259  0.07315704 -0.01763974  0.04518047]
[-0.03727147  0.0359549   0.02400541  0.00427651  0.02538353  0.00652662
  0.01278238 -0.01464016 -0.00170303  0.00184047  0.00220297 -0.01224372
 -0.00480131  0.02975795 -0.03580454 -0.01838157]
[ 0.11526452  0.15685639 -0.17746413 -0.1359631   0.16266902 -0.14142807
  0.1699953   0.13196188 -0.14060982  0.13839787 -0.13315293 -0.12462433
  0.16098599  0.20361473 -0.12178596  0.14303008]
[ 0.14041576  0.11612191 -0.1760487  -0.09902976  0.11834369 -0.18358621
  0.13278489  0.07396613 -0.12896706  0.13906293 -0.13041343 -0.05145555
  0.15086657  0.10775995 -0.05429173  0.13716824]
[ 0.09312686  0.09860197 -0.11571945 -0.10644969  0.1489164  -0.11473282
  0.10015813  0.14412689 -0.09251064  0.14666614 -0.12263364 -0.15270144
  0.13841158  0.1525184  -0.11469749  0.08418885]
[ 0.03181647  0.07823016 -0.14389597 -0.0487032   0.07751822 -0.07522383
  0.05510609  0.0562494  -0.06691132  0.07612208 -0.09584522 -0.03057986
  0.0707922   0.10453021 -0.01000889  0.07673307]
[ 0.11564494  0.11164689 -0.09366103 -0.10708304  0.12379252 -0.13658212
  0.09997939  0.11310454 -0.07792012  0.1133671  -0.09382733 -0.14713612
  0.1113855   0.15178125 -0.10986006  0.0923624 ]
[ 0.05428502 -0.0212213  -0.0724588  -0.06743024  0.01907212 -0.07790483
  0.02489696  0.01928928 -0.05341003  0.01121046 -0.08080878 -0.05568042
  0.05240947  0.02618802 -0.04818045  0.02021682]
[-0.00498176  0.05083693  0.01465923 -0.0288878   0.03336176 -0.04919164
 -0.01334951  0.02160784  0.02036396  0.05197338  0.01999932 -0.02343447
  0.04287348  0.03163562 -0.00357765  0.06386538]
[-0.06419363 -0.01314883  0.06970032  0.07142959 -0.01579566  0.03777722
 -0.01548768 -0.02724146  0.04657135 -0.0156599   0.01883096 -0.00671776
 -0.02811543  0.00393942 -0.01911639 -0.06438467]
[ 0.0855062   0.04935518 -0.0759078  -0.09466097  0.04912867 -0.05571178
  0.11085165  0.07794847 -0.10364485  0.06795429 -0.12316556 -0.1218804
  0.0585388   0.08849224 -0.16815409  0.0896223 ]
[ 0.01060989  0.05225496  0.01756203 -0.02577106  0.03391007 -0.00750302
  0.03607316  0.04964252 -0.04062298  0.03516915  0.0351949  -0.04183883
 -0.00732204  0.03057019 -0.00112662  0.01139632]
[ 0.14285852  0.11707787 -0.12785368 -0.08845807  0.11876944 -0.13638377
  0.14808567  0.12053112 -0.11271209  0.11652446 -0.11322178 -0.12373006
  0.15322381  0.1361696  -0.08600944  0.11976859]
[-0.06798092 -0.01547731  0.0483642   0.0384094  -0.03159553  0.02442662
 -0.03068182 -0.00680542  0.02740403 -0.00828429  0.05931403  0.02304715
 -0.00790796  0.00726004  0.0295393  -0.04086655]
[-0.03079283  0.00026929  0.02673567  0.03384874 -0.03320934  0.0422853
 -0.05977629 -0.05484327  0.04600326 -0.04012041  0.09261435  0.0381694
 -0.06557113 -0.04309851  0.09329915 -0.03059005]
[ 0.02997605  0.03570994 -0.02698598 -0.04673968  0.04291645 -0.02658447
  0.04830792  0.02851781 -0.06276733  0.02151976 -0.08915496 -0.01604106
  0.04290706  0.04542031 -0.05798763  0.04288911]
[-0.04396131 -0.00532547 -0.02188154  0.03815272 -0.02027718  0.07421403
 -0.00635825 -0.01167293  0.05218226 -0.0321403  -0.00667914  0.04410257
  0.00271951 -0.04193972  0.02090027 -0.02330882]
[ 0.0057187   0.05000404 -0.00262689 -0.0475129   0.04582032 -0.04099928
  0.04605965  0.04978562 -0.0738486   0.03313687 -0.06766021 -0.07350571
  0.03264917  0.06726918 -0.0921434   0.04337068]
[ 0.01364885  0.05795623 -0.05761567 -0.04279823  0.06736841 -0.03815883
  0.05065476  0.03648197 -0.04404219  0.01606143 -0.07879476 -0.07235022
  0.03509863  0.08037367 -0.07812013  0.01697477]
[-0.02743831  0.02235871  0.02315817  0.0119943   0.00913691  0.02380318
  0.00478687  0.02795455 -0.00826823  0.00995932  0.01647832 -0.02252962
 -0.01401238  0.01835625 -0.02346907  0.02408642]
[-0.02954778  0.04061021 -0.00233844  0.02687696  0.00886933  0.01096711
  0.00946642  0.00347051 -0.00849498  0.02969138 -0.00068222 -0.0148488
 -0.00977655  0.00940352 -0.02546343 -0.00309771]
[-0.0060424  -0.03287011 -0.02028706  0.01609495 -0.03448696  0.0220966
  0.00640756 -0.01415639  0.01832667 -0.02374831 -0.0536772   0.03025779
 -0.0051968  -0.02785073 -0.04355311  0.00457614]
[-0.02479016 -0.01783982  0.0307785   0.07051751 -0.03965604  0.0452885
 -0.00653511 -0.00737653  0.00766676  0.00084253 -0.00835503  0.04747624
  0.02143566 -0.01222648 -0.04077521 -0.02383772]
[-0.03093443  0.01654158  0.03468268 -0.00268776  0.00539458  0.01183826
  0.01957539  0.02892627  0.02112354  0.00216369 -0.01763661  0.01364239
 -0.00980107  0.03586002  0.00236635  0.00121803]
[ 0.00508338 -0.00111092  0.0043109  -0.00795362 -0.00049625 -0.00871436
 -0.01839776  0.00575637  0.02693469 -0.019808    0.02595126  0.03311332
 -0.01655369 -0.01564557  0.0285489  -0.01760204]
[-0.01612695  0.02503414  0.02065512  0.01042712  0.0189146   0.01400227
  0.01017271  0.01087478 -0.00054952  0.0038518   0.01459196 -0.00952035
 -0.00597274  0.03139985 -0.00711417  0.0111767 ]
[ 0.1283385   0.16620754 -0.14914548 -0.12637372  0.12031693 -0.19989754
  0.06644244  0.08383978 -0.03649129  0.12938808 -0.01088816 -0.10422129
  0.10915773  0.0924001  -0.00549942  0.159388  ]
[ 0.04998598  0.06259562 -0.0084876  -0.08176629  0.06803258 -0.11543059
  0.03147596  0.07023892 -0.07036648  0.04456587 -0.02644741 -0.09852041
  0.02205016  0.07354575 -0.00310317  0.10046653]
[-0.01616852  0.01843769  0.03185409 -0.01783443  0.00729673 -0.01220889
 -0.00099578  0.01976093  0.04126532  0.00323428  0.02063645 -0.03136461
 -0.01983019 -0.01244234 -0.02689999 -0.00941242]
[-0.04264968 -0.0071476   0.07219206  0.00708847 -0.04390868  0.00857668
 -0.0181157  -0.01627666  0.03957039 -0.04058916  0.01630968  0.01336255
 -0.05662085 -0.00236306  0.00105103 -0.00937607]
[ 0.00574139  0.01539104  0.01927782 -0.01465425  0.01147776  0.00656978
  0.00600949  0.02732323  0.01167995  0.03767003 -0.04351339 -0.02548365
  0.0006873   0.02331676 -0.01906931  0.00256328]
[ 0.10456106  0.09866667 -0.07207439 -0.07921234  0.10163999 -0.06430434
  0.12937617  0.10286995 -0.09596505  0.10005993 -0.14240319 -0.09458538
  0.10122534  0.10725997 -0.16331485  0.10126472]
[ 0.01978731 -0.00870104  0.01209134  0.01563601  0.00207601 -0.00664952
 -0.00725472 -0.01798299 -0.01921865 -0.00236894 -0.01701246 -0.04201423
 -0.01318005 -0.00775921 -0.01154057 -0.00210271]
[-0.03873262 -0.00797056  0.03799119 -0.00837427  0.01241647  0.01144656
  0.00557802  0.00551389  0.02269098  0.01744612  0.00980528 -0.0012044
 -0.03245116 -0.00810886  0.01819138 -0.00016641]
[ 0.08863373  0.14893845 -0.09283408 -0.13019915  0.12922145 -0.13524285
  0.09250907  0.10462144 -0.08948427  0.11884353 -0.09289992 -0.11755226
  0.09515838  0.15189926 -0.09826212  0.11573055]
[ 0.07346928  0.08439355 -0.02369309 -0.07453214  0.04678765 -0.05697402
  0.07168425  0.04883301 -0.08605729  0.07134545 -0.07716489 -0.07013877
  0.02547058  0.0578113  -0.05564537  0.1149436 ]
[ 0.09023336  0.06447981 -0.02167973 -0.08461622  0.07348733 -0.08585417
  0.06494673  0.0971425  -0.05418551  0.08108453 -0.06976568 -0.08533869
  0.06241583  0.05717032 -0.0598117   0.04766182]
[-0.03786359 -0.05007179  0.0378132   0.04234889 -0.03210711  0.00690722
 -0.01777993  0.00327009  0.00255729 -0.04202274 -0.01176749  0.02054821
 -0.04997327 -0.04066112  0.01148895 -0.04216743]
[ 0.08219758  0.05896375 -0.07991858  0.00553988  0.07503986 -0.0333689
  0.07649451  0.08044148 -0.1048885   0.08777171 -0.11425199 -0.04181769
  0.08321241  0.09237916 -0.08958313  0.0663369 ]
[-0.00503815 -0.02488695  0.00918577  0.04097915 -0.03050443  0.01884277
 -0.02418987 -0.05194989  0.0049409  -0.06249496 -0.00611125  0.05803341
 -0.04189567 -0.0603154   0.02070344 -0.02878377]
[ 0.02185108  0.06346447 -0.0333995  -0.06061702  0.04756654 -0.06034392
  0.04163125  0.05292737 -0.03219685  0.04529166 -0.00254789 -0.0922208
  0.01422166  0.04121307 -0.00874305  0.03333987]
[-0.0399346  -0.00435489  0.01953654  0.06801993 -0.00027792  0.04972417
  0.01734677  0.00574669  0.02371449  0.00554335 -0.0119588   0.04363462
 -0.00314273  0.03932585 -0.00972784 -0.00771555]
[-0.04488406 -0.06499149  0.0567928   0.05566258 -0.03815642  0.05471047
 -0.02633169 -0.03200487 -0.00812632 -0.04086499 -0.01689073  0.04870197
 -0.03082323 -0.00483562 -0.00824783 -0.04287313]
[ 0.0159632   0.00399185 -0.02144532 -0.0227557   0.02738007 -0.029535
  0.03354101  0.05095515 -0.05511161  0.06287749 -0.07846246  0.01930521
  0.05456842  0.05770284 -0.02628526  0.00419046]
[-0.03048767 -0.02539898  0.08837729  0.04185539 -0.00944272  0.05532248
  0.02168006  0.00941123  0.03124556 -0.03714344 -0.04151499  0.03395694
 -0.0126835  -0.00592319 -0.01848533 -0.02634563]
[-0.03183085 -0.00870628 -0.00373198  0.00675766 -0.00846813 -0.00849639
 -0.01431907  0.01748255  0.00272081  0.00976811  0.018293    0.03154667
 -0.01230286 -0.00346379  0.01522975 -0.00726074]
[-0.09197951 -0.07385956  0.10048236  0.06777564 -0.06983332  0.06159701
 -0.05738579 -0.0626633   0.10517775 -0.10306354  0.08955953  0.09522212
 -0.06144981 -0.07253492  0.0919693  -0.0735615 ]
[-0.03005043 -0.03890516  0.04618822  0.03414566 -0.00240221  0.06737541
  0.01751906  0.00672677  0.00908098 -0.01536106 -0.08459688  0.04406853
 -0.00356718  0.02321502 -0.09852711 -0.01023524]
[-0.01833147  0.05076611  0.04829901 -0.02148212  0.00717633 -0.00265068
  0.03356315  0.00345814  0.02605246 -0.00928183 -0.02042468  0.01591079
 -0.00484235  0.01335037 -0.02921725  0.0042616 ]
[-0.05584311 -0.05651602  0.06772657  0.07090477 -0.04663229  0.07307841
 -0.01664134 -0.04399905  0.04994887 -0.05521249 -0.01757805  0.06137504
 -0.00855396 -0.03405405 -0.02296777 -0.08126687]
[ 0.00667704  0.00425996  0.041229    0.01654912  0.01036889  0.04437711
  0.0169598   0.03533471 -0.01599067  0.00426598 -0.08084632  0.02280717
  0.01324878  0.02202675 -0.08622713 -0.01612276]
[-0.00496883  0.01183525  0.0119897   0.01835242  0.03955704  0.00396415
  0.03419707  0.06023546 -0.03611396  0.0534294  -0.04213386 -0.06002477
  0.01605174  0.02172738 -0.0664969   0.01901437]
[-0.03643248  0.0223228  -0.0011271   0.00128231 -0.0008644   0.0188552
 -0.01838725  0.03347377  0.01972037  0.00675741  0.02368706  0.01325541
 -0.03340276 -0.02174533  0.0473966  -0.02112012]
[-0.02411214  0.00111694  0.03465363  0.02983442 -0.02140814  0.02908128
 -0.01091746 -0.03418829  0.00065571 -0.00876995 -0.06911274  0.02502864
 -0.00477729 -0.0513506  -0.01018231 -0.00652924]
[-0.02941185  0.00748355 -0.01229641 -0.03052085 -0.01985969 -0.00857872
 -0.01817743 -0.00427191  0.0072464   0.00309602  0.00931765  0.01947668
  0.00300455  0.00127287  0.00373123  0.00551739]
[-0.04457707 -0.00067384  0.00915448  0.01086644 -0.01514844  0.02915365
 -0.01216542  0.01051807 -0.00286918  0.00229457 -0.00784899  0.00728953
 -0.00159621  0.01094893  0.00917937 -0.00213381]
[-0.01747756 -0.04425638  0.04848758  0.05306119 -0.05036099  0.01863422
 -0.04531953 -0.04137137  0.03551174 -0.05529587  0.05883525  0.05318615
 -0.00134055 -0.04770712  0.04054282 -0.03346833]
[-0.01046494  0.01426377  0.01131159  0.01131599 -0.02067597  0.01205352
  0.01313336  0.03833283 -0.01367155  0.0139883  -0.02495738 -0.01516018
  0.00805847 -0.00090415  0.00053241  0.00394776]
[-0.01768372  0.02345397  0.00832817 -0.00894177 -0.02526074 -0.00021884
  0.04787831  0.00260571  0.00328749 -0.00086798 -0.02328957  0.0144465
  0.0012741  -0.00844872 -0.03151644 -0.01241859]
[ 0.02968675  0.01575629  0.00858305 -0.0086666   0.03517551 -0.01821809
  0.03638352  0.04496954 -0.01329324  0.01848036 -0.09502677  0.02032527
  0.03857129  0.03653208 -0.04377779  0.00368271]
[ 0.05044065  0.10359515 -0.05017881 -0.07681675  0.09531979 -0.06630523
  0.09766752  0.07189078 -0.04904116  0.08983718 -0.076248   -0.03678409
  0.03434969  0.03069771 -0.08257314  0.05516474]
[-0.02497906 -0.00959553  0.07555495  0.03380871 -0.00124584  0.05517846
  0.01015975 -0.03281623  0.02111436 -0.02871495 -0.04442303  0.03431853
 -0.01029924 -0.04626049 -0.03504113 -0.04976838]
[-0.00641589  0.05832781 -0.05441032 -0.04370942  0.05471398 -0.04788159
  0.00931434  0.06278271 -0.04935365  0.07432117 -0.00326169 -0.01417692
 -0.0012218   0.03672406  0.00749048  0.02879956]
[-0.03129036 -0.00577972  0.05579799  0.008421    0.00228333  0.02304541
  0.04360685  0.01079004  0.00831983 -0.01521816 -0.07743715  0.01680263
  0.01950619  0.00316963 -0.06407782  0.00941692]
[-0.04734654 -0.01071844  0.05569386  0.00937931 -0.02953456  0.03340761
 -0.04128181 -0.03261009  0.0607362  -0.05964936  0.01649121  0.05242169
 -0.02562463 -0.00909525  0.07162034 -0.03514505]
[-0.02422283  0.00080338 -0.02574324  0.03899505 -0.03335392  0.01869627
 -0.02616813  0.02415016 -0.02887539  0.04779667  0.03215172  0.02483374
 -0.02582279  0.00174403  0.05059555 -0.03029692]
[ 0.01677173  0.03882223 -0.03448229 -0.02130892  0.05165002 -0.01383466
  0.06686439  0.07703578 -0.01817329  0.04119859 -0.15913059  0.01853763
  0.07770842  0.09210913 -0.09457665  0.06175502]
[-0.02492329 -0.01564469  0.06114905  0.0357856  -0.05174126  0.03713629
 -0.03492278 -0.0533017   0.06616659 -0.04684602  0.00035731  0.06630348
 -0.01878671 -0.03371411  0.0187751  -0.02007313]
[-0.00223698  0.00078355  0.02937629 -0.01108305  0.0065885   0.02598901
  0.04373033 -0.01010117 -0.01951328 -0.01465329 -0.09050727 -0.00060558
  0.01876429  0.03515038 -0.02805786 -0.00338121]
[-0.10510157 -0.10314603  0.17957826  0.12250122 -0.09256687  0.14924629
 -0.07905009 -0.03173534  0.10150817 -0.1020947  -0.03013792  0.11598594
 -0.09804488 -0.10335225 -0.01089131 -0.06913551]
[-0.07632122 -0.06560955  0.12933618  0.08784536 -0.07786236  0.08499616
 -0.00549326 -0.06677253  0.06375042 -0.1076157  -0.01074225  0.09795513
 -0.05765646 -0.04153657  0.0002733  -0.04525211]
[-0.08477493 -0.0997207   0.11233447  0.09298072 -0.11742954  0.09084778
 -0.10070878 -0.07743205  0.11151143 -0.0934945   0.05291997  0.124187
 -0.10396061 -0.10531406  0.08155742 -0.0740199 ]
[ 1.9861181e-05  6.3284002e-02 -3.3997547e-02 -3.7848819e-02
  2.9411644e-02 -1.2078491e-02  3.0999834e-02  6.6101514e-02
 -1.1918161e-02  3.6640532e-02 -8.9761522e-03 -2.1700293e-02
  6.9327061e-03  3.3217039e-02  1.2507506e-02  3.1087955e-04]
[-0.02186859 -0.00703521  0.00808216 -0.00534941 -0.00816795  0.02075465
  0.02576331  0.03350893  0.01428588 -0.01282894 -0.04895477  0.02827062
  0.00138158  0.00958844 -0.04246856  0.00740717]
[ 0.0036448  -0.01067459  0.00432706  0.03551095  0.01225997  0.01711511
 -0.00874068 -0.00568721 -0.00156408  0.00183881 -0.03793348  0.00423169
  0.02721757 -0.00609907 -0.02095897  0.00048029]
[-0.00126821  0.02923176 -0.02666134 -0.03100475  0.03822044 -0.01728152
  0.04455535  0.06625355 -0.04956658  0.03871838 -0.04238009 -0.03433857
  0.03901665  0.06076066 -0.05275209  0.03972812]
[-0.04513947 -0.0343909   0.03798583  0.03270766 -0.01605059  0.04787407
  0.02292321 -0.01548545  0.02053272 -0.05347243 -0.00470968  0.02873291
 -0.02279841  0.02188305  0.01319379 -0.0500642 ]
[-0.04655508 -0.0285384   0.02450412  0.01867767 -0.03818921  0.01144341
 -0.05072811 -0.01441911  0.01983834 -0.02418142  0.02427359  0.01118834
 -0.02337057 -0.01234487  0.02964476 -0.03855065]
[-0.03794465 -0.01012446  0.00408801  0.0310183  -0.00840183  0.01940468
 -0.01797619  0.00136711  0.02096539 -0.02608745 -0.01739534  0.02025023
 -0.01111892 -0.01446543 -0.00035029 -0.02882129]
[-0.03570886  0.00978306  0.00929059  0.00191815  0.01813435  0.03206324
  0.03578127 -0.01015761  0.01207706 -0.0024275  -0.06402607  0.03638183
 -0.00204609  0.03609852 -0.02153023 -0.0283831 ]
[ 0.03396237  0.02628029 -0.01689038 -0.0345761   0.04356457 -0.01430288
  0.0522722   0.04264783 -0.00195887  0.06146319 -0.12017944  0.00700583
  0.01808679  0.01241019 -0.03791946  0.04362652]
[-0.0358585   0.00199605  0.00534856 -0.00026833 -0.00032026  0.02577627
 -0.00126482 -0.02025234  0.00188006 -0.03192215 -0.036462    0.02328032
 -0.0191973   0.00374359 -0.00183243 -0.017277  ]
[ 0.00467877  0.01092352 -0.01845353 -0.03900579  0.01787875 -0.01513057
  0.0319089   0.03176861 -0.02429326  0.03403144 -0.08602697  0.0093212
  0.00420869  0.00953881 -0.02704426  0.02095988]
[ 0.01217672  0.02449402 -0.03058642 -0.02013639  0.02266541 -0.01161316
  0.033567    0.06169041 -0.0741709   0.05108052 -0.0616931  -0.02377057
  0.02957164  0.05527004 -0.0392652   0.01146589]
[ 0.01527536  0.00208149 -0.03320309 -0.0560873   0.04444352 -0.02326789
  0.00342358  0.03400744  0.0054057   0.02442173 -0.0126938  -0.00136096
  0.02764728  0.04817798  0.01061523  0.01752936]
[-2.4736935e-02 -1.4015048e-02  2.5212951e-03  1.3247188e-02
 -2.7245894e-02  8.1042489e-03  1.1976894e-03 -2.7576286e-02
  3.1474687e-02 -3.5737048e-05 -9.2184491e-05  1.2010457e-02
 -2.1771697e-02 -4.8198353e-02  3.5524067e-02  1.0456474e-02]
[ 0.00981353 -0.00186346 -0.00165662 -0.00458086 -0.01209059  0.00150568
 -0.00865037 -0.01813401  0.00219005  0.0120276   0.0060484  -0.00188931
 -0.02751881 -0.02954382  0.02507372  0.00499496]
[-0.01932627  0.03205717 -0.03062614  0.00891658  0.01212133 -0.00283646
  0.00724627  0.02645495 -0.01286345  0.04328866  0.0195682  -0.01672902
  0.00956118  0.00234417 -0.00795008 -0.00855418]
[-0.03629528 -0.05379703  0.03194462  0.03961854 -0.00769561  0.04332205
 -0.03848591 -0.03485491  0.02060131 -0.02049158  0.03010403  0.05579047
 -0.01190658 -0.0294446   0.03890266 -0.05846485]
[-0.03451548 -0.02052323 -0.01620005  0.01134614 -0.00464635  0.03625128
 -0.02397262  0.0165032   0.00544651  0.00979042 -0.01917776  0.01437933
 -0.02959878  0.01055757  0.01792563 -0.03249928]
[-0.03146885 -0.0255984   0.00746558 -0.02115339 -0.00871476  0.01667775
  0.01147677 -0.00135311 -0.00473043 -0.00034348 -0.01719583  0.00641504
  0.00694292  0.00677388 -0.01008712  0.01225442]
[ 0.00417539 -0.01680174  0.01669341  0.01511375  0.01153127  0.02792073
  0.04195462 -0.00466857 -0.00815312 -0.01419805 -0.02965136  0.03444896
  0.02452222  0.03087739 -0.00148365  0.00311203]
[ 0.04078889  0.04063055 -0.07590846 -0.07396088  0.04872552 -0.03834014
  0.06786079  0.04036141 -0.02646478  0.06891052 -0.09813302 -0.01528994
  0.04158923  0.03629641  0.00032592  0.03442159]
[ 0.00216152  0.01626708 -0.05850288 -0.05213965  0.03373678 -0.00863499
  0.03391719  0.02368256  0.00725838  0.01307959 -0.06623574 -0.00537237
  0.03633038  0.03708657 -0.00235285  0.00199878]
[ 0.01713378  0.01676225 -0.05485713 -0.01604875 -0.00185705 -0.01326618
  0.03815208  0.04631365 -0.03792722  0.03181914 -0.02378591 -0.00224652
  0.0134599   0.0401504   0.00013178  0.00699857]
[-0.03608757  0.01003698  0.01173185 -0.00794611 -0.01196793  0.02956446
  0.00490294 -0.00730898  0.00080564 -0.00936411 -0.08074456  0.01238437
 -0.01230127  0.0120404  -0.03742282 -0.03125945]
[-0.03401031  0.00152023 -0.03727832  0.0268032  -0.0043217   0.00216514
 -0.01216226 -0.02815046  0.00393206 -0.0227115   0.00806923  0.00266695
 -0.01774015 -0.01871208 -0.00511741 -0.00128549]
[-0.00656323 -0.00043861 -0.00495085  0.0110935   0.00628998  0.00884768
 -0.00984683  0.00249697 -0.01266931  0.00176624  0.03864305  0.05563492
 -0.02424803  0.00579444  0.0514191  -0.01220002]
[ 0.00184682  0.00399747 -0.01524836  0.00588997  0.03136446  0.02369711
  0.02942829  0.00653946  0.02383833 -0.00760007 -0.09693861  0.0501068
  0.00691433  0.05470035 -0.02357824 -0.03435878]
[-0.02368453 -0.00096028 -0.01865245  0.0042947  -0.02052446  0.02553174
 -0.02206698 -0.03715894  0.03825798 -0.01871076  0.00194865  0.03242392
 -0.03781253  0.00710628  0.03696121 -0.02472416]
[-0.03522204 -0.03326808  0.00459934  0.00965475  0.02180568  0.03665154
  0.01260443 -0.02218317  0.00736062 -0.03054854 -0.03918412  0.05111892
  0.03091512  0.024929   -0.00651245 -0.02309352]
[-0.0532042  -0.0668072   0.06138191  0.04352505 -0.04726017  0.06100864
 -0.04878522 -0.03341698  0.0429005  -0.02484065 -0.02589291  0.07731687
 -0.05132425 -0.04758919  0.02094938 -0.02835516]
[-0.04371832  0.0067876   0.00059509  0.01467233 -0.03354315  0.03650086
  0.01182898 -0.02106747  0.02025908  0.00945395 -0.08771826  0.04293026
 -0.01257944 -0.01562537 -0.01000887 -0.00906862]
[-0.03370258 -0.01123127 -0.05523416  0.01621724 -0.03198449 -0.01409962
 -0.06712791 -0.01390164 -0.0093431   0.00829083 -0.02188335  0.01934013
 -0.02731556 -0.03308007  0.03872208 -0.01192994]
[ 0.02190204  0.03087739 -0.00924698 -0.03231172  0.03098486  0.00274116
  0.01764979  0.05363548 -0.00902235  0.03479372 -0.02718    -0.02114728
  0.02728695  0.0644048  -0.01778698  0.01532278]
[-0.02387951 -0.00082066 -0.01158172  0.02578595  0.00515313  0.00055893
  0.00570175 -0.0088891   0.02130427  0.01412171 -0.05163772  0.01713658
 -0.00089319  0.00593983 -0.01932875  0.00183008]
[-0.01203235 -0.00871131 -0.00281113 -0.00501246 -0.00764962  0.01526874
  0.00084459  0.01271967  0.01116268 -0.0087397  -0.02360397  0.00758897
 -0.0164069  -0.00555717 -0.00719772 -0.01000197]
[-0.00871251  0.02215793 -0.05319568 -0.02914205  0.06063773 -0.03345929
  0.07351445  0.02916463 -0.05690436  0.01085003 -0.04126671 -0.02258414
  0.05252852  0.1320741  -0.03505936  0.01946162]
[-0.01194303 -0.01969687  0.00226421 -0.01844034  0.0154725  -0.01620621
  0.01698569  0.02412844 -0.01443302  0.01196869 -0.01798861  0.00932789
  0.00409463  0.0380171  -0.00628754 -0.0124579 ]
[-0.02069697 -0.02132986  0.02725928  0.01245692 -0.00959172  0.00757535
 -0.03419228 -0.0246442   0.01545851 -0.02179939  0.01717582  0.0049561
 -0.01320384 -0.00756226  0.00652357  0.00096312]
[-0.0186571  -0.01770296 -0.01782947  0.01875849  0.00533258 -0.02042399
  0.00072683  0.01922567 -0.02639236  0.00617843  0.01934304 -0.01975489
  0.00508537  0.02795425  0.04184154  0.01351985]
[-0.00327735 -0.02089267  0.00787    -0.01074703  0.01658998  0.01245457
 -0.00562839 -0.0140927   0.01730103 -0.02216412  0.00189783  0.03775554
 -0.01717031 -0.0059394   0.01925603 -0.04316706]
[ 0.01458314  0.020723   -0.00488669 -0.01757143  0.01327475  0.00131641
  0.03064151  0.00506678  0.00303036  0.0272462  -0.06730799  0.01242324
  0.01864379  0.03508088 -0.00140302 -0.0156434 ]
[-0.01573806 -0.02040722  0.00754348  0.01969184 -0.01305901  0.00771357
 -0.03365274 -0.01063397  0.00320659  0.00125122 -0.01966873 -0.00652274
 -0.0093671  -0.0199172  -0.00904192 -0.02828765]
[ 0.0012747  -0.0047366  -0.00827869 -0.00989351  0.05065664  0.00658349
  0.03649098  0.04623161 -0.0256882   0.03120519 -0.07466542 -0.00070768
  0.0226399   0.02574065 -0.03281703  0.01728652]
[-0.02881431 -0.0238127  -0.0272619  -0.01352864  0.02889461  0.0282921
  0.02523613  0.02592659 -0.02294697  0.02263489 -0.01260487  0.0280598
  0.00974391  0.03659716 -0.0181339   0.00055622]
[ 0.00941044  0.0191674  -0.04107402 -0.01995667  0.04175671 -0.01651881
  0.03045082  0.02855064 -0.02900849  0.01277716 -0.02875478 -0.01516526
  0.02201113  0.05024578 -0.03021183  0.02470984]
[-0.01039587  0.00670593  0.01324834  0.00353129  0.00235758 -0.01386166
 -0.01178825 -0.01987864  0.01132387 -0.00939714  0.01626194 -0.01314703
  0.0002146  -0.03401481  0.01482422  0.00284355]
[-0.00828882  0.00882371 -0.003942   -0.00871137 -0.02950757 -0.00844847
 -0.00728497 -0.01399148  0.00732583 -0.00595191  0.02667118 -0.0041194
 -0.02239745 -0.03879244  0.01362986  0.00420558]
[-0.01154993  0.01716437 -0.02216368 -0.01359251 -0.00303958 -0.01943454
  0.01643201  0.05494185 -0.0039031   0.0239945  -0.00702259 -0.01836684
 -0.01160639  0.06362035 -0.01786305  0.00869164]
[-0.04056549 -0.04571952  0.00560599  0.03958472 -0.04074423 -0.00367966
 -0.06432281 -0.02718451  0.01705169 -0.01756024  0.03914876  0.01145601
 -0.04325837 -0.02518377  0.03522832  0.01616614]
[ 0.00670636 -0.00659208 -0.03111335 -0.02159401  0.0284774  -0.01803356
  0.02489511  0.04890599 -0.03087104  0.03029175 -0.05042452 -0.0112537
  0.01001658  0.0435831  -0.00889706  0.01865451]
[-0.01745311 -0.01328993 -0.00190328  0.01129185 -0.00537138  0.00522638
  0.01892461 -0.02402743  0.00425448  0.00065045 -0.01296283  0.00617453
  0.03088826  0.01191021  0.0044816   0.00048672]
[ 0.00919395 -0.01455903  0.01111859 -0.01108452  0.01871582  0.03516437
 -0.01933027  0.00150844  0.01674763 -0.02015529  0.00035155  0.04079913
 -0.00454185 -0.00050826 -0.00829988 -0.02089099]
[ 0.00448193  0.01208508  0.00763304 -0.012529    0.0325035   0.02043564
  0.03057788 -0.01696754 -0.00986208 -0.00485472 -0.03078618  0.04317472
  0.01163714  0.01085783 -0.00107565 -0.00408493]
[ 0.00827145  0.02577253  0.01623125 -0.04680954  0.01624824 -0.0164504
  0.00400381  0.02685908  0.00372892  0.01853188 -0.02985024 -0.00453055
  0.0130139   0.0384167  -0.02026823 -0.01254451]
[ 0.0029687   0.0023912  -0.00272872 -0.00227061 -0.00466741  0.00655058
  0.01184111  0.01321149 -0.02010394  0.00952101 -0.0350824   0.02114713
 -0.02200195  0.03322288 -0.01273196 -0.01052306]
[-0.00788205 -0.02156646  0.01385207 -0.02613503  0.01503417  0.00498601
 -0.01373414  0.01663923  0.01836733  0.00625569 -0.04595942  0.00990337
  0.00316827 -0.00045481 -0.00859606 -0.02971144]
[-0.02458223 -0.02568059  0.00378667  0.00196088 -0.0153841   0.00806368
  0.00110168 -0.00404095  0.02372026 -0.01904778  0.00887729  0.00310409
 -0.01709509 -0.01464416  0.03285193 -0.01058983]
[-0.00830771 -0.02008485  0.00161253  0.00179308 -0.01220559  0.01168264
  0.01412328  0.02460279  0.01342564 -0.00507278 -0.00114839  0.03290407
 -0.0051008   0.0361843   0.00338914 -0.01325483]
[ 0.01241317  0.00333901  0.02403339 -0.03244353  0.01625486  0.03023314
 -0.01647595  0.01379539  0.00834454  0.00585585 -0.07524613  0.0322649
 -0.01534749  0.00572588 -0.009972    0.00122387]
[ 0.01324042  0.01260332  0.01311925 -0.02160064 -0.02725976 -0.02719569
  0.00388157  0.00566269  0.01155407 -0.00970518  0.00996212 -0.01418991
 -0.02025348 -0.03890817  0.00391265  0.00944882]
[ 0.01281404 -0.00201469 -0.00504262 -0.00535988  0.05059697  0.01328752
  0.02039712  0.02943922 -0.02604922  0.02961181 -0.02106874 -0.01284864
  0.02046548  0.0450088   0.00291885 -0.00413783]
[-0.0315375  -0.03494334  0.02782689 -0.01105827 -0.01905431  0.03017839
 -0.0297569  -0.00674047  0.02685089 -0.01865443  0.00227003  0.01792144
 -0.00550609 -0.03477029  0.03229505 -0.0385628 ]
[-0.00740891 -0.00932121  0.00414486 -0.00581176 -0.01457598  0.00928894
 -0.00236262  0.00145585 -0.00267492  0.00225362 -0.04054389  0.00198474
  0.00131442  0.01971124  0.01054695 -0.02729248]
[ 2.2994209e-02 -4.7500031e-03  4.3727839e-03  3.6518017e-03
 -3.6218010e-02 -1.8489080e-02 -4.2788466e-03  4.5548975e-03
  3.8671822e-03 -3.7249538e-05  6.3765929e-03 -1.8511835e-02
 -2.5071479e-02 -2.4975320e-02  1.0592303e-02  2.1645403e-02]
[ 0.01512817  0.00339779 -0.0216148  -0.01195215  0.00678691 -0.01413432
  0.02559512  0.03035731 -0.03754801  0.01314002  0.00321674 -0.00024188
  0.00530761  0.04452185 -0.00874036 -0.00417424]
[-0.0057706  -0.00234926 -0.00603629  0.00324175  0.00051304 -0.00487771
  0.00097396  0.00051852  0.01059417 -0.00706426 -0.02106001  0.00307485
 -0.00550636 -0.01031188  0.01177306  0.00052955]
[ 0.01204334  0.00964694 -0.0085815   0.01547803  0.02162773 -0.02169459
  0.01103682 -0.00143534 -0.00635161  0.01477193 -0.01235635 -0.00499841
 -0.0051528   0.01424246  0.00388879 -0.01189388]
[ 0.0163108   0.01170965 -0.01095883 -0.0173279   0.02901762 -0.00994805
  0.01142679  0.01573159  0.0015259   0.00356873 -0.03513734 -0.02038735
  0.01790362  0.04329983 -0.03350317 -0.0130363 ]
[ 5.8095725e-03 -2.7886523e-02  1.9317560e-02 -8.6149825e-03
 -5.1032542e-03  6.6493438e-03  2.7966846e-02  4.4947635e-02
 -1.0891075e-02  4.6653184e-03 -1.7067328e-02 -1.8798442e-03
 -9.1104498e-03  2.3792839e-02  8.6575579e-03 -9.1592548e-05]
[-0.0159548  -0.01020747  0.00096992  0.00484649 -0.00034702  0.00060092
  0.01945547  0.01049     0.00215207 -0.01330951  0.01293508 -0.01842984
 -0.01495919  0.0002074  -0.03089243 -0.01095871]
[ 0.00742238  0.01201759 -0.01982833  0.01342151 -0.00700806 -0.00552044
  0.01159006  0.0123087  -0.00606749  0.02425416 -0.0050045  -0.00795221
 -0.01543573 -0.01438484  0.01326222  0.0293831 ]
[ 0.00251588 -0.00050139  0.00856834 -0.03495203 -0.02464614  0.00919832
 -0.01370532  0.02728228  0.02890084  0.00941062 -0.03783013  0.01451098
 -0.00614038  0.02496511  0.01179547 -0.01152748]
[-0.00023463 -0.01500768  0.01575878 -0.0216367   0.01243881  0.02312308
  0.01836343  0.0193092   0.02504907 -0.00280787 -0.00172979  0.00870647
  0.0309636   0.01687461 -0.00596416 -0.02888405]
[-0.01051957  0.0054925   0.00872054  0.00959769  0.00488669 -0.00364818
  0.00356992 -0.01020996 -0.0064011  -0.00146867 -0.01104176 -0.00343289
  0.00830351 -0.0328128   0.00287508 -0.00544374]
[-0.00527257  0.00995266  0.00298806 -0.0132871   0.01919112  0.01235347
  0.01173016  0.00462145  0.00944569  0.01483585 -0.01186459 -0.01172094
  0.01058639  0.00466251 -0.00719766 -0.00379442]
[-0.00799831 -0.0142196  -0.00474066  0.00276563  0.01110495  0.00965608
  0.01694165  0.0104609  -0.01519968  0.01369037 -0.03138147 -0.00713148
  0.00855898  0.05722491 -0.01191169  0.0040866 ]
[ 0.01935264  0.00688391 -0.0212314  -0.0347584   0.03447681 -0.00526474
  0.04092037  0.00272431 -0.00397176  0.02103238 -0.03438598  0.00794857
  0.03969623  0.05787351 -0.02596899  0.00761773]
[-0.00197571 -0.01983273 -0.003348    0.01574998 -0.02293165 -0.00332402
 -0.01796263  0.01586724  0.01358114  0.00253879  0.01407975 -0.00344332
  0.00248817 -0.01363667 -0.01157677 -0.01378504]
[ 0.00125283 -0.0009557  -0.00999744  0.01000835 -0.00725512 -0.00555251
  0.00865759  0.01081084  0.00317317 -0.00238688  0.02346471 -0.01530312
 -0.00755752 -0.0026283  -0.0052849  -0.00295648]
[-0.00751138  0.00066094 -0.00245365 -0.00428713 -0.00081529 -0.01379904
  0.00212761 -0.01565089 -0.00891788  0.01557044  0.03029476  0.00593869
 -0.01808049  0.02308996  0.0066944  -0.00537733]
[ 0.01567061  0.0015785  -0.00086256  0.00404772 -0.0490578  -0.02946166
 -0.02044659 -0.00245944  0.00292904  0.01817614  0.0061731   0.00428209
 -0.00489667 -0.03477722  0.0023438   0.03313442]
[-0.01095268  0.01029095 -0.01589322 -0.02900511  0.04779695  0.00659866
  0.02812995  0.03177099  0.00951667  0.01930144 -0.00733433 -0.00450156
  0.01410072  0.02382714 -0.0323549   0.00694822]
[-0.00039428 -0.01502782 -0.00442227 -0.01020631  0.02636222 -0.02057831
  0.04528938  0.02497077  0.01403451  0.02263065 -0.00314852 -0.00150186
  0.02733905  0.04058168 -0.009356    0.01140186]
[-0.0087545   0.00592134  0.01381056 -0.00515914  0.01391905  0.01137873
 -0.00163241 -0.00089149  0.00849776 -0.00722083  0.01226529  0.00467306
 -0.01398685 -0.01012095 -0.01076868  0.00829742]
[-9.40400735e-03 -1.04582654e-02 -9.78193202e-05  1.19695263e-02
  5.37866401e-03  3.43288258e-02  1.28642516e-02  1.66066810e-02
 -1.06360465e-02 -3.18717258e-03 -1.21244062e-02  6.01256173e-03
  3.64595875e-02  8.95901211e-03 -1.10825943e-02 -2.15216652e-02]
[ 0.01441848 -0.00628495 -0.0091912  -0.00446985  0.00883126  0.02120827
  0.03275384  0.0157439  -0.02546375  0.02482238 -0.010085    0.01807235
  0.00892742  0.01952226 -0.01045244  0.01306245]
[ 0.00772286 -0.00068609 -0.01991859 -0.00931777  0.03233616  0.008635
  0.03363625  0.03316574 -0.03672703  0.01375932 -0.03893053  0.01420124
  0.00794769  0.05364694 -0.01152262  0.01329912]
[-0.01432936 -0.02929471  0.03018009 -0.00652727 -0.01045096  0.00882106
 -0.01604302 -0.0047482   0.02872952 -0.01558399  0.00438108  0.01893312
 -0.01705166 -0.01073957  0.02477363 -0.01005498]
[-0.00603234 -0.00212678  0.00615583  0.01223648  0.00170378 -0.00855996
 -0.00683903  0.03714873 -0.01341144  0.03641915 -0.00813555 -0.00686065
 -0.02105937 -0.00329926 -0.01141927  0.00480182]
[-0.00953871 -0.00620983  0.00103584 -0.0062042   0.0143524   0.00921754
 -0.00766444  0.00116593  0.00306313  0.00531337  0.00033229  0.0236302
 -0.00091803  0.03570043  0.01227508  0.00743806]
[-0.00219928  0.01881335  0.0284298  -0.03701031 -0.00959711  0.00115698
 -0.02484096  0.0122653   0.05714624  0.00049965 -0.0585872   0.01676585
 -0.02844698 -0.00355528 -0.03785402 -0.00091653]
[ 0.00958213  0.00260124  0.00633939 -0.0034714  -0.03440089 -0.01332515
  0.00800127 -0.00510671 -0.01108693  0.01164206  0.01753458 -0.00940862
  0.00528924 -0.02071394  0.01300717  0.01026233]
[-0.00135963 -0.00012509 -0.00437009 -0.01581665  0.00965983  0.01262872
  0.02499999  0.03079312 -0.03407679  0.01948745 -0.00364254  0.00178896
  0.03449522  0.03722212  0.01157261  0.02611354]
[-0.00620649 -0.02073426 -0.00302479 -0.01839668 -0.02180965  0.01518515
 -0.02271798  0.01873473  0.00461075  0.02523555 -0.00840309  0.02313402
 -0.00776023 -0.00721718 -0.01143571  0.00325527]
[-0.00575153 -0.01571987  0.01641724 -0.01131672 -0.01873457  0.02274311
 -0.01982532  0.01939699  0.01046949 -0.00739687  0.01649747  0.02151271
 -0.00628982  0.00974607  0.01284052 -0.0072073 ]
[ 0.01605906  0.00294716  0.00078294  0.00612291 -0.02198467  0.00755173
 -0.00322528  0.00353417  0.00145568  0.00107559  0.00431348 -0.00050816
 -0.009501   -0.02604777 -0.00017274  0.01681625]
[-0.00038219  0.00363679 -0.00887027 -0.00483028  0.01605314  0.00518986
  0.03000345 -0.00603634 -0.00562829 -0.0072561  -0.01217024  0.01076308
  0.00407474  0.03480593 -0.00860621  0.01732539]
[-0.00991466  0.00243723 -0.00108454  0.01457087  0.00479626  0.0089242
 -0.00256014  0.00347744  0.00532588  0.01210412 -0.01348133  0.00073089
 -0.01477709 -0.00778749 -0.00462631 -0.01102294]
[-0.0179132   0.01129095  0.00280275  0.02234105 -0.0082712   0.04297445
 -0.02662611  0.00513786  0.01803529  0.02185472 -0.00254308  0.01706251
 -0.04349627 -0.03186489  0.01075302 -0.01642666]
[-0.00850045  0.01969162  0.01338037 -0.01595944 -0.00651955 -0.00384255
  0.00943413  0.02345883  0.01554139 -0.00195078 -0.04080756 -0.03591418
  0.01558339  0.03156428 -0.01866161 -0.00078156]
[-0.01946477 -0.01421487  0.03268442 -0.00530787 -0.00794434  0.03048738
 -0.0124048   0.00432001 -0.01635634  0.01750886 -0.00136295  0.01150193
 -0.01791331 -0.00164964 -0.02379693  0.00837102]
[-0.03017954  0.00677078  0.01508234  0.01544417 -0.00303946  0.01665014
 -0.0052398   0.00942832 -0.00249479 -0.00695166 -0.01710661  0.01262144
 -0.03072332  0.00611529 -0.01308212 -0.01915184]
[-0.02195436  0.00455844  0.0213776  -0.01353947 -0.03947197  0.03759551
 -0.02282432  0.01442202  0.00623475 -0.00282325 -0.02344789  0.00704877
 -0.02431107 -0.00404331 -0.01618676  0.00582608]
[ 0.00105553 -0.01901132  0.00857904 -0.01417021  0.00194028 -0.00197319
 -0.01420682  0.00946791  0.01173564 -0.00311117 -0.00303752  0.01699078
 -0.0307009   0.00147511  0.00871759 -0.01097321]
[-0.03130181 -0.01783478  0.02334313 -0.01363866  0.00058731  0.0288599
 -0.03301429  0.0160194   0.01239767  0.00205191 -0.01498763  0.02148692
 -0.04527001 -0.01096395 -0.01019474  0.00131917]
[ 0.01287329  0.00029453 -0.0273919  -0.00454218 -0.01620632  0.00076272
  0.03241156  0.01311223 -0.0192581   0.02175194 -0.01265597 -0.00079097
  0.00070619  0.00139431 -0.02531022  0.01942198]
[ 0.01048274  0.02704299 -0.02586957 -0.00520907  0.03413031 -0.02241377
  0.04156278  0.02152047 -0.01926816 -0.00236573 -0.01172811 -0.00239448
  0.02393891  0.0192324  -0.02684679 -0.01226738]
[-0.00117139  0.02338892  0.00397499  0.00262871  0.02301961 -0.00722925
  0.04395771 -0.0182828  -0.00351364  0.0153003  -0.0238832  -0.0007936
  0.00914674  0.02247865 -0.02347827 -0.00884036]
[-0.00355463  0.00899038 -0.01206764 -0.00162983  0.01068484  0.00115244
  0.03706614  0.00751364  0.00763238 -0.03226456 -0.00880515  0.008938
  0.00777227  0.02375553 -0.00610988  0.00692255]
[ 0.00609922  0.0174072  -0.00739975  0.00995912 -0.02038071 -0.0121353
 -0.02483014  0.00770045 -0.01628818  0.00268806  0.00453339 -0.00182752
 -0.01277735 -0.01394024 -0.00494563  0.02016049]
[-0.00267055 -0.00340059 -0.00472483  0.01002195 -0.00498607  0.00143322
 -0.00751603  0.01057999 -0.00573166  0.00417195  0.01729572 -0.00297256
  0.0032899   0.00695536  0.00804173  0.00115269]
[ 0.02685365  0.01814085 -0.01522368 -0.01557826  0.03223569 -0.01447614
  0.0125401   0.01908715 -0.02256365  0.02196429 -0.00972546 -0.01029672
  0.02730569  0.00959802 -0.01735805  0.01513082]
[-3.2707478e-03 -3.8240060e-02  1.0082326e-02  7.1476465e-03
 -3.7247725e-02  3.4886620e-03 -2.3832189e-02  3.0769381e-05
  3.4733471e-02 -1.1268986e-02  2.0627344e-02 -9.4581917e-03
 -2.0532005e-02 -4.0325053e-02  2.7353337e-02  1.7852897e-02]
[ 0.00733048  0.02393711 -0.02388299 -0.00016406  0.03391944 -0.02264849
  0.06240789  0.0182113  -0.03258247  0.00506334 -0.04093841 -0.01771291
  0.02926423  0.06239531 -0.0103151   0.00251154]
[ 0.01465651 -0.01521966  0.0096936  -0.01500996  0.00069117  0.00952665
  0.04619504 -0.00122629 -0.01435657  0.01360706 -0.02013225 -0.00527418
  0.01288096  0.03124126 -0.0328299   0.00819816]
[ 0.01551655  0.01304307  0.00856292 -0.01429654  0.00204974  0.00389171
  0.01731281  0.00591994  0.01868814 -0.00452893 -0.02876985 -0.00224728
  0.00206094  0.01616199 -0.02087574 -0.01451603]
[ 2.2174148e-02  1.7336732e-02 -2.7681535e-05 -2.5352806e-02
  1.9531323e-02  3.4188731e-03  3.4051880e-02  2.6341906e-02
 -2.2690987e-02 -2.0572662e-02 -6.5226173e-03 -1.6112585e-02
  2.0661542e-02  4.6436444e-02 -1.5442691e-02  1.8177383e-02]
[ 0.00654957 -0.00720964  0.0109748   0.02221327  0.00456155  0.02775449
  0.01299376  0.00305426  0.0053549  -0.02911863 -0.01990291  0.01756459
 -0.01977961 -0.0042707  -0.01559929 -0.01018071]
[-0.00474148  0.00446566 -0.00069128 -0.01589335  0.02069564  0.00998259
  0.01538572 -0.01366799 -0.00663929  0.00764909 -0.01322505  0.01131652
  0.01698388  0.0533253  -0.00549032  0.00848313]
[ 6.69847522e-03 -3.22637931e-02  1.15144085e-02 -2.00311188e-02
 -8.66035745e-03 -5.47181698e-04  2.58749966e-02 -5.47469873e-03
  1.33638422e-03 -5.65296039e-03  3.28633422e-03  2.63027065e-02
  5.50829747e-04  9.34239756e-03 -4.95194038e-03 -7.07657236e-05]
[-0.02973591 -0.02802983  0.00701295  0.01311918 -0.02627395  0.01797839
 -0.01716691 -0.00217546  0.00418262 -0.01284979 -0.01025473  0.03575572
 -0.01087456  0.02247866  0.01872752  0.00706337]
[-0.02216346 -0.00165417  0.0134726  -0.00553597  0.00808924  0.0050995
  0.03688913  0.00183309  0.01464664 -0.00386773 -0.00871625  0.00866587
  0.00963376  0.00252679 -0.00882928 -0.01068843]
[ 0.0016983  -0.02242874  0.04009894 -0.05231118  0.01167579 -0.01417427
  0.01739155 -0.03160256  0.02298919 -0.00609547 -0.03555597  0.05593807
  0.01910786  0.02068133  0.00242524 -0.03213754]
[-0.00537706 -0.00444223 -0.00674187  0.00664733 -0.0111548   0.00774974
  0.00971178  0.04479107  0.01166096  0.00834795 -0.01280248  0.01060815
 -0.00761331 -0.00679484 -0.01666765  0.00940822]
[-0.00848539 -0.00827969 -0.01031608 -0.00938349 -0.02955583  0.0069521
 -0.00581526  0.00826539 -0.01072034  0.02374008 -0.0215432  -0.0089241
 -0.00359988 -0.01473737 -0.00660904 -0.0105129 ]
[-0.00651956 -0.03502706  0.01879969 -0.02154131 -0.0458332  -0.00521675
  0.00400373 -0.00892159  0.02875158 -0.01809384 -0.00401726  0.01394332
 -0.01173277 -0.01514726  0.00950148 -0.00444792]
[-0.00544285 -0.01074092  0.02348587  0.01973464 -0.02278413  0.02194361
 -0.02380205  0.00809158  0.00316523  0.01051546 -0.00061392  0.01671953
 -0.02844793 -0.00987187 -0.00661558 -0.0160372 ]
[-2.3397880e-03  3.7887960e-04  3.7143578e-05 -1.3184091e-03
 -2.7958689e-02 -7.4810875e-03 -1.1494668e-02 -4.2473641e-03
  2.3593696e-02 -1.4245667e-02  7.4486346e-03 -8.4628100e-03
  1.8419666e-02 -1.1283887e-02  1.3004043e-02  2.0366000e-02]
[ 0.0219465   0.02208618 -0.01945361 -0.0270575   0.00999668  0.00399854
  0.04481204  0.00672691 -0.02192725  0.00454433 -0.00417158  0.006249
  0.02540476  0.03053501 -0.02534357 -0.00459694]
[-0.00320126 -0.02537967  0.00014854  0.00079438 -0.00196249  0.01333442
 -0.01177869  0.01287853  0.00448585  0.0018094  -0.00543559  0.01314351
  0.00545252  0.00538344 -0.00215323 -0.01243628]
[ 0.00301494  0.00441928  0.02288134 -0.01775757  0.00231911  0.0102187
 -0.00922737  0.01155257 -0.00867145  0.0247618  -0.03014725 -0.01104427
 -0.02430999 -0.01171486 -0.01267527 -0.0042081 ]
[ 0.01549707  0.01778715 -0.02168934 -0.00388369  0.02066432 -0.01074137
  0.05031801 -0.00579461 -0.02796135  0.0138987  -0.00606741  0.0063305
  0.04216594  0.03007202 -0.03444118 -0.00144768]
[ 0.00687008 -0.00741894 -0.00346768  0.01069064  0.00412919  0.02381438
 -0.02400625  0.00080671  0.00500951 -0.01739135  0.01010253  0.01307819
 -0.00677926 -0.02656312  0.00027795  0.00695245]
[-0.02569079 -0.00902689  0.01573435  0.01579629 -0.01192343  0.01685872
  0.02144478 -0.01146131 -0.00187491  0.00421923  0.01249736 -0.0078342
 -0.02192866  0.00126745 -0.00634223  0.00283376]
[ 0.01441311  0.00989607  0.0127394   0.00873545 -0.0132656   0.0115029
 -0.00071022 -0.01455487 -0.01524404  0.01227559 -0.00330949 -0.00170766
 -0.02279191 -0.00321971 -0.01489295 -0.00056304]
[-0.01068163 -0.01416348 -0.00520083 -0.03742524  0.02812837  0.00625057
 -0.01579097  0.02473625  0.0007595   0.02757914 -0.05674088  0.00444776
 -0.00428264  0.02608713  0.00199368  0.01906619]
[-0.00039144 -0.00641634  0.00770186 -0.02359548 -0.00020255 -0.00322237
  0.00108211  0.01298186  0.01699746 -0.00883864  0.00100274  0.02036184
  0.02025894  0.0232571   0.01359752 -0.03677903]
[-0.01785274  0.00954083  0.00388624 -0.00316557 -0.00998599 -0.00053417
 -0.01342222 -0.00194335  0.0121352   0.01170473 -0.02159861 -0.01424635
 -0.02324526 -0.02186364 -0.01586108  0.00638113]
[-0.01712679  0.001596    0.00178083  0.00962859  0.01781178  0.00150326
 -0.00590078 -0.00244468 -0.01658387  0.01140398 -0.0269507   0.01680995
  0.01371705  0.00318879  0.02509412 -0.01078102]
[ 0.00634645 -0.0095798   0.00096925  0.00853458  0.00016415  0.0235088
  0.02912828 -0.00279326 -0.01519331  0.00577715  0.00217812 -0.01477768
  0.03455994  0.02636397 -0.01821938 -0.01693643]
[-0.017444    0.0188906   0.01027771 -0.00908893 -0.00704358  0.00587727
 -0.00070357 -0.00967193  0.02514512 -0.02662552 -0.00148033  0.03519873
  0.00390473  0.00682478  0.03236495  0.00051606]
[ 0.00764178  0.00102029 -0.00399934 -0.00744369 -0.00195631  0.0077746
 -0.00469559  0.00119835 -0.00659996  0.01785764 -0.02480161 -0.0029054
  0.01271257 -0.00588494 -0.00500557  0.02700519]
[ 0.00291644 -0.01394894 -0.01285884  0.00393933 -0.00560979 -0.01058719
 -0.00661884  0.02089024 -0.01516425  0.01779215  0.01299839  0.00779797
 -0.00173937  0.00346197 -0.01077141 -0.0090041 ]
[ 0.01994347  0.04122039 -0.00663015  0.02305309  0.01719127 -0.02114123
  0.02381269  0.02753957 -0.01669709  0.00270504 -0.01770714 -0.01078349
  0.00535782  0.02759188 -0.0073226  -0.01357729]
[ 0.00424649 -0.00805682 -0.00037055 -0.00011508 -0.02818476 -0.00769282
 -0.01751937 -0.00844641  0.01998785  0.01231792  0.02050401  0.01861586
 -0.00344727 -0.03541188  0.01723523  0.02303953]
[-0.01349062  0.01548392 -0.01449755 -0.00192869  0.01744735  0.00563539
  0.03275302  0.02693968 -0.03005366  0.02599523 -0.02068858 -0.00720209
  0.04841499  0.03278702 -0.04027432 -0.00393533]
[-0.00545052 -0.00384998 -0.01219775  0.0015672  -0.01410498  0.0159999
  0.04893263 -0.0130454   0.00693534 -0.02021494 -0.01204022  0.01003628
  0.04744107  0.00809142  0.00419901 -0.00136667]
[ 0.00082073 -0.00424382  0.0127949  -0.01034228  0.01372116  0.01089009
 -0.00544278  0.0155547   0.01285275  0.00133372 -0.02090722  0.01659096
  0.01071774 -0.00259316 -0.01537677 -0.00783896]
[-0.01393781  0.00044344  0.01004275 -0.00157113  0.0068893   0.03448117
  0.0089681  -0.03947517  0.01494164 -0.02160183  0.01185403  0.00902248
  0.03172807  0.01941398  0.02447482 -0.01430018]
[ 0.0182453   0.00263855 -0.00608133 -0.00209535 -0.00496777  0.01138147
  0.02085476  0.01685369 -0.01332859  0.02787315 -0.01338093 -0.00417825
 -0.00565301  0.00974496 -0.01151183  0.00746657]
[-0.00437759  0.00152984 -0.00914074 -0.00795078  0.00916062  0.02361151
  0.03333253  0.01185695 -0.02671982  0.01137136 -0.01651187 -0.00363447
  0.04158759  0.03333499 -0.02246392  0.01379347]
[ 0.02504564 -0.00164782 -0.02493185 -0.01778121 -0.01675921 -0.02029278
  0.00795492  0.0119705   0.00429644  0.0134641  -0.01854312 -0.00018959
 -0.00726239  0.00480998 -0.00417466  0.01424103]
[-0.01808809 -0.02732152  0.03139478  0.03395199 -0.03346318  0.01668246
 -0.02839383  0.01464749  0.01675506  0.01645513  0.03388954  0.02791814
 -0.05117742 -0.05006603  0.00437037 -0.02074211]
[-0.01161007  0.007743   -0.01305886 -0.00121651 -0.00400991  0.01213427
  0.0359215   0.00201523  0.00940529  0.02647492 -0.02784081  0.00473558
  0.00464278  0.02421496 -0.00348     0.01240455]
[ 0.03146909  0.01844056  0.02534545 -0.03746455  0.01914662  0.00787213
  0.0056618   0.03379803  0.01685283 -0.00325643 -0.07755873  0.00792336
  0.01613178 -0.00744988 -0.02710672  0.01330136]
[-0.00636336  0.00324324  0.02257868 -0.01245711 -0.01824121  0.00741598
 -0.03260203 -0.00536827  0.01029474  0.0078306   0.00220354  0.01856685
 -0.01983893 -0.03888438  0.00805105  0.027288  ]
[ 0.01995132  0.03239985  0.01701925 -0.01426235 -0.01266204 -0.00280932
 -0.00601882  0.00938733 -0.00302958  0.01484682  0.00530448 -0.0127852
 -0.00911482 -0.01003791 -0.00847475  0.01175693]
[-5.2260007e-03 -1.5645629e-02 -1.4230441e-02 -3.7876230e-02
 -7.9302369e-03  2.3048382e-02 -3.8619429e-02 -9.4128663e-05
  1.4463723e-02  7.4028205e-03 -2.4381926e-02  8.2324436e-03
 -2.3743460e-02 -3.8611334e-02  1.5582889e-03  9.3294354e-03]
[-0.01133162 -0.01010382 -0.0093559   0.00895302 -0.00441276  0.00626517
 -0.02090899  0.01000233 -0.00523625  0.00180058 -0.01000017  0.00294628
 -0.03921747 -0.03033667  0.01225974 -0.00778283]
[ 0.00384137 -0.0062072  -0.00013422 -0.01529742 -0.00656471  0.00710327
 -0.01662988  0.00073999  0.01508916  0.00775253 -0.00903383 -0.00015971
 -0.00423298  0.00650977  0.00103555  0.00388292]
[-0.01591724  0.00714724 -0.01373975  0.02531943 -0.00273838  0.00258189
  0.00341756 -0.00223644  0.03632603 -0.01835547 -0.01900248  0.00869519
  0.017009    0.02700527  0.0286246   0.00931374]
[ 5.3822109e-03  5.9847576e-03  4.1045784e-03 -2.2620838e-03
 -4.7500067e-05  9.0024630e-03  6.4080125e-03  1.7578539e-02
 -1.8542279e-02  9.7565018e-03 -1.5603659e-02  1.2221078e-02
  8.3996862e-04  3.5765888e-03 -1.2935239e-02 -9.6022384e-03]
[ 0.00838664 -0.01444438  0.01085382  0.00428213 -0.00370661  0.00974871
 -0.01829431 -0.02349085  0.01165821  0.0003589   0.01216736  0.01814174
 -0.01841458 -0.04285759  0.00679618 -0.00030008]
[-0.00262267 -0.01789089  0.01081915  0.02004891 -0.0059027   0.01323696
  0.01710353  0.00842592  0.00200409 -0.00109569 -0.01387733  0.00299038
  0.00405179  0.00976107 -0.01410729  0.04577877]
[-0.00478223 -0.00674666  0.00527407  0.01239815  0.01429591  0.01626169
 -0.00807783  0.00794453  0.01263331 -0.01075455  0.00054592  0.0126
  0.00683859  0.0033977  -0.01268835 -0.00056101]
[-0.03292777  0.01969866  0.01549247  0.02896989 -0.00700723  0.01152245
 -0.01799148 -0.00725829 -0.02272632 -0.00196887  0.02173779  0.00961981
 -0.01044333 -0.00897679 -0.00303421  0.00571223]
[-0.02005386 -0.01569106  0.0016058  -0.01495684  0.01070851 -0.01160242
 -0.01998631 -0.00471695  0.00128998  0.0001504   0.015196    0.01903371
 -0.03384493 -0.01699538 -0.00287891  0.0023362 ]
[-0.00476815 -0.03235764  0.00917152 -0.002152   -0.01358911  0.01592562
 -0.00634543 -0.00212894  0.03084245 -0.00672847 -0.02741922  0.01153373
 -0.02754388  0.00604614  0.01090896 -0.00669914]
[ 0.00511057 -0.01638737  0.00225945 -0.00493245 -0.01890961  0.0074676
 -0.00699581  0.05092611  0.00122256  0.02919829 -0.01134264  0.01364939
 -0.00769897  0.00595552 -0.02509595  0.01815637]
[-0.01761089 -0.0060477   0.00062742  0.00803058 -0.02891008 -0.00078146
 -0.00867928 -0.02220674  0.00467881 -0.00226763  0.0182682   0.0011775
 -0.00215648 -0.00842533  0.01163259 -0.0016659 ]
[ 0.00224276  0.02232031  0.00559171  0.00325958  0.0012356   0.00678376
  0.0125752   0.00601849 -0.00095992  0.01133447 -0.00244684 -0.00650887
  0.00141465  0.02479382 -0.01676754  0.03807304]
[ 0.00176264 -0.00885193  0.02635857 -0.00536733 -0.00281609  0.01320197
  0.01226373  0.00893833 -0.00142756 -0.02615069 -0.01045557  0.00791519
  0.00343929  0.0176498  -0.00870492  0.01005919]
[ 0.00293341 -0.01530411  0.0306757  -0.02023494 -0.02074227  0.01875862
  0.00829016 -0.02335841  0.02150811 -0.0252015  -0.01034037 -0.00279808
  0.0290376   0.02973174 -0.00817665 -0.00545404]
[ 0.00995823  0.01174017 -0.01695953 -0.00133967  0.00606698 -0.00239818
  0.00302003  0.01048668 -0.01069259 -0.0005362  -0.00377679  0.00063045
  0.01518559  0.01025382 -0.00325132 -0.00533267]
[ 0.01175406  0.00065019 -0.01452505  0.00604449 -0.00642997 -0.01233494
 -0.00710234  0.00208701 -0.02065313  0.01319575  0.01738376  0.00973781
 -0.00180406 -0.00625359  0.004212   -0.01594   ]
[ 0.01641511  0.03006687 -0.01862947 -0.00813363  0.0133951  -0.02695461
  0.0488866   0.01828142 -0.01138948  0.03695454 -0.02500385 -0.02173042
  0.02105542  0.04734856 -0.01666806  0.01183801]
[-0.00974653  0.00081385  0.0157996   0.01809156  0.00387859  0.0033071
 -0.03172117 -0.00881866  0.02735207  0.00360273  0.01843984  0.00462781
 -0.05031952 -0.00398391 -0.00173992 -0.02006306]
[-0.01745935  0.00965068 -0.00852461  0.01201439 -0.00584761  0.00069766
  0.01811816  0.01611504 -0.02454063  0.00902406  0.00193174 -0.00385641
  0.01951282  0.02912641 -0.00685216  0.00439792]
[ 0.02606278  0.02681595 -0.04894616 -0.01601294  0.00583655 -0.01252916
  0.0433611   0.01996237 -0.00480847  0.01676991 -0.03147646 -0.01422314
  0.04493586  0.03407048 -0.02408271  0.0209009 ]
[-0.00125216  0.00652987  0.02460064  0.02083071  0.00571694  0.00629293
  0.0037368  -0.0046871   0.01955657  0.00570994 -0.01438277  0.01064298
 -0.00430749  0.01855077  0.00433159  0.00314714]
[ 0.016009   -0.01323934  0.02859776 -0.00304219 -0.01618412  0.00567839
  0.01134658  0.00780626  0.02396534 -0.01813248 -0.0024288   0.00541223
  0.00258297  0.03723637  0.0074574  -0.00122217]
[-0.00372889  0.02149639 -0.00240573  0.00299149 -0.00039733  0.01594025
 -0.00827402 -0.01282582 -0.00146119 -0.01833554  0.0102735   0.02680574
 -0.0172681  -0.01186005 -0.00390288  0.01490221]
[-0.00185216  0.00354701  0.0035103   0.00942687  0.02402     0.01183536
  0.04037928 -0.00509322 -0.01913636 -0.00698497  0.00484403 -0.00906137
  0.02045154  0.03827262 -0.00306001  0.01213234]
[ 0.01252718 -0.02515054  0.01327786  0.00525371 -0.0053612   0.01743635
  0.01576976 -0.03665186  0.01612263 -0.01802986 -0.0087836   0.01323499
  0.00686074 -0.0056514   0.00591689 -0.0007512 ]
[-0.00866662 -0.02036794  0.0269936   0.00729099 -0.02153029  0.02325964
 -0.02148912  0.01516075 -0.01347533  0.00893626  0.0331586   0.03895794
 -0.04863352 -0.0365159   0.01740704  0.0049466 ]
[ 0.00935171  0.02042614 -0.00027343 -0.01412741 -0.00098273 -0.00155901
  0.02524005  0.00093427  0.01725797  0.01809103 -0.01008303  0.02418943
  0.02821385  0.02469362 -0.01017324  0.02114314]
[ 0.00160196 -0.01923846  0.00969833 -0.03974773  0.0019045  -0.01036542
  0.0275912  -0.01588519  0.01577517  0.01575894 -0.03069132 -0.00625741
  0.00468651  0.0348133  -0.01741824  0.0090039 ]
[ 0.03585723  0.00058386 -0.00623735 -0.03252482  0.0208339  -0.01704734
  0.00070222 -0.00594014  0.00284355  0.0346833  -0.02677651 -0.00068047
 -0.00048536  0.00363984 -0.01808334  0.02347709]
[-0.00835945  0.00426207  0.00541186 -0.00176322  0.00653308 -0.01530955
  0.00752533  0.0286886   0.00217749  0.01736299 -0.02512522 -0.01349213
  0.00760993 -0.00857419 -0.01337485  0.01513496]
[-0.02032814 -0.01868705  0.01748188 -0.0211501  -0.01478343  0.02536313
 -0.00284143  0.01125596  0.01814846 -0.00565959 -0.01385203  0.02800469
 -0.03742313 -0.00190715 -0.00755612 -0.00675769]
[ 0.00183693 -0.01691162  0.01083256 -0.00371746 -0.02867951 -0.00892413
 -0.04692887  0.02111953  0.01161978  0.02851318  0.00088888  0.02020625
 -0.01153527 -0.01347514  0.01202952  0.00717802]
[-1.0229259e-02  1.0656530e-02  1.1957365e-02 -1.7953126e-02
 -7.7441367e-03 -1.5563797e-02 -3.0444851e-03  1.7336810e-03
  3.7986685e-03  5.6671347e-03 -9.9952910e-03 -2.0615373e-02
 -1.3002281e-02 -1.0857459e-02  6.4808456e-04 -4.7106412e-05]
[-0.00808381 -0.02575117  0.00684656  0.00554895 -0.01749711  0.00016047
  0.02443817 -0.01871829  0.01370808 -0.032755   -0.00213028  0.00829675
  0.02895552  0.02931019  0.01546604  0.00687021]
[ 0.00748464  0.01033456 -0.0027578   0.00224507  0.00558404 -0.00043138
 -0.03236054  0.01216438 -0.00506136 -0.00293167  0.01685701  0.00646107
 -0.0176861  -0.00876157 -0.00582342  0.01957463]
[ 0.01363757  0.00615755  0.01404867  0.00646966  0.00965193 -0.01720209
 -0.00886321  0.00390149  0.00961294  0.00707426  0.00024584  0.00683118
  0.00491448 -0.00226142  0.00652392 -0.00317962]
[-0.00447107  0.0101747  -0.0210198  -0.01839601 -0.0077368   0.00459218
  0.04490068 -0.00466757 -0.01954943 -0.00122845 -0.03029858 -0.0128935
  0.02299509  0.02768726 -0.00713672  0.01917376]
[ 0.01588374  0.0070674   0.00753377  0.00372833  0.00776383  0.00077365
  0.01738178  0.02082832 -0.01035249  0.002348   -0.02956798  0.01469551
  0.01775856  0.00765324 -0.0078275  -0.00353551]
[-0.02017085  0.01275599  0.00892714 -0.00513833  0.00189663  0.02179141
 -0.0179146   0.00583353 -0.02175193  0.01156773  0.00793117 -0.01827917
 -0.01207046 -0.02031912 -0.00200156  0.02005909]
[-0.02849257  0.00106445 -0.00814371 -0.00468866 -0.01158048  0.02379036
 -0.0235257  -0.01749689 -0.00579625  0.00819842  0.02246107  0.02022513
 -0.01511139 -0.01235104  0.01605102 -0.02915248]
[ 0.00312011 -0.00146489  0.01401554 -0.00906569  0.00775908 -0.00805055
  0.04861019  0.00698396 -0.02278055  0.02189638 -0.00848375 -0.00282197
  0.01320998  0.00552751 -0.02871336  0.00036693]
[ 0.00605985 -0.00675298  0.00918972 -0.00207161  0.01203147  0.01484329
 -0.00699015  0.01193913  0.01865368  0.01349931  0.00163506  0.01011691
 -0.01317498  0.01195169  0.02308619 -0.0063379 ]
[-0.01384001 -0.01354485  0.00106338  0.00173088  0.00795004 -0.00327504
 -0.01472012 -0.00837166  0.00707435  0.00023814 -0.01171558  0.01428613
 -0.00907493 -0.01335296  0.02591735 -0.00371178]
[-0.00162645  0.00221969 -0.01640421 -0.01810871 -0.00436507 -0.00238735
  0.01429348  0.01152909 -0.01217207  0.00559088  0.00458351  0.00263624
  0.0297415   0.03041539 -0.00721348  0.00292548]
[ 0.0025337   0.00428338  0.00746545 -0.0017433  -0.00128017  0.00513003
  0.02015618  0.00940414 -0.01453081 -0.01718562 -0.0069376   0.00388221
  0.01549648  0.02479046 -0.02273142  0.02159694]
[-0.01074441 -0.00087885  0.03490432 -0.02333807  0.00206756  0.01988166
  0.02304494  0.00746533  0.01256783  0.0185832  -0.03501323 -0.01329542
  0.02286417  0.04976691 -0.02756636 -0.01355523]
[-0.00395572 -0.02106118  0.00750571  0.03573073  0.00397046  0.00365701
 -0.00570276 -0.01123492 -0.02278086 -0.00675136  0.0367428  -0.00251512
 -0.01670427 -0.01042867  0.01227656  0.01171011]
[ 0.00480048 -0.00992452 -0.01991823  0.01495353  0.00195417 -0.00244182
 -0.00476791  0.00737164 -0.01003899  0.00214061  0.01423959 -0.00346403
  0.00221856  0.00108907  0.00550305  0.0322019 ]
[ 0.02080649  0.03344706 -0.00679135 -0.00319105  0.02505833 -0.00836307
  0.03278693  0.00648792 -0.02257738  0.03217526 -0.01744846  0.00888927
  0.03933217  0.03172255 -0.0062076   0.0318348 ]
[-0.00553387  0.00629864 -0.00906741  0.0085494   0.00320174 -0.00450382
 -0.03171379  0.00083148  0.03612505  0.00917548  0.00617408  0.01482593
 -0.01192888 -0.04091436  0.01911391 -0.00555063]
[ 0.01577603  0.0105229  -0.01927428 -0.01233536  0.00430353 -0.01546036
  0.0181407  -0.00278259 -0.01872704  0.00250425 -0.02738229 -0.00507787
  0.05478181  0.01625205 -0.02176234  0.02865632]
[-3.3712913e-03 -9.8115699e-03 -2.1983400e-02  6.4762513e-05
 -2.1345397e-02 -8.4788725e-03  2.2553783e-02  1.2104638e-02
  1.0988977e-02  4.9729953e-03  2.7616636e-03 -1.5542652e-02
  2.3392133e-02 -3.4316620e-03  1.1185359e-02  1.4117896e-03]
[ 0.00535863 -0.00666872  0.00316492  0.0066695  -0.00153379  0.02310892
 -0.00847802  0.00478878  0.00228334 -0.00906864  0.00360057  0.00382535
  0.00647093 -0.03709907 -0.01123687 -0.01746876]
[-0.0022784  -0.02088962  0.01624753  0.00363135  0.01032779  0.0052314
  0.0339331  -0.01037938 -0.01043021  0.0026584  -0.02608319  0.02856636
  0.02680854 -0.00370646 -0.01864943  0.00869087]
[ 0.01275425  0.02258394 -0.0309462  -0.01454418 -0.00463205 -0.01627632
  0.03721422 -0.00024106 -0.00843673  0.01396031 -0.00383351  0.03392671
  0.01472321 -0.00613759 -0.0065562   0.00139741]
[ 0.00977798  0.00075959 -0.00348257 -0.0049537  -0.01037298  0.01133814
  0.03682534  0.01254526 -0.01262716 -0.00251759 -0.03109435  0.01578606
  0.03867657  0.06590099 -0.02018209  0.01920977]
[ 0.01187779  0.00118552 -0.00585169 -0.02092046 -0.01471529  0.00169851
  0.01421244  0.00648226  0.01501394 -0.00037967 -0.0266324   0.01819731
  0.02958979  0.01249838 -0.00587696  0.01575051]
[-0.00820266 -0.00070185 -0.01447822 -0.01743993  0.00514707 -0.00807083
 -0.02870398  0.00795616  0.02774319  0.02019838  0.01458443  0.02648963
 -0.01932102 -0.0547234   0.03267041  0.01378531]
[ 0.01625548  0.0033514   0.03065962  0.00608912 -0.00486179  0.02807049
  0.01959376 -0.0028483   0.0144686  -0.01441201  0.00093137  0.00925619
  0.01284289  0.00733857 -0.00674719  0.01486483]
[ 0.00226349 -0.02066852  0.03561731 -0.01792728 -0.00157278 -0.00089964
  0.00772012  0.01719278  0.0147907   0.00693722 -0.04329253  0.00583311
 -0.0052357   0.01064689 -0.02045827 -0.02086147]
[-0.00037364  0.02393318 -0.00760663 -0.01943411  0.01453269 -0.02250754
  0.00270752 -0.00657672 -0.00024375  0.00448215 -0.01475966 -0.00776824
 -0.00952038 -0.00170981  0.00202587  0.03279933]
[-0.00901495  0.01973557  0.00594739  0.02510105 -0.01759005  0.00745966
 -0.00302391  0.00830436 -0.01927806  0.02559786 -0.02634523 -0.01137293
 -0.01913171 -0.01762336 -0.00271053  0.00903815]
[ 0.00536723 -0.01866247  0.0169044   0.00039104 -0.01968602 -0.00023046
 -0.02641092  0.00660852  0.01767279  0.00948945 -0.02262622  0.01187077
 -0.02402637 -0.02416459  0.01552268 -0.01779922]
[-0.02601465  0.00942617 -0.01718725  0.00085423 -0.00223309  0.0182301
 -0.03380669 -0.01074174  0.00139539  0.02859681  0.00432646  0.01397664
 -0.01280886 -0.04615233  0.00878817 -0.00717632]
[ 0.01080678  0.00277579 -0.01009594 -0.00224142  0.01081148 -0.0065147
  0.00520545 -0.02302531 -0.00180351  0.00520841  0.00805086  0.00526869
 -0.00031762 -0.01046158  0.01281973 -0.00487392]
[ 1.8367732e-02  5.2243127e-03  1.7004175e-05  1.4637168e-03
  3.0890983e-03  1.3095670e-02  3.4978300e-02  1.3408253e-02
 -1.1457602e-02 -2.3296500e-02 -2.9985599e-02 -7.4224253e-03
  2.3255799e-02  2.0954402e-02 -7.3096761e-03  2.2467414e-02]
[ 0.00088094 -0.00054959 -0.00258387  0.00232829  0.00012654 -0.00555917
 -0.01399508 -0.00372618 -0.01041189  0.00076877 -0.00242753  0.0061369
  0.00485909 -0.01525626 -0.00372252  0.0056035 ]
[-0.00350744  0.00849542 -0.02687829 -0.00099411  0.01600412  0.00068235
  0.01657056 -0.00219948 -0.01485209  0.00464669 -0.01006814  0.01454689
  0.01584316  0.00831809  0.00094168 -0.01738524]
[-0.00666166  0.01789889 -0.01452975 -0.01194116 -0.00615588  0.0048751
  0.03996278 -0.00628397  0.01058475  0.01007389  0.00517519 -0.0129413
  0.02847121  0.04478176  0.00427619 -0.00073626]
[-1.57640446e-02  1.82881430e-02 -4.74336511e-03  1.87832192e-02
 -2.09714263e-03  1.14755072e-02 -5.37908599e-02  3.42558958e-02
  1.65186601e-03  2.03016903e-02 -1.18894700e-03 -7.13761523e-03
 -4.71049607e-05 -1.47803435e-02 -1.57268636e-03 -3.16145713e-03]
[-0.03454699  0.01175876 -0.01768502  0.02460425 -0.00403213  0.00891109
 -0.01947595 -0.0094079  -0.02723433  0.01716217  0.02978461 -0.00181685
 -0.02949164 -0.03181416  0.01432462  0.00681392]
[-0.00611267 -0.00759182  0.00715054  0.02440575  0.0006139  -0.0146043
 -0.00261064  0.00656817  0.01544637 -0.00410606  0.03020162 -0.03203484
 -0.03876242 -0.05722927 -0.0004803   0.00934481]
[ 0.01398862 -0.00903718  0.01279811 -0.01179376 -0.0013046  -0.00539672
 -0.0352099   0.00228378 -0.00438251  0.01914982 -0.01365185  0.0236142
  0.00240401 -0.00228652  0.0181189  -0.02534249]
[-1.7568002e-02 -1.5400712e-02  8.6245826e-03 -2.6470358e-02
 -3.0014573e-02  1.7892392e-02 -6.6521615e-03 -3.9313547e-03
  1.4531938e-02 -9.2705718e-04 -6.7540612e-05  2.0745683e-03
 -1.8974060e-02 -5.8295324e-02  1.8839100e-02 -3.1572206e-05]
[-0.00542102 -0.00872404  0.00919068  0.01133106  0.00350768  0.01451123
 -0.02483858  0.02471936 -0.00452559  0.00887401 -0.01037896 -0.00763374
 -0.01011057 -0.01473792 -0.02380047  0.0122563 ]
[ 0.01520697  0.00732068 -0.00102218 -0.01463901 -0.00450705  0.00203829
  0.01033724  0.01670973 -0.0006032   0.01193057 -0.01405858 -0.00529674
  0.00278883 -0.00185716 -0.00863281  0.02794673]
[-0.01226679  0.00449414 -0.00452929  0.01559133 -0.01600651  0.02434069
 -0.00023445  0.00107814 -0.00541394 -0.00402719 -0.02653504  0.01694983
  0.01093305  0.02798403  0.00758068  0.00488067]
[-0.01520009 -0.0161415   0.05501748  0.00171828 -0.01979474  0.03283736
  0.00696211 -0.00341591  0.02659199 -0.01536146 -0.02910348 -0.00278673
  0.01881495  0.02345376 -0.01882635 -0.01447409]
[-5.3099506e-03 -1.2942063e-02 -2.6998620e-02 -7.9744505e-03
  5.3519756e-04 -1.6207922e-02 -2.2693636e-04 -6.6359094e-03
  1.4732496e-02  2.5215624e-02  1.3599840e-02 -2.0840811e-02
  6.4115194e-03  5.4985140e-03 -7.1508948e-05 -7.4970876e-03]
[-0.01074488  0.00719688 -0.0207786  -0.00062059  0.00703209 -0.0269118
  0.00106653 -0.0257364  -0.00102395  0.01260619  0.00516381 -0.00113453
 -0.01495743  0.01347317  0.00565397 -0.00637167]
[-0.02228814  0.00958216  0.00408912  0.00107932  0.01260992  0.00686136
  0.00430717 -0.00927905 -0.00740464  0.01909703  0.0061101  -0.0034513
  0.00501223  0.03546098 -0.02219178  0.03411292]
[ 0.00639972 -0.01308343  0.00674753  0.02722134  0.00100296 -0.02957509
 -0.02892579 -0.00200869  0.01235781 -0.00453677  0.009474   -0.00448761
 -0.02166072 -0.03304591 -0.00212458  0.00393727]
[ 0.0203037   0.01709919 -0.0157866  -0.02503581  0.02955664 -0.02187543
  0.0185516   0.01100443 -0.0273868   0.00707588 -0.03673268 -0.01641687
  0.02079754  0.0160685  -0.01823072  0.03689952]
[ 0.01351996 -0.01815943  0.04058105 -0.02767968 -0.00294737  0.00817385
  0.03201541 -0.00299738  0.03155282 -0.01193937  0.00309657 -0.01209635
  0.03092028  0.03974608  0.00026008  0.03241129]
[-0.01956144 -0.00937938  0.02236598  0.01614747 -0.01040048  0.01899248
  0.01387496 -0.03495922  0.02006485 -0.01155855  0.00663356  0.03831347
 -0.00565701 -0.00113117 -0.00586735 -0.00164634]
[ 0.0078787  -0.01042381 -0.00178871  0.008272   -0.01910604  0.01356479
  0.01517684 -0.01308123 -0.00392634 -0.01835888 -0.00551816  0.0152824
  0.03765624  0.01137829 -0.0067803  -0.00179155]
[ 0.01028759  0.00600021 -0.0137505  -0.01034513 -0.00595069 -0.01126011
  0.0093575  -0.00349447  0.00060372  0.00353031  0.00498856 -0.00306219
 -0.00404005  0.00440151  0.01815861  0.02523948]
[ 0.01579019  0.01539276  0.01955005 -0.01694521  0.01769558  0.01833623
  0.02224069  0.01660128  0.00331433  0.01294053 -0.02970386  0.00836304
  0.00763619  0.02833808 -0.01396281 -0.00838867]
[-0.02468976 -0.03906594  0.02730577 -0.00603739 -0.01656431  0.02018189
 -0.0133688   0.01613551  0.02665314 -0.01582963  0.00417171  0.03080784
 -0.01301877 -0.01659373  0.00177475 -0.02165671]
[-0.01239666 -0.01056406 -0.01236196  0.03318325 -0.01541003 -0.00078009
 -0.06376306 -0.0032806   0.01969972  0.00079205  0.03965173  0.01908668
 -0.05357469 -0.03100756  0.0304654  -0.02454272]
[ 0.00770487  0.01430795  0.00091566 -0.00875031  0.01462227  0.00012106
  0.03254672 -0.01146826  0.01409952  0.01203595 -0.03290176  0.00277246
  0.03374741  0.0375075  -0.00248146  0.0071574 ]
[-0.00804645 -0.00619973  0.03075794 -0.04979362  0.00017998  0.01372237
  0.0173306   0.01577746  0.01859364 -0.00634171 -0.04784648  0.01022005
  0.01200863  0.0395436   0.01157276 -0.02402834]
[ 0.02052862  0.00863044  0.00428643 -0.00639003  0.00333544 -0.00528118
 -0.02277749 -0.00990968 -0.01374397  0.02461944 -0.00082489 -0.00405328
 -0.01733977 -0.00531748 -0.00700323  0.00626225]
[ 0.00526851  0.01063675 -0.01631039  0.01331616  0.00275085  0.00564628
  0.00437615  0.02475062 -0.00235761  0.02523806 -0.02705736 -0.01042689
  0.00651427 -0.02855907 -0.01067241  0.00622746]
[-0.01427085 -0.01536739 -0.0058987  -0.01669316 -0.01364069  0.00102465
 -0.01962718  0.03285838  0.03076948  0.03870525 -0.01465619  0.0205088
 -0.0394846  -0.01764381  0.03121754 -0.02103718]
[-0.02493752 -0.01092652  0.01512834  0.01685864 -0.02858108 -0.00228105
 -0.01556824  0.03105493  0.00796323  0.00935392  0.02614853  0.00660001
 -0.0126954  -0.02674097  0.00310084 -0.00830084]
[ 0.00226679  0.00265258  0.00375715 -0.00198242  0.00349425 -0.00956666
  0.00819515  0.00154316  0.00582799  0.00224566 -0.00167295 -0.00217961
 -0.00157374 -0.02263216 -0.01954102  0.00280794]
[-0.00587251  0.01463978  0.02650901 -0.00460686 -0.00279903 -0.01289951
  0.01850662 -0.0057358   0.01617065 -0.00048668 -0.00667127  0.0040726
  0.01520681  0.03519306 -0.01195012  0.02761107]
[ 0.01150524 -0.00114976 -0.00322903  0.00241053  0.01271793  0.0123613
  0.00220809 -0.00965736  0.00577951  0.01508741  0.00939825 -0.00112881
 -0.01650237 -0.01819313 -0.00948661  0.00159624]
[-4.0212320e-03  6.2151072e-03  4.4010463e-05  2.9779481e-02
  2.0152363e-03 -1.1311340e-02  8.6969826e-03  6.7414227e-03
 -2.5506751e-03 -6.0738069e-03  1.9257741e-02  1.1676027e-03
  4.9443473e-03 -1.7785765e-02 -2.5807235e-03 -7.1461326e-03]
[ 0.02535626  0.01477479 -0.02325689 -0.02879786  0.03329241 -0.01006383
  0.02330084  0.021554   -0.00694266  0.00460021 -0.01945844 -0.00686531
  0.02618006  0.0269752   0.01202674  0.02158452]
[-0.00054409 -0.03380801 -0.00648508  0.02317886 -0.02614762  0.00499076
 -0.00560658  0.00451684 -0.00297525  0.01588033 -0.00090618  0.01118928
  0.00045318  0.00372083  0.01089989  0.01651935]
[-0.03474894  0.02022552 -0.02090441  0.03596832  0.00290878  0.00681001
  0.00404114 -0.02061124 -0.01245351 -0.00066811  0.01179907  0.02315108
 -0.00677376 -0.02410484  0.00586896  0.00212   ]
[-0.00499795 -0.00272162  0.00730975  0.01174259 -0.02282299  0.01102273
 -0.00650499 -0.02419463  0.03330539 -0.02706501  0.02784735 -0.00042539
 -0.02902799 -0.03940994  0.02974308 -0.02760193]
[ 0.02254962 -0.00968628  0.00270043 -0.02675237 -0.00747438 -0.00962959
 -0.01722589  0.03711905 -0.01031123  0.04498815 -0.02592676 -0.01358482
 -0.0013179  -0.0024469  -0.05565684  0.01809365]
[-0.00099442  0.0019342  -0.01175105 -0.01245681  0.01239478 -0.01997124
  0.02272521 -0.01749291  0.00016291 -0.00340471 -0.01458876  0.00275268
  0.02183129  0.03805691 -0.00208905  0.0266199 ]
[-0.00337847 -0.01061377 -0.00900405  0.00770167 -0.00703191 -0.0005826
  0.03013022  0.00542915 -0.01306437  0.01990723 -0.01496547 -0.01836562
  0.00367621  0.00258035  0.00291567  0.00976784]
[-0.00192021 -0.01316138 -0.00357554 -0.00339445  0.00415938 -0.01545611
  0.03908951  0.00356908  0.00016341  0.00968068 -0.0149343  -0.01904064
  0.0033066   0.00595855 -0.03007229  0.00306543]
[ 0.01774581  0.00069012  0.01569992 -0.01211988 -0.01252875  0.00130858
  0.01092367 -0.00348483 -0.00537133  0.02093512 -0.01983466  0.01003742
  0.01300506  0.02898793 -0.01050396  0.02856502]
[ 0.00524484 -0.00839327  0.01157804 -0.02531331  0.00485975 -0.01137325
  0.03529416  0.0213528  -0.00458219  0.03583833 -0.03326272  0.00245153
  0.03363433  0.05493288 -0.02191293  0.01961344]
[-0.00365265  0.01620196 -0.0221422   0.00757691  0.00621064 -0.01517605
 -0.00119089  0.01115334 -0.00875177 -0.01342451  0.01874467  0.00761646
 -0.00130533  0.00326061 -0.01616781  0.00624095]
[-0.01270781  0.00867935 -0.02696969 -0.00403874  0.00080151 -0.0067449
 -0.01801847  0.00261954 -0.00558605  0.01147267 -0.01111518  0.0063855
 -0.02121398 -0.01728817  0.00623049 -0.01118602]
[ 0.01041442  0.00307354  0.00507114 -0.01283541  0.01942933  0.01358549
  0.01609811 -0.00061099  0.0025674   0.00337285 -0.00134065 -0.0150381
  0.00397856 -0.01441292 -0.0043208   0.04283543]
[-0.02930676 -0.02242204 -0.00561467  0.00619552 -0.00970414 -0.00756285
  0.00357307  0.01629894 -0.00335654 -0.02386865  0.02395393 -0.01223311
  0.0116102   0.01688546  0.01251071 -0.02724587]
[ 0.02357388  0.02503414 -0.01624347 -0.01284176  0.02041027  0.0025547
  0.0577292   0.01532521 -0.00559897  0.00992842 -0.03723818 -0.04879709
  0.03163191  0.02598469 -0.02959029  0.02981649]
[ 0.01569707  0.00374432 -0.00172086 -0.02932391 -0.02419004  0.00717155
  0.0269428  -0.00117679 -0.01550618  0.02270112 -0.01941413  0.02601895
  0.0264575   0.01639329  0.00050168  0.03962773]
[-0.01326397 -0.02282969  0.02412716 -0.00768388 -0.01169239  0.0028674
