param weight_fc1:=
[ 0.18389331  0.18007196  0.17109811  0.19276023 -0.15802202  0.19909465
 -0.19356132  0.22754377 -0.15684277  0.16546395 -0.19753107 -0.1298704
 -0.16060592  0.15509534 -0.15041423 -0.12984344]
[ 0.04280149  0.03885342  0.04733213  0.04283103 -0.07687435  0.05617484
 -0.03747579  0.09733929 -0.08182712  0.05722608 -0.07364334 -0.0536051
 -0.03908073  0.06021361 -0.03039058 -0.05771803]
[ 0.05708528  0.02755394  0.0597319   0.0646818  -0.07488586  0.0545161
 -0.04038718  0.05157534 -0.05920666  0.04124736 -0.07388309 -0.03570353
 -0.00341429  0.03946082 -0.00700287 -0.01034005]
[ 0.03768293  0.01752613  0.03146383  0.01307808 -0.04452123  0.03789046
 -0.04209499  0.04597967 -0.02850198  0.00737479 -0.0622244   0.00178185
 -0.00802722 -0.01715311 -0.02676722  0.00583578]
[-3.5296351e-02 -3.0430520e-02 -4.2693768e-02 -5.1101580e-02
  1.7451515e-02 -3.4118243e-02  3.2025341e-02  2.5453502e-02
 -8.5889798e-05 -5.5886839e-02  2.1467132e-02  2.1323064e-02
  5.4962777e-02 -4.2660102e-02  6.4972520e-02  4.0308006e-02]
[ 0.08873755  0.06878158  0.07199851  0.08036063 -0.05215036  0.06890108
 -0.06359719  0.0663168  -0.0780504   0.06700899 -0.08036549 -0.0598595
 -0.02353935  0.04861397 -0.03689233 -0.03171217]
[ 0.00637822  0.0118393   0.02109793  0.00297988 -0.05888448  0.00681604
 -0.0284134   0.04560084 -0.02401999 -0.00453207 -0.06748967 -0.00593583
  0.02503678 -0.0174566  -0.02012538  0.00757845]
[ 0.10205467  0.12101243  0.08527517  0.1285937  -0.14610258  0.11333595
 -0.1002645   0.15210156 -0.14154935  0.10325227 -0.14741625 -0.11372605
 -0.05996047  0.10086794 -0.08215798 -0.10200933]
[ 0.04401921  0.03240228  0.04375067  0.04202715 -0.07487107  0.05319751
 -0.05853485  0.05742708 -0.04823986  0.04985324 -0.07407504 -0.01665274
 -0.01655696  0.02621527 -0.03136523 -0.01826074]
[ 0.13602546  0.10781498  0.11115638  0.08429705 -0.1594983   0.111276
 -0.11609197  0.1513919  -0.14176817  0.09311992 -0.15085436 -0.10920629
 -0.10938216  0.07541125 -0.10533355 -0.10649804]
[-0.01369279 -0.0377036  -0.0064927  -0.02807043 -0.01248636 -0.00390928
  0.02019368 -0.01082077 -0.00416412 -0.03074742 -0.0362272   0.01853037
  0.041412   -0.05490889  0.02739577  0.04792649]
[ 0.03872489  0.03641296  0.03693251  0.05223268 -0.06145415  0.04898539
 -0.04717084  0.02989383 -0.06021585  0.03309062 -0.06874727 -0.01841068
 -0.02566097  0.0411119  -0.02398955 -0.01451614]
[ 2.16176454e-02  1.67803690e-02  2.29446050e-02  1.51374498e-02
 -6.25841841e-02  1.27595365e-02 -2.65894551e-02  3.23629677e-02
 -3.66331972e-02 -8.91764284e-05 -7.68574923e-02  4.88896342e-03
  1.39959389e-02 -1.02491658e-02 -1.33598214e-02  7.87399895e-03]
[ 0.07218162  0.07589327  0.06846675  0.08096762 -0.04253255  0.07972481
 -0.05078169  0.06175884 -0.06526566  0.10239496 -0.04698597 -0.0400634
 -0.06400409  0.09248971 -0.06917638 -0.07394871]
[ 0.06213471  0.0508263   0.07470177  0.0573674  -0.05174018  0.04645338
 -0.04977538  0.05798361 -0.03860286  0.05850638 -0.05210771 -0.04459228
 -0.06790815  0.07948354 -0.05349753 -0.05512832]
[ 5.1702160e-02  5.6746867e-02  1.9813703e-02  1.3489146e-02
 -5.9735030e-02  2.4558984e-02 -5.5614632e-02  7.3719576e-02
 -7.7114813e-02  4.7897369e-02 -5.9306990e-02 -4.7130082e-02
  8.6540749e-05  6.1439229e-03  3.1221777e-03 -1.6877754e-02]
[ 0.14792529  0.14961946  0.17214318  0.16092867 -0.17731042  0.15869303
 -0.15311313  0.1891148  -0.15484782  0.14069335 -0.20836417 -0.11812098
 -0.12430754  0.13555582 -0.11753587 -0.1072531 ]
[ 0.09026735  0.08299994  0.0822626   0.13446385 -0.07035639  0.10199551
 -0.04932943  0.10856462 -0.06045871  0.08993822 -0.04540687 -0.05041271
 -0.08997235  0.12287629 -0.05654021 -0.06136837]
[ 0.00217041 -0.02953005 -0.01023275 -0.00948784  0.00148105 -0.01222553
  0.01421046 -0.02461419  0.0184602  -0.01639361 -0.02698116  0.03920606
  0.05683831 -0.03021523  0.01306361  0.0686994 ]
[ 0.03398925  0.04775225  0.04282283  0.01999891 -0.08108731  0.03628104
 -0.06241276  0.06259895 -0.07698536  0.05463205 -0.08938841 -0.06597497
 -0.01881972  0.03361424 -0.02033451 -0.02159155]
[ 0.03709551  0.03125033  0.01922764  0.01700106 -0.07830999  0.02120358
 -0.04993384  0.08623718 -0.0541119   0.02252775 -0.09094895 -0.02912395
  0.0067296   0.03835987 -0.03854791 -0.02357752]
[ 0.05614556  0.08564927  0.04244044  0.04713622 -0.08596878  0.05717672
 -0.07279843  0.08043405 -0.09915177  0.05071408 -0.10759635 -0.05928345
 -0.05094787  0.06647061 -0.05098072 -0.06451651]
[ 0.14982036  0.15610889  0.12932014  0.17958233 -0.09447905  0.13053861
 -0.09182902  0.19447036 -0.1463171   0.12866406 -0.07493885 -0.11863898
 -0.08433358  0.16701606 -0.0699803  -0.09597213]
[ 0.08062207  0.11201188  0.10390227  0.10813943 -0.13282983  0.08078861
 -0.10076768  0.16019352 -0.14510281  0.07645217 -0.12784904 -0.12620391
 -0.05581974  0.10395751 -0.08664066 -0.11877322]
[ 0.2391348   0.21806829  0.22308005  0.21486619 -0.21099964  0.21613356
 -0.20941481  0.25515878 -0.19766171  0.23429644 -0.23115589 -0.19970652
 -0.1727574   0.23609579 -0.16845933 -0.17571472]
[ 0.04787063  0.03935272  0.02492805  0.03399952 -0.06253359  0.02813539
 -0.02873063  0.06115672 -0.04133718  0.02511924 -0.07041255 -0.01886707
 -0.01643196  0.02410909 -0.02089195  0.01447743]
[-0.00876359  0.0050747   0.00521448 -0.00827552 -0.04606273 -0.00284704
  0.01013794  0.00870958 -0.0193865  -0.00760367 -0.05962165  0.00513537
  0.0265414  -0.0163547   0.02244746  0.02692327]
[ 0.04730063  0.04740614  0.0277566   0.00756739 -0.05796592  0.04424415
 -0.02466729  0.08320627 -0.05844794  0.0261023  -0.02708677 -0.07116149
 -0.00524468  0.06793346 -0.01087365 -0.04918826]
[ 0.1668326   0.1669565   0.14991952  0.15189789 -0.20277502  0.13844003
 -0.1691919   0.18443191 -0.18694629  0.1344176  -0.19042785 -0.1397067
 -0.1503275   0.13786066 -0.13727035 -0.14119759]
[ 0.02450194  0.05540923  0.04370432  0.02191211 -0.0500592   0.03269396
 -0.01465176  0.08236703 -0.05076406  0.03472834 -0.0434414  -0.02677959
  0.01665626  0.00719978 -0.01004044 -0.01837772]
[ 0.15108149  0.14017312  0.1321128   0.13935983 -0.1467756   0.14786145
 -0.1270275   0.19659851 -0.17022772  0.15645455 -0.16110808 -0.13282734
 -0.105321    0.14119203 -0.11829818 -0.12780592]
[-0.09443451 -0.08598308 -0.09831532 -0.05696745  0.0687531  -0.10574821
  0.09044637 -0.06138872  0.04954422 -0.10924982  0.09621868  0.04507031
  0.13411224 -0.07228255  0.13160418  0.05876003]
[ 0.13901724  0.1220217   0.12626089  0.12958568 -0.13057989  0.14708082
 -0.13796364  0.14474098 -0.13803983  0.10655428 -0.17978996 -0.10841952
 -0.10209756  0.10512611 -0.1122663  -0.10254104]
[ 0.09205323  0.09806589  0.09073913  0.09414438 -0.13707805  0.08346521
 -0.07738869  0.08488696 -0.08958012  0.08436972 -0.13706608 -0.08890393
 -0.04854672  0.04644624 -0.06803262 -0.06082933]
[ 0.00894644  0.01005006  0.03460985  0.02230875 -0.0345777   0.00547329
 -0.01068018  0.01334243 -0.02785426  0.00530388 -0.06921981  0.00919172
  0.02254896 -0.015835    0.00262297 -0.00245427]
[ 0.09524768  0.04784197  0.06940207  0.07251157 -0.05050483  0.09850799
 -0.08010335  0.0851556  -0.0247912   0.04419936 -0.09269628  0.0041918
 -0.06580669  0.07307248 -0.10044847 -0.06122659]
[ 0.01562491  0.05960839  0.04999815  0.04480699 -0.06770241  0.01185926
 -0.00185424  0.05027997 -0.06245444  0.05079615 -0.05554911 -0.10295632
 -0.01363846  0.03103719  0.02323883 -0.05851914]
[ 0.01254177 -0.02111772 -0.00146446  0.01957111  0.0045948  -0.00231202
 -0.0019014  -0.00022503  0.0153951  -0.01686515 -0.03422559  0.02752912
  0.03784611 -0.02179326  0.00524434 -0.00640591]
[ 0.03038378  0.02270467  0.01636374  0.01527555 -0.07335525  0.01570992
 -0.04247819  0.02710825 -0.04684191  0.01854284 -0.08903033 -0.01331436
  0.01176322 -0.03509631 -0.02071213  0.0032605 ]
[ 0.10320417  0.10310815  0.12494557  0.12220145 -0.16008383  0.09829259
 -0.11584355  0.13856548 -0.15897715  0.13959543 -0.14940213 -0.13074224
 -0.11294552  0.09305176 -0.08359586 -0.08144046]
[ 0.08624926  0.09709261  0.07619642  0.09189913 -0.10573532  0.07613187
 -0.06906437  0.09890434 -0.08515198  0.07548495 -0.11472427 -0.06986031
 -0.05004258  0.05780538 -0.07235955 -0.0577671 ]
[ 0.13797224  0.12902613  0.11326613  0.11863788 -0.14377514  0.10800216
 -0.13146076  0.12426819 -0.12814108  0.09699016 -0.1592628  -0.11439754
 -0.09785528  0.10229658 -0.08563167 -0.12209547]
[-0.02742527 -0.02986774 -0.01577417 -0.03468794 -0.02495066  0.00535156
  0.01628639 -0.01783696  0.0053405  -0.03353563 -0.03415787  0.02150634
  0.06716666 -0.04232232  0.05147193  0.03776242]
[ 0.10453282  0.05124727  0.09748762  0.08337014 -0.05101162  0.04506385
 -0.07613675  0.0425755  -0.02343865  0.09476362 -0.08905674 -0.03581962
 -0.06555919  0.05187985 -0.06266828 -0.0737008 ]
[ 0.00250901  0.02184222  0.03642613  0.01206746 -0.05577698  0.01703983
 -0.03397578  0.02682126 -0.02384301 -0.00527974 -0.07998857 -0.01828649
  0.01391069  0.00060562 -0.0266597  -0.00026923]
[ 0.10790489  0.07657787  0.07794323  0.06933713 -0.05978152  0.08488783
 -0.06844162  0.07767128 -0.06523106  0.07798724 -0.05131753 -0.06393434
 -0.07000758  0.06615762 -0.06503443 -0.06193699]
[ 0.18346196  0.11120687  0.15553339  0.18030281 -0.08711092  0.12420613
 -0.08915647  0.11051145 -0.0698589   0.13078235 -0.10106461 -0.08294219
 -0.13153204  0.18562692 -0.13242975 -0.15121774]
[ 0.06264275  0.04651357  0.05270709  0.06544769 -0.09559444  0.06182422
 -0.01551044  0.06043984 -0.0636119   0.04777569 -0.09960598 -0.05393442
 -0.04242301  0.05064553 -0.02431774 -0.04231698]
[ 0.12115548  0.07079057  0.12861934  0.07677423 -0.11884132  0.12065661
 -0.12473177  0.11102819 -0.06255168  0.12193359 -0.13925253 -0.0283634
 -0.09781569  0.05785147 -0.10900857 -0.0580353 ]
[ 0.13068964  0.10812166  0.13745426  0.13792546 -0.09769829  0.10197941
 -0.07902478  0.11655977 -0.08975887  0.1394186  -0.0650901  -0.09545309
 -0.12280045  0.12373494 -0.06580257 -0.10179322]
[-0.02492522 -0.06734096 -0.03238748 -0.02191877  0.05080265 -0.01303427
  0.05021377 -0.01427201  0.03890859 -0.04703866  0.03427674  0.06964596
  0.08599381 -0.04090077  0.03991087  0.03929535]
[ 0.03755293  0.04642263  0.05264871  0.05196941 -0.10409013  0.05043925
 -0.0813009   0.08939816 -0.08645013  0.04005015 -0.10447495 -0.0797772
 -0.06127692  0.0302974  -0.04352561 -0.05587068]
[ 0.03086811  0.02620229  0.06311566  0.04656659 -0.07489341  0.0643395
 -0.04664766  0.08614219 -0.04823466  0.04331482 -0.09756421 -0.04456129
 -0.02582981 -0.0011109  -0.05286781 -0.03071733]
[ 0.09113959  0.11463156  0.04617952  0.07590262 -0.11219744  0.05507253
 -0.03580189  0.1199301  -0.12925485  0.06020079 -0.11197221 -0.11870694
 -0.05777711  0.10419174 -0.02233664 -0.12291009]
[ 0.06294338  0.1235668   0.10986274  0.15001702 -0.12882333  0.08602578
 -0.07720453  0.1291303  -0.12760882  0.1038028  -0.09954827 -0.13758753
 -0.06113007  0.12794732 -0.00541552 -0.06450383]
[ 0.17919673  0.19254556  0.1917245   0.16395462 -0.20557363  0.17697239
 -0.15339352  0.17480661 -0.19554622  0.19130692 -0.21711013 -0.17524073
 -0.18475394  0.10333129 -0.12814061 -0.14515656]
[ 0.21378294  0.24644743  0.18318938  0.20794676 -0.21127604  0.19132875
 -0.17169015  0.24215633 -0.19887166  0.19336022 -0.22468421 -0.20618907
 -0.18334821  0.19590689 -0.12763576 -0.15911682]
[ 0.01598084  0.02534991  0.02832289 -0.00502395 -0.03115444  0.02759606
 -0.01696989  0.02769802 -0.02826475 -0.01078845 -0.06086941 -0.01124659
  0.01848534 -0.0190562  -0.0325322  -0.00857213]
[-0.01799054 -0.00233135 -0.00190258 -0.03125524 -0.02343303  0.01974295
 -0.01423225  0.01096367 -0.0238706   0.00344278 -0.07358249  0.03001343
  0.04359812 -0.04892992  0.00556924  0.0452838 ]
[ 0.00212016 -0.0063686   0.0281586   0.00964313 -0.05053404  0.01308953
  0.00297327 -0.0076685   0.01040838  0.02645373  0.0048166  -0.01379747
 -0.01479574  0.00916562 -0.00478199 -0.00601047]
[ 0.24442953  0.22893725  0.22133142  0.24502757 -0.2387071   0.2148759
 -0.20540398  0.25096786 -0.22519478  0.19138063 -0.244689   -0.2224438
 -0.20309816  0.19443387 -0.19433264 -0.22389133]
[ 0.00708952  0.05232277  0.03313261  0.00949316 -0.07761207  0.00298356
 -0.00871934  0.03371206 -0.05394612  0.04942297 -0.06017073 -0.0538212
  0.01663673  0.02674164 -0.00248837 -0.03816919]
[ 0.08388549  0.1000383   0.06005272  0.07668816 -0.11106199  0.05849988
 -0.05195057  0.11756254 -0.14502443  0.08182216 -0.1286236  -0.1256034
 -0.04728002  0.06894413 -0.02241416 -0.07398353]
[-0.1184225  -0.07121655 -0.10182357 -0.0813164   0.03336312 -0.11351253
  0.11781171 -0.09293316  0.02112089 -0.08133043  0.09417538  0.00904682
  0.12048587 -0.0934259   0.1570119   0.07471982]
[ 0.03235541  0.08530196  0.04838938  0.06103693 -0.12098914  0.08943679
 -0.07936402  0.1503284  -0.15496384  0.05510997 -0.14570636 -0.0570871
 -0.00525154  0.09161139 -0.04813235 -0.03815176]
[ 0.08460777  0.05854929  0.0516536   0.05894711 -0.03967602  0.0479217
 -0.01401563  0.07694935 -0.05145412  0.03290173 -0.06681925 -0.05427988
 -0.0780962   0.05141875 -0.03512586 -0.09299403]
[ 0.03122656  0.02988787  0.04634838  0.01721151 -0.03529751  0.00835484
 -0.00565575 -0.00863776 -0.042188    0.03713949 -0.03472077 -0.01967616
 -0.01574576  0.00345608  0.01800325 -0.04659238]
[ 0.18391739  0.17174837  0.21560435  0.19922012 -0.17131206  0.17747313
 -0.13926679  0.17258584 -0.13945852  0.14881176 -0.15055278 -0.16139174
 -0.15532915  0.16272672 -0.14529164 -0.1559634 ]
[ 0.22410661  0.19077648  0.18358046  0.20116238 -0.16843662  0.22155143
 -0.2187477   0.1902437  -0.18120106  0.20245874 -0.17456315 -0.16408199
 -0.2108983   0.19242463 -0.24195558 -0.23990381]
[-0.01501121  0.0139712   0.02139759  0.00096413 -0.01551257 -0.01217154
  0.00335248 -0.00760629 -0.02808245 -0.01977293 -0.01375217 -0.0008089
  0.04357313 -0.00603156  0.0447108   0.02234685]
[ 0.10345117  0.07871159  0.09830941  0.04755539 -0.09757841  0.06802108
 -0.0634138   0.0800591  -0.06818751  0.06558856 -0.122803   -0.03682179
 -0.050051    0.04767428 -0.06429265 -0.06853253]
[ 0.21578224  0.16331801  0.1928202   0.15492399 -0.1918839   0.22522442
 -0.2198431   0.19505922 -0.18210125  0.1673983  -0.20859374 -0.11709378
 -0.16855077  0.14858519 -0.19524232 -0.14998317]
[ 0.05551941  0.05223278  0.04387671  0.03393702 -0.09252235  0.03298832
 -0.04147097  0.06505856 -0.09530917  0.06511062 -0.08542385 -0.09149534
 -0.02444777  0.02551986 -0.00630783 -0.0733484 ]
[ 0.05883722  0.12942736  0.08709436  0.09147457 -0.15150876  0.06142911
 -0.0729653   0.11006932 -0.1632511   0.06608312 -0.14341232 -0.16343063
 -0.04939462  0.09033807 -0.03384801 -0.08890493]
[ 0.05685416  0.04378796  0.06324282  0.04297393 -0.08002     0.03634974
 -0.07323075  0.04541891 -0.06312916  0.05543311 -0.09923796 -0.05097771
 -0.02687588  0.01663784 -0.03970474 -0.04500686]
[ 0.13539104  0.11529481  0.13628101  0.11637054 -0.04166878  0.09594451
 -0.04467473  0.04915773 -0.01823119  0.13251314 -0.03307796 -0.08503316
 -0.12473818  0.08644079 -0.07920403 -0.16015165]
[ 0.04483497  0.05862208  0.06051408  0.02547952 -0.05008121  0.04779753
 -0.04562131  0.05126442 -0.03792937  0.02152666 -0.08722344  0.00759829
 -0.01962645  0.01182861 -0.02206775 -0.03643237]
[ 0.1492768   0.12229649  0.17977452  0.13423759 -0.1017574   0.16916372
 -0.10687667  0.0969635  -0.10240445  0.16130073 -0.08199184 -0.11298724
 -0.13552779  0.13014111 -0.13441364 -0.10779955]
[ 0.37347093  0.34525788  0.37334073  0.40060917 -0.24909735  0.3094917
 -0.22828571  0.2565663  -0.2483667   0.35572568 -0.22339687 -0.31829917
 -0.38267967  0.3303935  -0.26779827 -0.3530359 ]
[ 0.10819992  0.11208992  0.11049923  0.08505873 -0.1425295   0.08099153
 -0.09313145  0.14059815 -0.11398837  0.10454769 -0.1377298  -0.1219752
 -0.10235842  0.10059288 -0.08391689 -0.09421324]
[ 0.14154218  0.10593215  0.15837975  0.14560384 -0.07070447  0.14632015
 -0.09062796  0.10805864 -0.06559039  0.13538072 -0.11673193 -0.0685008
 -0.19387303  0.13603339 -0.12644485 -0.15661415]
[ 0.04631438  0.03532523  0.05058772  0.05147437 -0.0323752   0.07101605
 -0.02230616  0.06164554 -0.06138776  0.04763344  0.00249469 -0.04592773
 -0.0411369   0.05272277 -0.01437424 -0.04043254]
[-0.10276484 -0.06039574 -0.08318043 -0.08029284  0.01464824 -0.08026718
  0.08191223 -0.06735504  0.01811256 -0.09476452  0.02008186  0.05386665
  0.12306549 -0.1035023   0.11007689  0.12501985]
[ 0.0207517   0.04489343  0.01660984  0.03163451 -0.09140711 -0.02361779
  0.01315896  0.05027173 -0.10690874  0.03147933 -0.09503847 -0.10850893
 -0.00537281  0.00333545  0.03950346 -0.05348732]
[-0.09613481 -0.11361516 -0.11407036 -0.11621013  0.10983356 -0.06974156
  0.09749266 -0.07086245  0.11332288 -0.09483708  0.12358815  0.12559654
  0.0894535  -0.12098485  0.06747804  0.11098117]
[ 0.06945818  0.0626496   0.06902335  0.11387172 -0.14960189  0.04413022
 -0.04120984  0.09898382 -0.09484801  0.07832396 -0.11238629 -0.1348454
 -0.06246094  0.07295752 -0.05755168 -0.04587403]
[ 0.26502642  0.18338677  0.26389238  0.21748751 -0.15256445  0.28178567
 -0.23213814  0.22145092 -0.1888249   0.26693654 -0.20041296 -0.16966479
 -0.24174115  0.22421615 -0.27940172 -0.235681  ]
[ 0.24747379  0.24088033  0.22179376  0.19066077 -0.24038047  0.26863262
 -0.24640389  0.26516372 -0.2413649   0.21462952 -0.2644929  -0.17906547
 -0.23931532  0.22191332 -0.24004176 -0.23598178]
[ 0.20871086  0.1626313   0.1910229   0.18413259 -0.1982641   0.16784656
 -0.20515911  0.2150116  -0.20068023  0.18598592 -0.23024264 -0.17505698
 -0.10534374  0.15508221 -0.13845566 -0.11760531]
[ 0.01143215  0.0359349  -0.00557259  0.00838558 -0.05530537  0.00171851
 -0.00787671  0.03208588 -0.0269224   0.01960631 -0.06039175 -0.0116584
  0.00080539  0.00317859  0.00844171  0.00017473]
[-0.01165211  0.00994881 -0.03181129 -0.0356484  -0.01964068 -0.01360513
  0.00394913  0.00675666 -0.01862241 -0.03808072 -0.04453484  0.0449559
  0.05268154 -0.0157844   0.03549833  0.03955512]
[ 0.08049786  0.12843293  0.09299245  0.11485527 -0.05268774  0.08521868
 -0.08253392  0.13985202 -0.10972954  0.09079464 -0.02404496 -0.06691281
 -0.1211887   0.11162066 -0.1291514  -0.11891725]
[ 0.34998384  0.31149653  0.33346936  0.3264279  -0.34385273  0.34371394
 -0.32043615  0.3208428  -0.32331717  0.33333442 -0.38088945 -0.30573928
 -0.30152404  0.27600744 -0.28385848 -0.3131409 ]
[ 0.10168823  0.10780083  0.06705964  0.08767938 -0.08125249  0.11127488
 -0.08684482  0.11756523 -0.08476716  0.11771425 -0.12417095 -0.05774937
 -0.0895509   0.09504832 -0.08025935 -0.08081843]
[ 0.10281865  0.11524068  0.08970931  0.0925679  -0.13393742  0.11506518
 -0.12027203  0.13705267 -0.13306747  0.09969399 -0.17062098 -0.08753039
 -0.06593809  0.07100733 -0.07188499 -0.0573675 ]
[-0.12282086 -0.10803802 -0.09176815 -0.12454401  0.0886449  -0.06830564
  0.02015178 -0.09305259  0.0814845  -0.08203714  0.06655397  0.12296183
  0.11356426 -0.12210625  0.03167729  0.09941808]
[-0.18737134 -0.10865255 -0.14885694 -0.15535168  0.03131217 -0.08595263
  0.12907906 -0.06027041 -0.01253598 -0.13836728  0.03456859  0.06796913
  0.19619483 -0.14501417  0.15864468  0.18058322]
[ 0.10653199  0.02046183  0.05617808  0.06984747 -0.03864458 -0.00118253
  0.08166794 -0.02053033 -0.02283154  0.03950523 -0.03911869 -0.05547395
 -0.11384676  0.01024158  0.01607324 -0.10218433]
[-0.03324317 -0.03041196 -0.01460891 -0.03263128 -0.01902544 -0.01812323
 -0.00512857 -0.0133978   0.00430308 -0.01116426 -0.00155296  0.00369626
  0.03403729 -0.06025573  0.03810799  0.02634797]
[ 0.09731196  0.08707942  0.119264    0.06154006 -0.11899345  0.15996036
 -0.13879368  0.11247959 -0.1700986   0.11217542 -0.12966624 -0.09218844
 -0.03998369  0.08510383 -0.11921468 -0.03382343]
[ 0.10080559  0.15195958  0.10546982  0.163013   -0.00730321  0.02960972
  0.01723409  0.04403436 -0.05169361  0.09157009  0.01618593 -0.13563344
 -0.18105455  0.1412676  -0.04660102 -0.18820874]
[-0.01433553 -0.0054485  -0.02318822 -0.02243515 -0.00668965  0.04124202
 -0.0445475  -0.00294095 -0.00402017 -0.010334   -0.03633251  0.03090687
  0.06131473 -0.03682239 -0.00543466  0.04227368]
[ 0.02841529  0.01840421  0.01969108  0.00423513 -0.04965929  0.0161696
 -0.00806001 -0.00672031 -0.01290742  0.01478225 -0.05685939 -0.04145953
  0.01550291 -0.03517717 -0.00685881 -0.01451223]
[ 0.24407712  0.24194771  0.19009967  0.27181622 -0.18900023  0.08954109
 -0.13023418  0.14457773 -0.1688311   0.13870591 -0.25684065 -0.20358798
 -0.25173378  0.17304243 -0.12337478 -0.23927082]
[-0.07671254 -0.02905129 -0.03871711 -0.03598323 -0.05735566 -0.06065293
  0.05368531  0.00674229 -0.05237742 -0.05724183 -0.02116461 -0.00638604
  0.13839751 -0.08019735  0.0404667   0.09612176]
[-0.0333223  -0.00361684 -0.03753741 -0.02700881 -0.05862341  0.00034294
 -0.00773596  0.04785636 -0.03394752  0.01216218 -0.04430509 -0.02023267
  0.06846173  0.0126497   0.01974128  0.03429339]
[ 0.21229735  0.17360346  0.20830534  0.18571231 -0.155528    0.15211761
 -0.14976652  0.1595157  -0.14643519  0.1626581  -0.18332087 -0.1701388
 -0.17882454  0.12737332 -0.14245048 -0.1793697 ]
[-0.02185446 -0.03334531 -0.01295566 -0.0258929   0.02471065 -0.01200351
  0.00863047 -0.03873115  0.01643977  0.01784101  0.02353037  0.01034911
  0.00295958 -0.02743794  0.02718578  0.04392613]
[ 0.0560913   0.05705729  0.07645074  0.04870389 -0.12533714  0.03512792
 -0.04021348  0.05729479 -0.09084741  0.03775883 -0.11025698 -0.08206245
 -0.03012848  0.02293866 -0.00209544 -0.03516037]
[ 0.10112646  0.12026327  0.12735188  0.10834523 -0.06000164  0.10576059
 -0.14810807  0.11426962 -0.1098097   0.13223428 -0.02996286 -0.10840948
 -0.18246764  0.15120274 -0.1600107  -0.14600135]
[ 0.31024566  0.3063608   0.2734978   0.28723454 -0.21981609  0.31256697
 -0.25437748  0.28767443 -0.29131433  0.33478358 -0.19130985 -0.2673374
 -0.3261317   0.3628363  -0.27720928 -0.2989297 ]
[ 0.0453946   0.04343291  0.05154895  0.0512431  -0.07319097  0.0005825
 -0.0042059   0.05363914 -0.06375601  0.06443021 -0.10638337 -0.06100401
 -0.03575956  0.0437834   0.01702071 -0.05792863]
[ 0.12593746  0.13564552  0.12608565  0.14037196 -0.14219046  0.12828603
 -0.10056631  0.14079477 -0.1509615   0.1345861  -0.1185516  -0.19090296
 -0.14426562  0.13397473 -0.11456335 -0.14762406]
[-0.05760818 -0.06407901 -0.03619418 -0.03825068  0.04060598 -0.04507029
  0.04921017 -0.05505434  0.03116676 -0.02908929  0.07500519  0.03581026
  0.05376523 -0.04298699  0.03890245  0.06421402]
[-0.07825819 -0.06682061 -0.07192806 -0.10084195  0.04378082 -0.00909068
  0.03139085 -0.01102998  0.0185851  -0.05425319  0.01844246  0.059252
  0.11544992 -0.07344141  0.04335403  0.09111135]
[-0.05087862 -0.0591196  -0.05564568 -0.07844439 -0.03144838 -0.06594005
  0.06572669 -0.04802112 -0.0067524  -0.01760845 -0.00971875  0.01242389
  0.09173498 -0.05821348  0.07480168  0.0595811 ]
[ 0.09278069  0.03595857  0.06650394  0.08184323  0.01567277  0.0704263
  0.01376806  0.00971647  0.030413    0.09681555  0.03230064 -0.07369322
 -0.17349981  0.04093372 -0.04681706 -0.13784216]
[ 0.03107808  0.0579274   0.03888408  0.00563364 -0.04278769  0.06223262
  0.01419474  0.0919017  -0.10440931  0.10020488 -0.040409   -0.10111389
 -0.02316114  0.07544067 -0.00436214 -0.10788175]
[ 0.19573508  0.26300552  0.21088727  0.3113876  -0.14699253  0.09904182
 -0.12204933  0.17560643 -0.15710373  0.15896207 -0.14100301 -0.25062954
 -0.24254166  0.18022111 -0.10949212 -0.23372489]
[ 0.20803577  0.22432627  0.19020668  0.2444203  -0.15764794  0.13016398
 -0.10638866  0.13940144 -0.14648828  0.16791412 -0.15569632 -0.20719011
 -0.22602284  0.16620818 -0.13892575 -0.2716893 ]
[-0.06384562 -0.02369353 -0.070791   -0.06045087 -0.0627536  -0.0687658
  0.05030242  0.04020862 -0.02157496 -0.06241268 -0.05853525 -0.00494549
  0.0934525  -0.00818958  0.08153494  0.0825936 ]
[-0.07626331 -0.0719176  -0.0784305  -0.06631048  0.03992052 -0.04524647
  0.08353619 -0.05681016  0.01980888 -0.04802568  0.03853336  0.07165392
  0.10507388 -0.07400128  0.07253159  0.10874274]
[-0.01966421 -0.04618327 -0.02985183 -0.04489796 -0.02455866 -0.01823304
  0.01337075 -0.01517746 -0.00747427 -0.05857801 -0.02057153  0.02315506
  0.07455981 -0.08124448  0.0314533   0.06964551]
[ 0.21217784  0.23126362  0.16303305  0.19955891 -0.1675924   0.16743031
 -0.1719871   0.23043427 -0.17795114  0.21977383 -0.13370107 -0.1802607
 -0.22023363  0.259016   -0.17176756 -0.19775964]
[ 0.3719849   0.2942531   0.31687376  0.3167779  -0.29843152  0.32453397
 -0.31390387  0.30773726 -0.29621994  0.30195755 -0.3357906  -0.28871852
 -0.29829228  0.29581916 -0.31355634 -0.30767685]
[ 0.22805525  0.21366818  0.19244686  0.2261171  -0.15787587  0.07541519
 -0.0642867   0.12622955 -0.10176001  0.17619993 -0.19021179 -0.16878301
 -0.22626597  0.13332017 -0.08011936 -0.2524169 ]
[ 0.23101711  0.20176195  0.18951432  0.24003321 -0.20975941  0.13125412
 -0.13598783  0.1860828  -0.16553748  0.18314303 -0.27186292 -0.20357995
 -0.2287361   0.1878173  -0.12417344 -0.26588574]
[ 0.11236017  0.12389656  0.06630033  0.15828454 -0.02977996 -0.00535249
 -0.00196655  0.03993714 -0.04084897  0.04687035 -0.09438907 -0.08807451
 -0.13400869  0.08817921 -0.01365169 -0.13807945]
[-3.3207800e-02 -3.1926360e-02 -4.3379169e-02 -2.5427151e-02
 -1.7582182e-02 -6.9349207e-02  6.0249854e-02 -6.8742549e-05
 -4.6375683e-03 -6.3275062e-02 -4.1036084e-02 -8.2190055e-03
  7.3429562e-02 -7.0378751e-02  6.7743450e-02  3.0770052e-02]
[ 0.00084591 -0.00423201  0.00716505 -0.01133411 -0.06071184 -0.00090777
  0.02954405  0.01006914 -0.0623763   0.01967962 -0.03715846 -0.0699128
  0.02704792  0.00140277  0.00974078  0.01789542]
[ 0.02454788  0.05236906  0.01205797  0.01465185 -0.04201962  0.04247798
 -0.03613612  0.05781685 -0.07327478  0.03156612 -0.08599205 -0.03906725
  0.01996855  0.03245436 -0.00278881 -0.02927123]
[ 0.06413594  0.22172655  0.12494648  0.17069817 -0.1213714   0.14546463
 -0.1920785   0.17988995 -0.1523898   0.10401051 -0.15618108 -0.14473318
 -0.14139716  0.15543923 -0.16766533 -0.10413637]
[ 0.06961183  0.07577799  0.07946353  0.04384347 -0.07253355  0.09304113
 -0.04533185  0.09911102 -0.13663034  0.12001015 -0.04505886 -0.09247427
 -0.08455564  0.13429052 -0.06396703 -0.04577962]
[ 0.03567407  0.03734369  0.02327941  0.06895321  0.00383302  0.03514438
 -0.01080877  0.00886    -0.03114903 -0.00356927 -0.0447927   0.00681085
  0.00505524 -0.00833337 -0.00022283  0.01620301]
[-0.04019151 -0.01749579 -0.03974349 -0.02965861 -0.050776    0.05126446
 -0.0086264   0.03379931 -0.03767852 -0.00192514 -0.03059623  0.00899849
  0.04963068 -0.00605091 -0.01415525  0.06056609]
[ 0.1086304   0.10156231  0.08657297  0.05851514 -0.1525779   0.16451097
 -0.11806041  0.16983633 -0.14193971  0.12978433 -0.1622767  -0.12959713
 -0.03670564  0.12583202 -0.1173239  -0.07487924]
[-0.0462747   0.01954603 -0.00876915 -0.04004562 -0.01932446  0.01096244
 -0.02360199  0.03056478 -0.01348272 -0.02045553 -0.02722168  0.0495856
  0.04866646 -0.02633971 -0.00910991  0.04077167]
[-0.04078059 -0.00146944 -0.0425413  -0.00192573 -0.01119998 -0.0303979
  0.00877023  0.03368143 -0.03308364 -0.03839805 -0.01550731  0.02555227
  0.0458733  -0.0341146   0.02968039  0.0554395 ]
[ 0.11591861  0.08707975  0.10259603  0.09596021 -0.08745754  0.10090973
 -0.10979995  0.09947357 -0.08011989  0.09640494 -0.11889996 -0.09141852
 -0.07939154  0.07140949 -0.0940689  -0.08120477]
[-0.02143076  0.02295731  0.00656773  0.00060362  0.04179521  0.00269143
  0.01102826  0.04195257 -0.05054742 -0.01455977  0.01309115 -0.00919338
  0.04348516  0.01413835  0.03207948  0.03818111]
[ 0.04106301  0.01513522  0.02421418  0.00545949 -0.07781415  0.02961489
 -0.05057014  0.0563794  -0.05651531  0.01991302 -0.07965904 -0.05016232
  0.03258945 -0.00413975 -0.03485484  0.01689857]
[ 0.08536565  0.17980304  0.10336726  0.15405385 -0.09481678  0.14479543
 -0.15105076  0.15917923 -0.11732227  0.09397733 -0.09792354 -0.12014047
 -0.1581568   0.19304974 -0.1319589  -0.12671179]
[ 0.14063643  0.24332638  0.16686706  0.22527738 -0.13321006  0.14700483
 -0.14473405  0.1672156  -0.17601924  0.17884329 -0.15022774 -0.202654
 -0.18244828  0.1841911  -0.16381551 -0.1479119 ]
[ 0.00179722 -0.01469349 -0.01217767  0.00146249 -0.0305954  -0.03340951
  0.01866352  0.03677052 -0.00776992 -0.01936888 -0.03534958  0.01197514
  0.05625146 -0.00043024  0.04092409  0.0366617 ]
[ 0.05716588  0.07873466  0.05539702  0.04818767 -0.14020142  0.12931412
 -0.12237246  0.15058571 -0.16018888  0.10688904 -0.09488486 -0.1447902
 -0.01916003  0.09901462 -0.10263164 -0.06928167]
[-0.07889177 -0.0751303  -0.11473081 -0.06678354  0.09477258 -0.07509062
  0.05759277 -0.0891581   0.06146837 -0.0829446   0.09489672  0.09080116
  0.06581867 -0.04801986  0.0825772   0.0858397 ]
[ 0.03792881  0.07755817  0.06546856  0.09654116 -0.00577025  0.00274828
 -0.0349827   0.01931497 -0.00132856 -0.00494711 -0.04250103  0.04592864
 -0.08005513  0.00887336 -0.0135886  -0.02671413]
[-0.01140838 -0.00193581  0.00110604 -0.03729425 -0.01334557 -0.04149894
  0.05174846 -0.00113961  0.0075119  -0.02999142 -0.05194233 -0.01312575
  0.03235517 -0.06329331  0.04687848 -0.02098406]
[ 0.05785225  0.03840734  0.04254459  0.0272996  -0.06814948  0.07481132
 -0.04888463  0.08439957 -0.0758154   0.07908691 -0.09797909 -0.10205086
 -0.047211    0.05741524 -0.05277822 -0.05158088]
[ 0.09822828  0.11956694  0.09394824  0.139548   -0.08333922  0.05819074
 -0.09021941  0.06769074 -0.06033874  0.05919329 -0.10308048 -0.0561319
 -0.11106566  0.04994303 -0.10015392 -0.08350891]
[ 0.10373421  0.04953147  0.05929822  0.04739811 -0.10726148  0.14074723
 -0.07771881  0.12453833 -0.1349892   0.16025546 -0.09104764 -0.08440727
 -0.08256505  0.12945811 -0.09967472 -0.06260931]
[ 0.12844755  0.17817226  0.12823328  0.1333749  -0.1906126   0.21886103
 -0.1772621   0.23789607 -0.19779722  0.19963737 -0.13450438 -0.18056569
 -0.1143494   0.19974051 -0.19765635 -0.08914682]
[-0.02039834 -0.01201437 -0.02321925 -0.05816439 -0.05208842  0.00212785
  0.0015428   0.05024309 -0.03717912 -0.01959045 -0.02797184  0.01108366
  0.04139027 -0.01423416  0.0076437   0.03202872]
[-0.05552554 -0.05378583 -0.05129699 -0.07302056  0.04899387 -0.03864986
  0.04297002 -0.03658803  0.04323106 -0.05096956  0.03825407  0.05286454
  0.0990684  -0.06450105  0.07707887  0.08061711]
[-0.05466829 -0.05170019 -0.05193698 -0.0505433  -0.01075048 -0.02855015
  0.03430159 -0.03774844  0.01712439 -0.05366079 -0.02466844  0.05858112
  0.11211879 -0.06796826  0.04195827  0.08194882]
[ 0.11621128  0.08275522  0.13192607  0.10060027 -0.09109264  0.05467928
 -0.01880758  0.06976215 -0.07891034  0.10672365 -0.07665792 -0.09381471
 -0.09663586  0.10049301 -0.03604893 -0.09372295]
[ 0.25005642  0.31413     0.25475085  0.28881076 -0.25380915  0.23322247
 -0.2430692   0.27456123 -0.22892027  0.21713293 -0.29682374 -0.28901094
 -0.26040548  0.2640328  -0.24011786 -0.26653084]
[ 0.05699309  0.06600563  0.06751407  0.02417466 -0.08520819  0.04729469
 -0.03434528  0.08524818 -0.05592726  0.071023   -0.06677648 -0.06270424
 -0.03520925  0.06248164 -0.04451303 -0.03785026]
[ 0.11510699  0.12311997  0.12421348  0.09357909 -0.14356828  0.09314889
 -0.09430642  0.10025113 -0.12793447  0.1080379  -0.19102967 -0.11910699
 -0.10921662  0.11290762 -0.06155568 -0.10470015]
[ 0.09192505  0.02104578  0.05545742  0.04707555 -0.10445105  0.0860654
 -0.03587023  0.04281646 -0.03946277  0.08692241 -0.07837291 -0.04036416
 -0.02770965  0.06934899 -0.05492509 -0.04585817]
[-0.10082696 -0.16108607 -0.09280138 -0.11394132  0.07738531 -0.15351656
  0.15353903 -0.12976097  0.09856829 -0.11784428  0.01676413  0.11428039
  0.08296519 -0.1434551   0.11297093  0.10062403]
[ 0.00636962 -0.01641343 -0.01335372  0.004966    0.05390882 -0.04950364
 -0.00297681 -0.01678152  0.02012388 -0.02866571 -0.01393296 -0.00268121
 -0.00938385 -0.02227412  0.0051964  -0.00857215]
[-0.03041681  0.00397106 -0.00721559 -0.00614171 -0.03657714 -0.01972294
  0.0016165   0.00967984 -0.02452935 -0.02724922 -0.06796104  0.04621134
  0.06352044 -0.06889703  0.02280569  0.04488065]
[-0.00434858 -0.00334371  0.02250845  0.03070982 -0.15199122  0.06303603
 -0.09384745  0.13127296 -0.09037182  0.01231889 -0.10381632  0.01261449
  0.03774377 -0.00046098 -0.08238544  0.05937824]
[ 0.01618987  0.06889606  0.01209362  0.03088989  0.01428493 -0.02832975
 -0.01479276  0.04048304 -0.00330142  0.00052089 -0.00348185 -0.04897324
 -0.04438477  0.00724738 -0.00416263 -0.04875734]
[ 0.01474289 -0.02260481  0.00398387 -0.00359213 -0.03453286 -0.00524701
 -0.00725198 -0.00762809 -0.01115086 -0.01221655 -0.05977115  0.00857034
  0.02230927 -0.01622546  0.01233037  0.01762285]
[-0.03090956  0.00998178 -0.01604639 -0.01016958 -0.01805055 -0.03301746
  0.04004133 -0.0149485   0.01673312 -0.01866862 -0.02642559  0.0058458
  0.05745342 -0.05387412  0.03361978  0.03022576]
[ 0.03676665  0.03440988  0.01940525  0.04478204 -0.04676813 -0.01671821
 -0.00562899  0.04046449 -0.02638926 -0.02104204 -0.09484702 -0.038275
 -0.01683183 -0.02326383  0.02522331 -0.00792085]
[-0.08208253 -0.06662862 -0.06342542 -0.06945875  0.04655472 -0.03533609
  0.04660546 -0.03018129  0.05530093 -0.07412042  0.07379264  0.10773433
  0.07551108 -0.09094219  0.04625467  0.08147393]
[ 0.00990984 -0.0469315   0.00569805 -0.02491272  0.0159176  -0.0062067
  0.01307451 -0.01926802  0.01477069 -0.04017048  0.0107721   0.03388972
  0.05606037 -0.03718355  0.01961408  0.03629941]
[ 0.04387505  0.09200726  0.04436284  0.08128587 -0.0866689   0.07545903
 -0.09806193  0.09115618 -0.08850409  0.040103   -0.11010191 -0.06834192
 -0.05127254  0.0658296  -0.05168848 -0.04817189]
[-0.0250709   0.00665654 -0.01853372 -0.04528806  0.06398268 -0.10320272
  0.01821301 -0.05107448  0.03037341 -0.01126649 -0.03220936  0.00321602
  0.00180094 -0.02733961  0.08111316  0.01599799]
[ 0.01893579  0.0481251   0.03843681  0.03114166 -0.07979953  0.01944122
 -0.03437244  0.06183419 -0.08105246  0.00037295 -0.09184762 -0.02454321
 -0.00743149  0.01488627 -0.00251473  0.01408541]
[ 0.00056406  0.03294959 -0.01004663  0.02152678 -0.03887201  0.00175621
 -0.01121439  0.0061308  -0.04946656  0.03336838 -0.05479394 -0.04010098
 -0.02553208  0.05391308  0.00082749 -0.02787179]
[ 0.04250019  0.01742471  0.03499681  0.05380247 -0.00735601  0.0323019
 -0.04261705  0.01836344  0.00874076  0.02598055 -0.03160281 -0.02401685
 -0.0414608   0.04017405 -0.07487421 -0.00711717]
[-0.03325212 -0.04565019 -0.04307779 -0.00801794  0.03753942 -0.07554652
  0.05714479 -0.02717548  0.04675541 -0.05911746  0.01226241  0.02588041
  0.06409066 -0.06897707  0.06548338  0.04601657]
[-0.00468795  0.03779154  0.01046455  0.02543274 -0.02086964 -0.09046134
  0.02335379  0.00326349 -0.00939023 -0.02602547 -0.09278192 -0.01592188
  0.01865352 -0.020666    0.06100769 -0.03007312]
[-0.12014066 -0.14915189 -0.1173199  -0.10410233  0.07227039 -0.14677216
  0.08198495 -0.11360849  0.10207587 -0.12881137  0.03456447  0.14306849
  0.11806535 -0.09626761  0.11787742  0.11458495]
[ 0.08765034 -0.04067613  0.04405841  0.02660784 -0.09267374  0.09814615
 -0.05462072  0.03431487 -0.07532838  0.01823327 -0.08539172  0.00249299
  0.02346511  0.02256751 -0.06937788 -0.01621568]
[ 0.00848011 -0.01132701  0.01044137  0.00971077  0.00196105  0.00022899
 -0.00095512  0.00756601  0.01421944  0.01174719 -0.06548757 -0.00949212
 -0.01203103  0.00746625  0.01890269 -0.00638257]
[ 0.04326992  0.08585612  0.05281558  0.09073543 -0.03627876  0.06063523
 -0.093637    0.12254059 -0.08991588  0.05049033 -0.08772924 -0.09753053
 -0.05685785  0.06647328 -0.0404781  -0.09569821]
[ 0.02189288 -0.0269332  -0.02604846  0.00595805 -0.03032993  0.00462214
 -0.01223383  0.02965638  0.00270484 -0.00850791  0.00546014 -0.02737104
  0.02169882 -0.03079052 -0.02119303  0.00637186]
[ 0.04181772  0.06274527  0.07589988  0.11382418 -0.08213615  0.03900231
 -0.12626274  0.08461679 -0.05518704  0.01059899 -0.15195952 -0.00486711
 -0.07450025 -0.00035044 -0.07673243 -0.00925512]
[ 0.0296375   0.0781877   0.02799363  0.08780962 -0.03805819 -0.00276598
 -0.02105043  0.04585736 -0.02003204  0.03462671 -0.07590588 -0.04792158
 -0.0423479   0.03341643  0.00655117 -0.05121638]
[-0.0960333  -0.08601498 -0.07959645 -0.11423202  0.07816408 -0.10154417
  0.06724372 -0.05360606  0.02276611 -0.08555502  0.01812329  0.05694137
  0.05882141 -0.0754469   0.10466561  0.06302822]
[-0.01013352 -0.00678919 -0.00172023  0.00036869  0.01091591 -0.05340197
  0.02895082 -0.01314891  0.03916457 -0.03486642  0.0297802  -0.00742987
  0.0447171  -0.0412704   0.016455    0.01421772]
[-0.04276213 -0.02386204 -0.01333656 -0.02271991 -0.01030912 -0.03231023
  0.0469366  -0.0251235   0.01169769 -0.04170384 -0.02934976  0.05707711
  0.06471679 -0.06612351  0.03656363  0.07226457]
[ 0.05108108 -0.0082778   0.01809659  0.00330602  0.07317472 -0.01134973
  0.00124757 -0.02022729  0.03589421 -0.00719702  0.06375518 -0.01178371
 -0.030192   -0.01415062  0.00840748 -0.01865979]
[ 0.05695587  0.03711751  0.0583408   0.08869348 -0.10491435  0.05456116
 -0.07625161  0.1370023  -0.10275754  0.04024483 -0.13861719 -0.0608288
 -0.01143199  0.03528672 -0.09006028  0.00033483]
[ 0.03442425  0.0625696   0.04265894  0.07135375  0.04916725 -0.00298858
 -0.03532454  0.02308297 -0.01041814  0.01910251 -0.04801725 -0.06014501
 -0.05566632  0.03086377  0.01563592 -0.04192756]
[ 0.04809156  0.05153469  0.07499653  0.07717372 -0.09648596  0.07451349
 -0.13327067  0.07835694 -0.08755957  0.00808325 -0.15026635 -0.06017153
 -0.05950763  0.02864319 -0.07416797 -0.04899755]
[ 0.10118285  0.16270255  0.09593877  0.15284607 -0.13695014  0.17409852
 -0.1686438   0.13889475 -0.16079782  0.09092678 -0.16961522 -0.15501666
 -0.10457865  0.11324414 -0.11562371 -0.11003013]
[-0.00491679  0.00322241  0.01202266 -0.03453554  0.01721776 -0.03325073
  0.01937931  0.00711057  0.00615927  0.0099438   0.02911662 -0.00813983
 -0.00061133  0.00308859 -0.0048315  -0.01302394]
[-0.01912138 -0.04404367 -0.01697407 -0.02752349  0.04942179 -0.00386756
  0.04996634 -0.03947254  0.08119839 -0.05013167  0.04678877  0.03274677
  0.05474369 -0.07049777  0.0149648   0.03254039]
[-0.03512761 -0.04999548 -0.02014909 -0.06171649  0.10379508 -0.00065945
  0.00652558 -0.06399774  0.04106241 -0.08468249  0.00214152  0.05059072
  0.0366238  -0.08960433  0.06250712  0.04876756]
[-0.04336455 -0.05240547 -0.05589485 -0.03292805  0.02308224 -0.0568408
  0.03323122 -0.0533292   0.04863692 -0.0537561  -0.02121209  0.0468362
  0.03979595 -0.04454419  0.04514841  0.03942181]
[-0.01705894  0.03366891 -0.00242166 -0.02857856  0.01735121 -0.02069155
  0.02505977 -0.00749114 -0.00343832  0.01353853  0.00727302 -0.04854709
 -0.00942379  0.0371633   0.00795985 -0.03383131]
[-0.04781366 -0.05769197 -0.05100268 -0.07433198  0.07486972 -0.03659868
  0.00773553 -0.02132685  0.04487007 -0.03561725  0.04535554  0.05035068
  0.06116539 -0.04434785  0.0307703   0.06261739]
[-0.05779644 -0.02349669 -0.06347442 -0.04798196 -0.00892744 -0.03025152
  0.01987793 -0.04512289  0.01360448 -0.02943537 -0.02495473  0.0429246
  0.05998728 -0.03957235  0.04670969  0.05956223]
[-0.01385245 -0.03215587 -0.01516295 -0.05137274  0.04170171  0.02434
 -0.02376266 -0.03887491  0.00894857 -0.04744298 -0.05141597  0.03657034
  0.0126364  -0.04990307  0.05481117  0.01833979]
[ 0.06715631  0.06853152  0.06977053  0.0862551  -0.13995475  0.1006554
 -0.09931374  0.08270177 -0.10121913  0.00115888 -0.12076893 -0.07207625
 -0.0409169   0.05709696 -0.07782327 -0.04269628]
[ 0.03572607  0.05717975  0.04813764  0.05807596 -0.07517976  0.04938537
 -0.04478187  0.08234347 -0.07151418  0.038106   -0.03043815 -0.04646843
 -0.02317365  0.02354578 -0.0949993  -0.01038724]
[-0.03239698 -0.00133739 -0.03848194 -0.05380692  0.0451399  -0.04850633
  0.02076095 -0.03114738  0.01154038 -0.0314321  -0.01473662  0.01576237
  0.05423548 -0.00746264  0.05274345  0.02954318]
[-0.03487845 -0.03892842 -0.00775318 -0.03628707  0.06594697 -0.0306106
  0.02844785 -0.02354386  0.02875026 -0.01354165  0.0583191   0.00867389
  0.03965565 -0.03904421  0.02346887  0.04670428]
[ 0.00310059 -0.00246868  0.0047533   0.01813664 -0.06438088  0.00288146
 -0.00851879 -0.00925383 -0.05348163 -0.03546854 -0.08844346  0.04223442
  0.04882895 -0.06473032  0.01903532  0.03693161]
[-0.0194193   0.02731198 -0.05087651 -0.05852462  0.07598002 -0.08895461
  0.04279087 -0.01586605  0.03652344 -0.01555852  0.06157857 -0.00988659
  0.00596179  0.00760361  0.05553805 -0.02184946]
[-0.07310073 -0.08848667 -0.06087667 -0.07038128  0.09954688 -0.06840155
  0.04635513 -0.08353581  0.10945775 -0.07763085  0.08008348  0.08423391
  0.08945538 -0.07717763  0.0823998   0.10460252]
[ 0.00414099  0.00841139 -0.0149048   0.01621002 -0.0039055   0.0099786
  0.0112165   0.02156735  0.00718875  0.04355159  0.04489519 -0.0231437
 -0.01136573 -0.00011204 -0.03294658 -0.01997503]
[-0.02770302 -0.02263761 -0.01105127 -0.04102621  0.02986411 -0.03079362
 -0.02284973 -0.00756831  0.04929715 -0.02670247 -0.02088384  0.0269478
  0.0204643  -0.06573376 -0.00612356  0.03434597]
[-0.06541292 -0.06587543 -0.04957925 -0.05422581  0.09297676 -0.07609825
  0.02697127 -0.05543948  0.04962103 -0.06299282  0.04798256  0.06993687
  0.0711555  -0.04539633  0.04833516  0.04258658]
[ 7.1720229e-03  9.8452363e-03 -6.5318527e-05 -1.0646078e-02
  1.5858490e-02 -3.5095282e-02 -2.2519253e-02  7.1472060e-03
 -1.6330048e-02 -4.8725128e-02 -2.5040289e-02  3.6283273e-02
  3.7979592e-02 -3.7501384e-02  5.5945806e-02  4.4122647e-02]
[-0.00906833  0.00268875 -0.00942542  0.02203339 -0.01486596  0.01658283
 -0.01950854  0.01117269 -0.00913486  0.02646872 -0.0049448  -0.0199369
 -0.00780176 -0.00804835 -0.01824909  0.01125992]
[-1.4495467e-02 -2.9479243e-02 -6.9991496e-05  2.0714352e-02
  9.3617458e-03  3.3866059e-02 -3.1096322e-02  1.1981193e-02
  8.2284221e-03  1.0581351e-02 -4.6508592e-02  2.3138087e-02
  8.4198397e-03 -9.3343807e-03  1.3166862e-02  1.6882164e-02]
[ 0.07904732  0.04350113  0.1042415   0.11290514 -0.14145082  0.09172027
 -0.12765095  0.09810632 -0.10137052  0.02967705 -0.17585893 -0.02648288
 -0.05629166  0.03748004 -0.06236626 -0.06140359]
[ 0.00484627 -0.00684038  0.01473271  0.00463653  0.04885853  0.03450538
 -0.06724151 -0.02573792  0.01944419 -0.0247479   0.00343508 -0.0120896
  0.00104149 -0.02182001  0.01602842  0.02559572]
[ 0.03687691  0.01143578  0.02721177  0.00745624  0.03504273  0.04598049
 -0.02326084 -0.0068634  -0.01160282  0.03300185 -0.01421063 -0.04475109
 -0.04435215  0.02542702 -0.01515033 -0.04781374]
[-0.0298417  -0.0303079  -0.00067814  0.01380269  0.07025228  0.05615006
 -0.03284008 -0.03351049  0.05174062 -0.01810444 -0.01079826 -0.00700236
  0.00930476 -0.01788659 -0.01919089  0.00922912]
[-0.04691002 -0.04412112 -0.06180254 -0.03537139  0.00356163 -0.03711802
  0.02163797 -0.03446488  0.01724935 -0.03211149  0.03773826  0.0712412
  0.04288138 -0.01591858  0.02810891  0.07313835]
[-0.05416658 -0.04207904 -0.04343591 -0.03377589 -0.0154704  -0.00971857
 -0.00481536 -0.02886251 -0.00697648 -0.05877722 -0.04606795  0.08480236
  0.09573655 -0.08815812  0.04767917  0.10742906]
[ 0.01710673  0.04538074  0.04932471  0.0790695  -0.0287689   0.07714871
 -0.05965752  0.04458938 -0.02049932  0.03988217 -0.0214761  -0.02902295
 -0.04240022  0.03185113 -0.10597815 -0.03018864]
[ 0.02926869 -0.01962275  0.05633957  0.02908253  0.00399473  0.06100845
 -0.08380074 -0.02877173  0.02450335 -0.01016011 -0.07556035 -0.01366925
 -0.04195867 -0.00369187 -0.01899052  0.00734059]
[-0.00667074 -0.00935135  0.03014704  0.01933565  0.0375792   0.03846566
 -0.01089659  0.01447818  0.01521841  0.01758738  0.01295276 -0.0164951
 -0.01282357  0.00754244 -0.03183836 -0.01611497]
[ 0.00188524 -0.00548568 -0.02022019 -0.02739879  0.02329904 -0.02230377
 -0.02807768 -0.00604766  0.03036727 -0.01751582  0.00943996  0.00275451
  0.00066028 -0.00707151 -0.00374945  0.01128572]
[ 0.03988297 -0.02106672  0.0406243   0.00882415  0.00978688 -0.00313606
 -0.03624413 -0.0302604   0.0009772  -0.03006248 -0.03513939 -0.03278653
  0.0032876  -0.02771106  0.04661978 -0.0178907 ]
[-0.05516211 -0.00220579 -0.03817604 -0.01926132 -0.00226729  0.00199352
  0.01981171  0.00328427 -0.03362856  0.0234614   0.01747102 -0.00332708
  0.0214514   0.03295387 -0.00252136  0.00824404]
[ 0.03133784  0.01752798  0.03622308  0.00257375  0.02796544  0.0024445
  0.02645952 -0.02114674  0.01967822  0.01692801  0.0380487   0.0133329
  0.00200023 -0.01846437 -0.02459156 -0.02039799]
[ 0.00024312 -0.04140776  0.00294846 -0.00862889  0.09803946  0.0171227
 -0.01536846 -0.03325067  0.04080246  0.00073587  0.01036746  0.00539384
  0.00919577 -0.04675542  0.02225137 -0.00449132]
[ 0.03856243  0.04300982  0.02700248  0.0160783  -0.03449527 -0.01776509
  0.00938072  0.02572115 -0.00721308  0.04749594 -0.02609474 -0.02476686
 -0.03595954  0.04681993 -0.00804503 -0.05095666]
[-0.05079335  0.00138011 -0.04940344 -0.00891523 -0.02233459 -0.05074993
  0.02403921 -0.01393121 -0.01317107  0.00552576 -0.00704914 -0.00214265
  0.02661469  0.02710029 -0.00258663 -0.01680445]
[-0.0448207  -0.0217658  -0.0805563  -0.04109653  0.08326259  0.00670972
  0.0123146  -0.04404723  0.05966564 -0.03651278  0.04317567  0.02399287
  0.04064731 -0.03011024  0.05482094  0.05004579]
[-0.06887336 -0.01686914 -0.04659256 -0.05279933  0.04001119 -0.05127086
  0.065587   -0.02934498  0.06135495 -0.01303431  0.04133185  0.01989502
  0.03359105 -0.04302916  0.0374712   0.02689952]
[ 0.01036017  0.00951879  0.02050946  0.01837331  0.03279869 -0.00926387
 -0.00463698  0.0017931   0.0331836   0.01613693  0.01032691  0.00825688
  0.0031035  -0.00663825  0.01242045  0.00010515]
[ 0.04339194  0.01102073  0.05111697  0.03660347 -0.03893773  0.02361261
 -0.03249903  0.02272773 -0.00137034  0.01468611 -0.04055292  0.00256777
  0.01380324 -0.0103897  -0.02824754 -0.03171989]
[ 0.12721516  0.06107622  0.12111016  0.12068346 -0.06650069  0.13076572
 -0.08936676  0.08425248 -0.07209545  0.07972538 -0.09033845 -0.05121792
 -0.065597    0.0435369  -0.10188316 -0.07620127]
[-0.04481445  0.01402113 -0.05022287 -0.04426121  0.04533915 -0.01392556
  0.02721037 -0.01678846  0.02030972 -0.00356027  0.02920553  0.0050979
  0.01889462 -0.01235387  0.03508212  0.00147694]
[-0.01185847 -0.04406076 -0.03128866  0.00685154  0.05329655 -0.01540978
 -0.00138995 -0.03451671  0.0468294  -0.05033569  0.051418    0.04170042
  0.03616194 -0.04244616  0.00919972  0.03067009]
[ 0.04120065 -0.03353466  0.02819335  0.01138802  0.01877494 -0.02454259
 -0.05025067  0.00085881  0.0199737  -0.0046395  -0.06144948  0.00305743
  0.00493412 -0.05338462  0.00719519 -0.02422091]
[-0.02580367  0.01206283 -0.0360155  -0.02362274  0.02083047 -0.0291584
  0.00673133 -0.0061432  -0.00987982  0.00258318  0.01029091 -0.03094032
 -0.00345291  0.04633516  0.01037551 -0.03063954]
[-0.0064116  -0.02315145  0.02248809  0.00085518  0.05679184 -0.01573063
 -0.0004124   0.0199146   0.04028424 -0.03753258  0.04916758  0.0167933
  0.00546959 -0.02773173  0.00252051 -0.00967342]
[ 0.04867218 -0.01042576  0.03596874  0.04315671 -0.02621457  0.01063274
 -0.00727099  0.00215944 -0.01813914  0.02501885 -0.03311893 -0.03277159
 -0.01715151  0.01694705 -0.0569615  -0.0201924 ]
[-0.00727582  0.02340028  0.01049392 -0.01852836  0.04048258 -0.00798639
 -0.00857413  0.01037907  0.04969925 -0.02735136  0.01619776 -0.01284911
 -0.00789518 -0.00504609  0.02186477 -0.01448025]
[-0.03621267 -0.00678937 -0.000641   -0.02068835  0.06508217 -0.06384624
  0.01318268 -0.03924705  0.02817659 -0.00614661  0.06180738  0.01792844
  0.01096291 -0.02597177  0.01158491 -0.00073955]
[-0.02111103 -0.04030252  0.0067595   0.00979313  0.0091219  -0.00558845
 -0.0151231   0.01832722  0.00287292 -0.00791361  0.01506039  0.00327807
  0.03580844 -0.02588405 -0.0002298   0.00454311]
[ 0.04043816  0.0245884   0.03581622  0.03352621  0.02837829  0.05888602
 -0.05232095  0.01172272  0.0438356   0.00811166 -0.01101308 -0.013301
 -0.00831818 -0.01454178 -0.04165509  0.00683114]
[ 0.03420636 -0.00120242  0.07825908  0.02730968  0.00684412  0.03908679
 -0.04702454  0.01487347  0.03211861  0.03155419  0.00481852 -0.01608668
 -0.00746341 -0.03138023 -0.03778614 -0.00526413]
[ 0.04840178 -0.00354891  0.06776527  0.05154759 -0.0049033   0.03691991
 -0.07307773  0.03555518  0.00060798 -0.00442984 -0.05266526 -0.01058115
 -0.00230683 -0.04008105 -0.04437411 -0.0222627 ]
[-0.00600023 -0.01267581 -0.00955874 -0.01239033  0.0293543  -0.02294971
  0.00362022 -0.02435497  0.0155928  -0.00322433  0.00713783  0.01158705
 -0.0013892  -0.03347863  0.00518873  0.02138387]
[ 0.02679839  0.01808092  0.01233008  0.0118907  -0.01142439 -0.00992018
  0.00174013  0.02175559 -0.02029766  0.00463599 -0.02703854 -0.02902904
 -0.01975374  0.02266615  0.00782657 -0.0076021 ]
[ 0.03667959  0.00234487  0.03672509  0.01579136  0.04166738  0.03906043
 -0.02061876 -0.03144667  0.02165902  0.03577743 -0.00172654 -0.00728882
  0.0111264  -0.02472302 -0.01316501 -0.00939736]
[-0.07326757 -0.07346305 -0.11156307 -0.0798087   0.04178831 -0.08322781
  0.07660449 -0.07779454  0.05002524 -0.04503862  0.07747559  0.05312133
  0.07852383 -0.0472113   0.04637503  0.06515273]
[-0.01938299 -0.05841033 -0.03691926 -0.05420265  0.02393099 -0.0143005
  0.02870939 -0.01436245  0.04245543 -0.04851287 -0.00877074  0.06735634
  0.05521118 -0.09254561  0.04351138  0.03737943]
[ 0.06198829 -0.00530181  0.03906494  0.06948567  0.00380093  0.01745744
 -0.01255201 -0.00968388 -0.00833713  0.00685622 -0.00420894  0.00828396
 -0.03651411  0.00024004 -0.04767833 -0.00565179]
[ 0.01293865  0.0106558   0.03157892 -0.00018357  0.0547624   0.00131962
  0.00277606 -0.00623072  0.04548416  0.00558575  0.00628467  0.00481989
 -0.00327246 -0.02573566 -0.00958526 -0.00551779]
[ 0.04536337  0.00526031  0.00499488  0.06637564 -0.01264917  0.03076267
 -0.02771855 -0.020881    0.00446222  0.02458377 -0.01395477 -0.00111574
 -0.00611177 -0.01268206 -0.03937627 -0.01688454]
[-0.00686465  0.00597711 -0.02935556  0.00213427  0.03625743 -0.01835777
  0.03316142 -0.02975747  0.03012995 -0.00091986  0.00164995  0.01271211
  0.01770752  0.00125737  0.00885256  0.0017222 ]
[ 0.00461721 -0.00609555  0.01758949  0.00160998  0.0461296  -0.01983069
 -0.00046763 -0.03833485  0.02133529  0.00132965 -0.01723954  0.03218215
  0.02035079 -0.02201239  0.00553674  0.00065132]
[-0.02678416  0.02346223 -0.06510136  0.00660617 -0.0200935  -0.01630413
  0.01909449  0.03475541 -0.01803737 -0.00615293 -0.00112993  0.00050607
  0.01464818  0.02481706  0.00031164  0.01525265]
[-0.01735091 -0.03429792 -0.03281406 -0.01986226  0.04014256 -0.0339337
  0.0127116  -0.05337963  0.03003193 -0.00524702 -0.00687186  0.04463535
  0.02504056 -0.02740468  0.02605837  0.03974202]
[-0.02091917 -0.02850121 -0.02506624 -0.0264749   0.05128872 -0.03446114
  0.00885695 -0.0196759   0.01773894 -0.01599345  0.0510666  -0.00470454
  0.00342389 -0.01176127  0.01218568  0.01059149]
[-0.01802681  0.0323676  -0.01886628 -0.02308744 -0.00559126 -0.02519584
  0.03226248 -0.00649033 -0.01297098  0.01725647 -0.00907641 -0.01557379
 -0.00210733  0.01791509  0.00345149 -0.02674417]
[-0.03519746 -0.00753532 -0.03081428 -0.00131762 -0.01932073 -0.00397563
  0.01775094  0.00196714 -0.01380153  0.00643481  0.00089855 -0.01986829
 -0.02871299  0.01793328 -0.01078881 -0.01541641]
[-0.03896732 -0.0178618  -0.03232365 -0.01959516  0.06359769  0.00499522
  0.04217595 -0.00567342  0.04345547 -0.01263422  0.07321618 -0.0102921
  0.00270504 -0.01378639 -0.00176188  0.00536195]
[-0.04717621 -0.01536913 -0.05777636 -0.02553272  0.03406202 -0.02228393
  0.02906644 -0.0291131   0.04210927 -0.00223381  0.02356616  0.00929648
  0.0424554  -0.02024942  0.01431355  0.00237164]
[ 0.01145448  0.00548019  0.0062472   0.02402777  0.03178052 -0.00174196
  0.00899861 -0.00771016  0.00994522 -0.00116544  0.01033225  0.01225765
 -0.00768478  0.0082956   0.00525922 -0.01469979]
[ 0.04499854 -0.00193907  0.07407083  0.06974764 -0.02618519  0.03441638
  0.0028311   0.00589217  0.00525233  0.00238808  0.0004225   0.0326589
  0.00367192 -0.04652765  0.00841269 -0.0081258 ]
[ 0.02855579  0.0225098   0.0532156   0.03179809 -0.03968598  0.0216286
 -0.01438199  0.03735123  0.00327699  0.02847404 -0.03571179 -0.02282291
  0.00170912 -0.00128319 -0.02754917 -0.03115539]
[-0.03782829 -0.00103517 -0.02829865 -0.01653909  0.0144504  -0.00624288
  0.01579248 -0.00458143  0.01125101 -0.00127167  0.02547811  0.00841341
  0.01053961  0.03002301  0.0142022   0.00196811]
[ 0.00890201 -0.0061788   0.03493392 -0.00094083  0.051086   -0.00983034
 -0.02460203 -0.01178875  0.03328812  0.02789033  0.0184248   0.02043993
  0.00511651 -0.0221787  -0.03602184  0.01437347]
[ 0.01929366 -0.00759114  0.00426018 -0.00261427  0.02934488 -0.02149718
  0.01132349 -0.00865215 -0.00362043  0.00681513  0.01761201  0.01006761
 -0.0177451   0.00057253 -0.00425189 -0.01442749]
[-0.01743438 -0.00025878 -0.03301334 -0.02420624  0.01499933 -0.02861217
  0.00909338  0.01591176  0.00909783  0.00924286  0.00580426 -0.01492133
 -0.00759091  0.03051805 -0.00690897 -0.01526113]
[-0.04383732 -0.01580892 -0.01296516 -0.00456393  0.06982467 -0.00980713
  0.02111734 -0.042       0.03852104 -0.01068479  0.08253712  0.03713718
  0.01279619 -0.0589665   0.0160928   0.02999878]
[ 0.02866099  0.02731629  0.04603418  0.04048882 -0.02412234  0.02801022
 -0.04359835 -0.00213789 -0.01433722  0.08651435 -0.03871067 -0.03321446
 -0.0168721   0.03292425 -0.03836213 -0.02103558]
[ 0.00425176 -0.00677582 -0.00030718  0.0150499  -0.0114947  -0.00310296
  0.00896132  0.00160846 -0.00339699  0.0157049   0.00026149 -0.01310962
 -0.00826066  0.02143377  0.00041512 -0.00519599]
[-0.01776495  0.00097175 -0.04284681 -0.02898171  0.05007661 -0.01006744
  0.01648086 -0.02360134  0.02107172  0.0058523   0.04537562 -0.01425205
 -0.00585307  0.02199512  0.00238477 -0.01747311]
[-0.0062027  -0.0075337   0.00446393 -0.0093321   0.04179091 -0.02371441
  0.01323067 -0.01017452  0.03369967  0.00011226  0.05716479 -0.00385505
  0.00885175 -0.03229507  0.01107376 -0.00785518]
[ 0.06208256  0.01195738  0.07712834  0.05313062 -0.00179055  0.04196528
 -0.04486611  0.00823386 -0.00802508  0.05257448 -0.02329516  0.00815833
 -0.02504322 -0.00182015 -0.04427611 -0.01165432]
[ 0.02146715 -0.01655551  0.03030974  0.03131213  0.04417016 -0.01446675
 -0.02816507 -0.00218327  0.04138963  0.00330477  0.00699066  0.02441317
 -0.01597848 -0.01153586 -0.03377393  0.01395271]
[ 0.10079472  0.00665133  0.10900965  0.0757435  -0.01791611  0.04937922
 -0.03754821  0.03459259 -0.02107273  0.03623298 -0.04760321 -0.03000071
 -0.0532421  -0.00873179 -0.03063523 -0.03382364]
[-0.01800015 -0.02462245 -0.0354375  -0.03258781  0.04515202 -0.01712501
  0.03099556 -0.02664867  0.01673413  0.00710335  0.02713099 -0.009646
  0.00938841  0.02574787  0.0124463   0.01138298]
[-0.01741736  0.00660199 -0.02711865 -0.01946213  0.04049326  0.00663147
  0.00156186  0.00660478  0.01344552  0.00234758  0.00800256 -0.0052154
 -0.00119371 -0.0070641  -0.017293   -0.01182288]
[ 0.00520759  0.00873608  0.01534213  0.00211711  0.03700658  0.00934946
 -0.0120947  -0.03575072  0.00927325  0.05013324  0.01993999  0.00121545
 -0.0432215  -0.00666384 -0.00786499 -0.00453639]
[-0.05170447 -0.04983044 -0.05253598 -0.03854869 -0.02102851 -0.03881561
  0.06588273 -0.03492855  0.00985364 -0.04739173  0.03732386  0.04775484
  0.06262068 -0.04313347  0.04454558  0.02749274]
[ 0.01239308 -0.02160161 -0.00390457  0.01252856 -0.00616412  0.00274856
 -0.01432581  0.04728184 -0.02926029 -0.02049698 -0.07078145  0.01543652
  0.03549875 -0.02946912  0.0128672   0.00597938]
[-0.00684922 -0.01735043  0.01503783  0.01867166 -0.01181785 -0.01229255
  0.00675069 -0.01612138  0.010699    0.01655012  0.00621902  0.00989336
 -0.00808733 -0.0173626  -0.00679402 -0.02062481]
[-0.01011609  0.0391739   0.02357856  0.01517767  0.00260353  0.02330733
 -0.02048109 -0.00843684  0.00584933  0.04785307 -0.00083839  0.00207768
  0.00104085  0.02350051 -0.02585474  0.00885375]
[ 0.02486177  0.00252032  0.03726628  0.03444922 -0.00520823  0.00981108
 -0.00390718 -0.01767982 -0.02160247  0.05175344 -0.01523933 -0.04126573
 -0.02410534  0.03196169 -0.0400049  -0.01190811]
[-0.01825076 -0.00452521 -0.01346755 -0.0169038   0.0122188  -0.01672138
 -0.00252716 -0.01217491  0.01387126  0.00611082 -0.00108657  0.00725463
 -0.00325143  0.00917679 -0.00799255  0.00783092]
[-0.021582   -0.00127219 -0.00583425 -0.01785148  0.06956857 -0.00374796
  0.02658058 -0.02974179  0.03220944  0.01527198  0.04965248  0.01594817
 -0.00546047 -0.00867467 -0.00172006  0.00419623]
[-0.01659861  0.03112769  0.01749786 -0.01163269  0.01467829  0.01582497
  0.01659941  0.00804265  0.0286858  -0.01124966  0.00690108  0.0092585
  0.01844356 -0.0099968   0.00065882  0.00144528]
[-0.0390625  -0.01182351 -0.0201224  -0.03898585  0.05641335  0.01908856
  0.01836446 -0.04697246  0.04147634 -0.00129319  0.06269138  0.00439669
  0.02538045 -0.0262736   0.03018726  0.04701064]
[-3.0909566e-02 -8.4386505e-03 -2.7562181e-02 -2.9072993e-02
  1.3855088e-02 -9.8263583e-05 -4.8686043e-04 -9.8630944e-03
  1.3263249e-02 -2.6441796e-04  2.5179099e-02 -1.6668463e-02
 -3.3169039e-02  3.1401687e-03 -1.9774957e-02 -4.5283260e-03]
[-0.02936595  0.02612034 -0.0312578   0.02169431 -0.01593778 -0.01751344
 -0.00738428  0.01997382 -0.02746554  0.02221342 -0.00828744 -0.02678724
 -0.00369601  0.03444657 -0.00561263 -0.02569764]
[ 0.00076768 -0.02939432 -0.01203251 -0.01238156 -0.0193974  -0.00478005
  0.01097987 -0.01512935  0.01503709 -0.00633611  0.02533808  0.00602189
 -0.00385598 -0.01337457 -0.00791553  0.01306693]
[-0.04166554  0.00095133 -0.01473387 -0.03953564  0.01609337  0.01062482
  0.00690927 -0.01409344  0.0205912   0.03889724  0.02804413  0.00186048
 -0.00978317 -0.01044633 -0.0078978  -0.00836288]
[-0.00457561  0.01051628 -0.01801811 -0.0140231  -0.01077757  0.00059684
  0.00742737  0.00120902  0.00197141 -0.01014769  0.00849331 -0.01127501
  0.02454288  0.01004807 -0.00918044  0.00871868]
[-0.01391271  0.01397237 -0.01447321 -0.01216144  0.00373164  0.02195892
  0.00800062 -0.00623153 -0.01038563  0.02772264  0.02474687 -0.00148415
 -0.00313629  0.00171156 -0.00747674 -0.00851539]
[ 0.02238258 -0.02590525  0.03482287 -0.01627747  0.0235917  -0.01427341
  0.02021723 -0.00703911  0.03343041 -0.00574542 -0.0064691   0.02264786
 -0.00988082 -0.03749151  0.0068971   0.0007343 ]
[ 0.02882777  0.0193821   0.02835377  0.02274323 -0.02968528  0.02651006
  0.00534781  0.00415918  0.0015575   0.01344624 -0.03301529  0.01583996
  0.00871315 -0.02251688  0.01189153  0.00471786]
[-0.01329506  0.00550588 -0.00091911 -0.01379007 -0.00217537  0.02054785
 -0.00659959  0.00773667 -0.01226999  0.02534321  0.00137357 -0.02780085
  0.00205732  0.00573558 -0.01220604 -0.00964404]
[ 0.01011378 -0.0251934   0.02123705  0.00040079  0.10671347  0.02591242
  0.03026654 -0.03879022  0.02937857  0.03318964  0.05186932  0.0135438
 -0.0087768  -0.03192323 -0.01136283 -0.0080832 ]
[-0.03846931  0.02594612 -0.03154266 -0.01573188 -0.0051452  -0.01537158
  0.00789788 -0.01651511 -0.00519267  0.01959147 -0.02163212 -0.01496137
  0.00075256  0.01942905  0.02248384  0.00814561]
[-0.00604703  0.01404303  0.00758104  0.00813206 -0.0194044  -0.01730026
 -0.00842787 -0.01023104 -0.01182028 -0.01278018 -0.00130647 -0.00499347
 -0.01540122  0.02178865 -0.00973962 -0.01854643]
[-0.04366811 -0.02102319 -0.02418456 -0.00390963  0.05975224  0.01536044
  0.01766191 -0.00147332  0.02073658  0.03196011  0.05576324 -0.00229434
  0.0090113   0.02919021 -0.02676146 -0.01095491]
[ 0.02782869 -0.01341504  0.04393725  0.02703295  0.00108312  0.03597702
  0.00951181 -0.0119115  -0.03802941  0.01328733 -0.01821891  0.00347819
  0.00837568 -0.01548563 -0.03272928  0.0124199 ]
[-0.04005253 -0.0222042  -0.00138885 -0.01285513  0.04322959  0.01151325
  0.0121731   0.00517824  0.02937965 -0.02614852  0.03142913 -0.02490413
 -0.00383469 -0.0182761  -0.0028925   0.00860641]
[-0.03104288 -0.00809763 -0.03032286 -0.0125724   0.03546919 -0.01908573
  0.00707841 -0.0107304  -0.0029378  -0.01198983  0.02705238 -0.01255292
 -0.00216609  0.0119088   0.00942446 -0.00919854]
[-0.04134926 -0.02511064 -0.04280661 -0.02119847  0.04207451 -0.02922405
  0.00661007  0.00159943  0.00572225 -0.03420352 -0.00224062  0.02539857
 -0.00645857  0.01479648  0.00646068 -0.01065584]
[ 0.05439916  0.03517056  0.09704673  0.01518757 -0.03063169  0.10404046
 -0.03796479  0.01087714 -0.04406097  0.08803929 -0.03602155 -0.03320777
 -0.00960741  0.02296513 -0.04965137 -0.02694572]
[-0.03633237  0.00755685  0.04053024 -0.0224797   0.04986207  0.04131133
  0.02062942 -0.02674563  0.02086562  0.03048296  0.04182254 -0.00713865
 -0.00352265 -0.01566924 -0.0092701   0.01337449]
[ 0.02360869  0.05856445  0.06583499  0.03890722  0.03662432  0.06684574
 -0.04066148  0.02403574  0.00381629  0.07668766  0.00582748 -0.04762251
 -0.05404899  0.05801542 -0.08475661 -0.02176097]
[-0.02865053  0.01664863 -0.01226748 -0.01776635  0.00582088  0.02353285
 -0.00821168 -0.00646307 -0.01179049  0.01781289  0.00758626 -0.01313688
 -0.01368728  0.02035713 -0.00913548  0.0018885 ]
[-0.00732237  0.03517001 -0.00499929 -0.00689606  0.00038479  0.02701429
  0.01562868  0.01292205  0.01754867  0.01830593 -0.00092379 -0.02199455
 -0.00011987  0.00328199 -0.01849122  0.00490521]
[ 0.00471057  0.03409919  0.02874062  0.01514018  0.01214284  0.05438637
 -0.02501958  0.00802233 -0.00804644  0.06158173 -0.01729444 -0.01994746
 -0.01710627  0.0258714  -0.04150461 -0.00272883]
[-0.01515994 -0.0206237   0.00599245 -0.00075898 -0.01571481 -0.01780996
  0.03079584 -0.01498578  0.0121018  -0.01902675 -0.01418109  0.03438822
  0.01249238 -0.03693051  0.01579595  0.00075849]
[-0.04429379 -0.00890036 -0.06167897 -0.05131566  0.01927355 -0.04904385
  0.02933334 -0.00080484  0.04382175 -0.03734602 -0.0004719   0.00438236
  0.0422957  -0.0210648   0.01460431  0.03642375]
[ 0.00740703 -0.02408318  0.03480128 -0.00071594 -0.02439779  0.02995976
  0.0016427  -0.02009265 -0.01066367 -0.00326417 -0.01130963 -0.00628223
  0.01793784 -0.03355743 -0.01461156  0.00730602]
[-0.03752217 -0.00389163 -0.00014004 -0.0031756   0.02818772  0.01296781
  0.00734911  0.00867881  0.01792721  0.01098217  0.01682503 -0.00713974
  0.01100928  0.01718524 -0.02956383 -0.00898131]
[ 0.04670308 -0.0075328   0.09711335  0.03126618 -0.02582558  0.0922561
 -0.03369652 -0.00814938 -0.00705999  0.05856252 -0.01462978 -0.01464575
 -0.04422009  0.00614812 -0.03669655 -0.03047998]
[ 0.01251528  0.01240165  0.02154203  0.0074674   0.01453739 -0.00380945
  0.0080349  -0.03455516  0.01120982  0.00886279  0.01645391  0.02843905
  0.01153658 -0.00409154  0.00424774  0.03169526]
[-0.02563286 -0.02280395 -0.03012105 -0.01935793  0.01581334 -0.00515973
  0.02682835 -0.01990971  0.0376341   0.01432494  0.02550384  0.00477405
 -0.00873831 -0.01010097  0.00912671 -0.00690127]
[-0.01356722 -0.01042059 -0.00984038 -0.00463241 -0.00478252 -0.00813598
  0.02297712 -0.03084419  0.01767323 -0.02666347  0.05067831  0.01331228
  0.00253637  0.00495999  0.00382149 -0.02364315]
[-0.00985114 -0.03788777 -0.00217115 -0.00717654  0.03168733 -0.01443901
  0.00169188 -0.04060788  0.03909952  0.00366144  0.02085693  0.01134347
  0.01581718 -0.0218383   0.03053929  0.02324963]
[-0.00562776 -0.02584512  0.0012418   0.01147582  0.01123887 -0.00117093
  0.01181412  0.0007178  -0.0004872  -0.02802241  0.01944154 -0.00100546
 -0.02221895 -0.00858325 -0.00338015  0.01534625]
[-0.02394488 -0.00155371 -0.03301051 -0.01563131 -0.01893874 -0.02926111
  0.01389987 -0.00873066 -0.03240419 -0.01811094 -0.01196918 -0.00745315
 -0.00271729  0.00172789  0.0179588   0.00105666]
[ 0.03333729 -0.00828311  0.01981776  0.00177477 -0.03291336  0.00958047
 -0.01066836  0.00236172 -0.00367689  0.0346255   0.00895727 -0.01891717
 -0.02552846  0.0214834  -0.03136403 -0.02640993]
[-0.02923248  0.00658712 -0.00846804 -0.01170455  0.01149965  0.02319898
 -0.00554855  0.01359348  0.00222076 -0.00220285 -0.01586918 -0.00969026
 -0.02045646  0.00561172 -0.04334095  0.01219327]
[-0.01025002 -0.00919964 -0.02908824  0.00541729 -0.00756665 -0.03699413
  0.00549895 -0.00292259  0.0125709   0.00787069 -0.00181062 -0.00202747
  0.02131504 -0.00792525  0.02547989  0.00621073]
[-0.01852096 -0.00660344 -0.02117876  0.00029639 -0.00667329  0.01933424
 -0.00024256 -0.03243299  0.00961425  0.00459116  0.00258517  0.00828821
 -0.00401086  0.00806358 -0.00058142  0.02053661]
[ 0.01658559 -0.02979113  0.02691627  0.01774869  0.02539534 -0.00891972
  0.00767726 -0.03543205  0.00811135 -0.0159767   0.00036045  0.01920253
  0.02349054 -0.04296603  0.00013287  0.01917375]
[ 0.02555551  0.00062849  0.03079568  0.01364667  0.00734985  0.02642442
  0.00016495  0.02068665  0.02807692  0.00900802 -0.02985256  0.02694372
  0.0036073   0.00600378  0.00147762  0.01946481]
[-0.01465197 -0.00566058 -0.01706321  0.0111439   0.01373481  0.00721008
  0.00269136 -0.01084097 -0.00370291 -0.00115051  0.02059313 -0.01189326
 -0.01328943  0.00103211  0.00140463 -0.00454819]
[-0.01566813 -0.05162036  0.00014711 -0.01531355  0.08619665  0.01228079
  0.02287414 -0.04944973  0.05990116  0.02633103  0.05140699  0.04300568
 -0.01861667 -0.05033798  0.0149405   0.00436134]
[-2.0933129e-02 -4.9967780e-03 -2.3187416e-02 -1.4480606e-02
 -1.5487689e-02  8.6488917e-06  3.7743275e-03 -1.2118144e-02
 -3.3267592e-03 -1.7539268e-02  1.5162638e-02  7.2729932e-03
  1.1768481e-02 -2.9810496e-02  1.9238804e-02  2.6547244e-02]
[-0.02162597 -0.00484676 -0.01685102  0.00419729 -0.01100077  0.00302163
 -0.00184614  0.00933545 -0.0173499   0.03754645  0.00674557 -0.02704344
 -0.02558756  0.02323765 -0.01242328 -0.01936316]
[-0.02054271 -0.00121479 -0.01443568 -0.00717821  0.0557179   0.01548398
 -0.00667135 -0.03638611  0.01196789  0.01692865  0.00804602  0.01670717
  0.01453428 -0.02310035  0.00151791 -0.00318461]
[ 0.04547608  0.04151462  0.06574273  0.03118286 -0.001624    0.05956031
 -0.03837794  0.01427027  0.00195657  0.0597808  -0.02775087 -0.03691512
 -0.02394941  0.00991524 -0.02925586 -0.03492284]
[ 0.00122684 -0.00266453 -0.02598861 -0.00571192 -0.00668311  0.00597334
 -0.00442558 -0.02020491  0.02475113  0.01835323 -0.00255004  0.00571139
  0.00489724  0.01006954 -0.01747012 -0.01122664]
[-0.01731291 -0.00325179 -0.01967364  0.011279    0.01452571  0.00850938
  0.00287073  0.00675696  0.00534871 -0.00457499  0.01294202 -0.0082128
 -0.01301125  0.00684385 -0.00242126 -0.01493961]
[-0.01245598  0.0051621  -0.01351436 -0.01355236  0.00619727  0.02169956
 -0.01586431 -0.02250322 -0.01690512  0.02766013 -0.00657819 -0.0070065
 -0.00457256  0.00076511  0.0068887  -0.01289263]
[ 0.04221634 -0.0062598   0.0548669   0.00674363  0.02932591  0.04957274
 -0.0147982  -0.03165942 -0.00180421  0.01894639 -0.0002621  -0.00815725
 -0.02970318  0.00506269 -0.0054301  -0.01268943]
[-0.0273403  -0.01356596  0.01648473 -0.02177024  0.03352333 -0.00788524
  0.02155451 -0.01962725  0.05247016  0.01518915  0.02018874  0.02016322
  0.01159521 -0.02080409 -0.00675396  0.02004084]
[ 0.02568317  0.03671387  0.07090017  0.0541998  -0.02299697  0.06437591
 -0.06708578  0.03095854 -0.02049433  0.06602718 -0.05333212 -0.02124865
 -0.02668731  0.04948897 -0.06847895 -0.01982778]
[-0.00476776 -0.00633123  0.00584203  0.00953993 -0.01202883  0.02362362
 -0.00457601 -0.02088559  0.0060562   0.00466722  0.01496669  0.0016235
 -0.0013082  -0.01548828 -0.00333606  0.01213086]
[ 0.01933228  0.04104823  0.00849383 -0.00562195  0.00159268  0.02191997
 -0.01819924 -0.00861883  0.01711174  0.00688965  0.00762209 -0.0213343
  0.00830179 -0.00228542 -0.01349335  0.00454959]
[ 0.00262617  0.01639704  0.00543097 -0.00844087  0.02084338  0.01363029
  0.00267844  0.01561447  0.01607548  0.03111536  0.00829204  0.00076409
 -0.02341934  0.00600548 -0.02767401 -0.01804733]
[ 0.007397   -0.01740712  0.03783783 -0.01398771 -0.00186688  0.01087581
 -0.00062561  0.00786827 -0.00758443 -0.00968732 -0.01176329  0.00649216
  0.01596016 -0.00695027  0.02161236  0.01281983]
[-0.03715958  0.0066638  -0.03911795 -0.04698264  0.0006134  -0.02628968
  0.04218195 -0.02188602 -0.01139555 -0.03343636 -0.05089476 -0.00227927
  0.05185358 -0.01797113  0.03672199  0.0273395 ]
[ 0.02910261 -0.00266052  0.02876958  0.01158048  0.0128692  -0.00208337
 -0.02591586  0.0071938  -0.01013074  0.0110759  -0.00944411 -0.00772257
 -0.00311585 -0.02990277 -0.01277826  0.01615722]
[-0.0040842  -0.01165203 -0.01601181 -0.01810815  0.01856702 -0.00356151
  0.00227441 -0.00262343  0.02591068  0.01390039  0.03411473 -0.00094843
 -0.00381924  0.02036255 -0.01838126 -0.00478972]
[ 0.10291258  0.01354402  0.12043063  0.07082011 -0.01314775  0.06529862
 -0.04740935  0.02469134 -0.00901804  0.04373843 -0.04142288 -0.00170588
 -0.048011   -0.01456336 -0.05265861 -0.05187235]
[-0.01459449  0.01316902 -0.00453668  0.01139041 -0.01511408  0.01754832
 -0.03060647  0.01983752  0.00620018  0.0166064   0.00750585 -0.00421892
  0.01177469 -0.01403893 -0.04265964  0.0147652 ]
[-0.0173415  -0.0349541  -0.01314152  0.00036595  0.0229151  -0.00095629
  0.00900899 -0.03152093  0.01240529 -0.00187816  0.03497886  0.01211211
 -0.00713844 -0.00573182 -0.01291824  0.00079954]
[ 0.00465368  0.01400621  0.03544123  0.00224623  0.01071262  0.0069656
 -0.00192309  0.00244217 -0.02197184  0.0199572  -0.00340876 -0.0184213
 -0.02162964  0.02566924 -0.0410785  -0.0187009 ]
[-0.01059228 -0.01731549  0.01287267  0.00752774  0.0227674  -0.0194116
  0.01143658 -0.01403566  0.02146525 -0.02152533  0.01727965  0.01486335
  0.00613484 -0.04080299  0.01191832  0.00956919]
[-0.01097814 -0.01659685 -0.00220442 -0.00970809  0.00883364 -0.00282102
 -0.01307112  0.01275632 -0.00096779  0.0050131  -0.00479482 -0.02135622
 -0.00618712 -0.02284203 -0.00671481  0.00134389]
[-0.0061533   0.00444589 -0.01606904 -0.0225293  -0.01545538 -0.01607641
  0.01264617 -0.00566244 -0.02662401 -0.00492453  0.00071003 -0.00029651
  0.01275537  0.00181241  0.00371531  0.0132791 ]
[ 0.01979899 -0.0123452   0.03879394  0.00432431 -0.00520194  0.02781987
 -0.01826907 -0.03412898  0.0226573  -0.00577379 -0.01067868  0.02480213
 -0.0151042  -0.02044625 -0.01728925 -0.00218889]
[-0.01707178  0.01056816 -0.00811276 -0.01585225  0.03493392  0.00152825
 -0.00772683  0.01724847  0.02242967  0.01640474  0.02103033 -0.00592204
  0.00133593 -0.01332553 -0.01214652 -0.0052571 ]
[-0.01006377  0.02337545 -0.00216963 -0.006105   -0.01049097  0.00129384
  0.0261979   0.0231147  -0.01102818 -0.00303559  0.0154046  -0.00152151
  0.01284743  0.01192091  0.00637078 -0.01207335]
[ 0.02030458  0.0041422   0.02379014  0.01479316 -0.00115177  0.01785941
  0.00529032 -0.00572186  0.02065763  0.00520642  0.00594756 -0.01232419
  0.02107066  0.01026178  0.00896736  0.00661903]
[-0.00475328 -0.00671088 -0.03063267 -0.01685999  0.02530584 -0.00914961
 -0.00773478 -0.03080853  0.0404281  -0.03374182  0.02775718  0.01834351
  0.03561248 -0.02841992  0.01331741  0.03508582]
[ 0.0201334   0.021272    0.0377203   0.00591883 -0.00621383  0.0283722
 -0.01603189  0.02024056 -0.03508809  0.02782822 -0.03258927 -0.016058
  0.00994077  0.00430064 -0.00088442  0.00713568]
[ 0.00023968 -0.01318121 -0.0148509  -0.00358917  0.01127094 -0.0265382
 -0.0014126  -0.01304094  0.00098876 -0.02158853 -0.00531362 -0.00038642
 -0.01297861  0.00891953  0.0012968   0.00259042]
[-0.04399014 -0.05210906 -0.00326327 -0.0318957   0.06268089 -0.0092621
  0.03393578 -0.06084488  0.0754217  -0.01938573  0.03926871  0.01883705
  0.00767621 -0.05546119  0.01008759 -0.00747238]
[ 0.02119553 -0.01041373  0.00981851 -0.00308632 -0.02818526 -0.00029157
 -0.0048262   0.01207119  0.00346187 -0.00536013 -0.0151848  -0.02085522
  0.01054197 -0.01258446  0.00759216 -0.00184391]
[ 0.01332271 -0.01262984  0.00969622  0.0065228   0.00526709  0.00918492
 -0.00764028  0.01439282 -0.00546149  0.00756405 -0.00600131 -0.00019694
 -0.0147415   0.00727294 -0.00333698 -0.02278147]
[-0.01408084 -0.02191618 -0.01088983 -0.02033344  0.03354603  0.00766948
 -0.0004749  -0.00635111  0.00299077  0.00794405  0.03719797 -0.00312343
  0.01482212  0.00044337 -0.01217465 -0.00382241]
[-0.00968309  0.02222084  0.0232706   0.01880958 -0.03421733  0.05215638
 -0.01728399 -0.00461594  0.00386185  0.02605189 -0.02274406  0.0038355
  0.01598973 -0.01416559 -0.03095369  0.02742274]
[-0.00610967 -0.00322113  0.00845923 -0.01155802  0.01997258  0.01896133
 -0.01127675  0.00257629  0.03205705 -0.01897024  0.02072304 -0.01137622
  0.01804835  0.0092156  -0.01720179 -0.00851505]
[ 6.5975129e-03 -1.8164355e-02 -3.2943187e-03  1.2286493e-02
  2.0660780e-02 -2.0317435e-02  1.1313378e-02  8.1191901e-03
  3.9535672e-03  1.1322721e-03  1.3706205e-02  1.1019460e-02
  2.8106072e-03  4.9205674e-03 -9.3256328e-03 -7.6263670e-05]
[ 0.00466051 -0.02799217 -0.002616   -0.01152495  0.02438891 -0.01331747
  0.00855887  0.0304168   0.00568922  0.01105116 -0.00521016 -0.04185409
 -0.02525763  0.01931089 -0.01132733 -0.02120997]
[ 0.00675613  0.01452073  0.0620208   0.00967075  0.0095335   0.02851288
 -0.02346    -0.01919306  0.02511834 -0.00735735  0.00051383  0.02295027
  0.00135557 -0.04244275 -0.01614556 -0.00910644]
[ 0.0241969  -0.03024778  0.02072843  0.00818778  0.01870958  0.00485805
  0.00016608 -0.02401576  0.01584308 -0.01447882  0.02161864  0.02188057
 -0.01236477 -0.02902368 -0.00371457  0.00709175]
[ 0.05120079  0.02680238  0.05547869  0.04154547  0.00477727  0.06698231
 -0.0243105   0.00860793 -0.01007817  0.04654112 -0.01868032 -0.0077094
 -0.05163636  0.01697292 -0.04758394 -0.01455664]
[ 0.01029477 -0.00564023  0.0038751   0.01567525 -0.01817696  0.01790145
 -0.01308251  0.01796623 -0.00612068  0.01438246 -0.00894582 -0.00527303
  0.0039418   0.0032548  -0.02237964 -0.01845379]
[ 0.01243534 -0.0198569   0.03812663 -0.01312917  0.04360978  0.01104948
  0.0036175  -0.01611784  0.03128814 -0.01723684  0.01057797  0.0265624
  0.00468774 -0.00905205 -0.00900258  0.0282219 ]
[ 0.03418969  0.00064066  0.02208252  0.02647594  0.01837591  0.00570522
 -0.00564755 -0.00680942  0.01818058  0.02289738 -0.01962753  0.0037018
 -0.023708   -0.0102982  -0.03002683 -0.02302942]
[-0.02390388 -0.0252422  -0.00444214 -0.00296829  0.00318183  0.00069916
  0.00386876 -0.02247996 -0.00813465 -0.00076813 -0.00401137  0.00761285
  0.02099169 -0.03195225  0.01317968  0.00899639]
[-0.05218523 -0.03081927 -0.06741264 -0.04488058  0.03418249 -0.01598763
  0.03775832 -0.05326124  0.02635531 -0.03007441 -0.00871921  0.0112813
  0.04247885 -0.02223722  0.02841903  0.04261106]
[ 0.01191251  0.03110875  0.04593159  0.02927412 -0.02998064  0.01917488
 -0.03882151 -0.00295126 -0.01249814  0.00626694 -0.03868037 -0.00512218
 -0.03033749 -0.00031033  0.01099262 -0.02050472]
[ 0.01119087 -0.00670162  0.01556109  0.02208684  0.01536865  0.00251535
 -0.0083817  -0.00095837  0.00548364  0.00238038  0.0135428  -0.01430813
 -0.01044916 -0.0027172  -0.01637722 -0.00601722]
[ 0.08205596  0.03961012  0.10759193  0.05625837 -0.03812972  0.0701121
 -0.04237589  0.02797969 -0.01155558  0.03216228 -0.02587704 -0.01881828
 -0.04196185  0.01447617 -0.04298975 -0.01853906]
[ 0.0445995   0.02527708  0.01927457  0.0186347   0.00881858  0.01767707
 -0.02094972  0.01066643 -0.00182574  0.03526429  0.00325795 -0.00820255
 -0.02664464  0.01614891 -0.03102385  0.00246271]
[ 0.00586693 -0.03253093 -0.00505975 -0.00718583  0.01467694 -0.01119795
  0.01484333 -0.03401445  0.00902738 -0.0187854   0.01764771  0.01571875
  0.00104174 -0.01018553  0.00069873 -0.00120475]
[-0.01268643  0.01517952 -0.01442083  0.01345767  0.01107394 -0.0118304
  0.01367654 -0.01616412  0.02240221  0.01699912  0.02575826  0.00072098
  0.00920323  0.0141459   0.00361636  0.00257551]
[-5.83701039e-05 -2.88999453e-02  1.07586915e-02 -1.12897558e-02
  2.35997196e-02  2.82509113e-03  3.58391926e-03 -2.42305249e-02
  2.63985060e-02  1.57560129e-02  3.58575284e-02  3.11740246e-02
  1.72236804e-02 -3.76059376e-02  2.07468942e-02  1.57694276e-02]
[ 0.00479462 -0.016846   -0.02048214 -0.00602298 -0.00988444  0.01166421
  0.0059151  -0.00448538  0.00619563  0.00151426  0.01170133 -0.00717828
  0.00723898 -0.00801734 -0.00171473 -0.00759861]
[-0.01005924  0.01379871 -0.03294474 -0.00824462 -0.01204447  0.00956413
  0.01218246  0.02887371  0.00160292  0.01321137 -0.01641244  0.00239635
  0.00541582  0.01299487 -0.01909489 -0.00918742]
[ 0.01487913  0.00756335 -0.00716163 -0.00874351  0.00770672 -0.0091569
 -0.00062865 -0.0262784   0.01970681 -0.00288306  0.01069314  0.00957149
  0.00353209 -0.00604225  0.00235977 -0.00406458]
[ 0.00625719 -0.01835738 -0.00516579 -0.02471261  0.04027746 -0.00384811
  0.01207003 -0.02018916 -0.00083277  0.00241326  0.01761252  0.01459286
  0.01761564  0.00497426  0.00930145  0.01875243]
[-0.01480676 -0.01142582 -0.01396802 -0.0226919  -0.0021596  -0.00324703
  0.02051435  0.01143187  0.01065285 -0.02834773 -0.0127581   0.02984658
  0.02078674 -0.00546869  0.01795447  0.0044623 ]
[-5.7401359e-03 -1.7590951e-02 -1.3241555e-02 -1.6060947e-03
 -1.9653378e-02  3.3094052e-03  9.3680872e-03 -5.7105040e-05
 -1.4110424e-02 -1.1801011e-02  1.5238593e-02 -2.7546493e-02
 -7.2177348e-04  2.1699319e-02 -1.8735611e-03 -4.8194891e-03]
[-0.01650518  0.00273143 -0.0111712  -0.00030932  0.01324927  0.0135598
  0.02453593 -0.02172095 -0.00628778  0.01905875  0.00765003  0.00778646
  0.00788518 -0.0155619   0.00353143 -0.00777156]
[-1.9307509e-02  1.1297084e-02 -3.0187371e-03 -1.9539548e-02
  6.7471636e-05  1.2492969e-02 -3.3438497e-04  1.5919494e-02
  2.5220702e-03 -1.1493959e-02  9.8041482e-03  2.0549516e-03
  3.6462955e-02 -1.5231920e-02  2.6734434e-02  2.5305662e-02]
[ 7.3941617e-04  9.6795935e-04 -1.7196290e-02 -9.0940325e-03
  8.7474342e-03  2.5475672e-03 -2.1764706e-03  1.0252187e-02
  3.9327019e-03  8.7300222e-04 -1.5514573e-03  6.6599315e-03
 -1.4532870e-02  7.2643738e-03  5.0482569e-05  1.9561118e-03]
[-0.02018258 -0.03061405 -0.03173606 -0.039931    0.03827348 -0.00458568
  0.02943812 -0.04086778  0.00940164  0.02572251  0.05248053  0.01076467
  0.00220449 -0.02810221 -0.00152044  0.02088686]
[ 0.01057073  0.00709596  0.02563139 -0.01013185 -0.02240053  0.00081547
  0.0202793   0.00419445 -0.00055186 -0.01003469 -0.03099783  0.00740404
  0.01123503  0.00319522  0.00305573  0.0059396 ]
[-0.00673406 -0.0246165  -0.01106986 -0.00728951  0.02055504 -0.01350408
 -0.00522413 -0.01006733  0.00561247  0.01578461  0.01328771 -0.00719051
 -0.02607228  0.00621101  0.00167775 -0.01385334]
[ 1.8905243e-02 -2.8773539e-02  9.6592465e-03 -1.6646534e-02
  2.1826914e-02  2.0788020e-02 -7.1629576e-05 -1.0849186e-03
  1.9503172e-03  2.0960646e-02  8.7664491e-03  4.6290141e-03
  2.1567850e-03  6.3054729e-03 -7.1943840e-03  4.6157213e-03]
[-0.00019163  0.01480888  0.02747813 -0.02986879  0.00537888  0.01954603
  0.02004332 -0.00016312 -0.01579717  0.00308721  0.01347175 -0.00413235
  0.02023539  0.00361752 -0.00033462  0.00711089]
[ 0.02116411 -0.00886205  0.00016922 -0.00667658 -0.00689602 -0.00896611
 -0.0045098   0.01615515  0.01929167 -0.00435463  0.02560077 -0.00089539
 -0.000483    0.00013554 -0.0090001  -0.00879184]
[ 0.0062509  -0.00244999  0.0034309  -0.0065085   0.02838298 -0.00423416
  0.00275808  0.00590261  0.01551808 -0.00175454  0.02080874  0.00158382
 -0.01312685  0.01007934 -0.01673424 -0.01865439]
[-0.01691291 -0.00356613 -0.01495214  0.01175085  0.02248475  0.0062065
  0.00285101 -0.00335146  0.01861392 -0.0012347   0.01945542 -0.00607423
  0.00867742 -0.00787291 -0.0039323  -0.00798298]
[ 0.0132246  -0.02478756  0.0127632   0.00082873 -0.00201658  0.02547672
 -0.00185471  0.00843332 -0.00603486  0.00942475 -0.00064825 -0.00619207
  0.00893153 -0.02123771 -0.03131208 -0.00381696]
[-0.00833433 -0.01999735  0.02665609  0.00276891  0.00408964  0.01211128
  0.00351704 -0.00873453  0.02864764 -0.00483926  0.02226839  0.01742839
  0.00652588 -0.0103606  -0.01891195  0.0088201 ]
[ 0.03578134  0.02881185  0.05935829  0.02152565  0.0191449   0.03055578
 -0.00856     0.00314575  0.02529155  0.04257253  0.01595962 -0.01044781
 -0.02886312  0.01933729 -0.02011463 -0.00783806]
[ 0.02637683  0.00201383  0.01790164  0.00763957 -0.00032625  0.01703225
 -0.00207013 -0.00243733  0.00037183 -0.00048312 -0.01904238 -0.01756067
 -0.00895064  0.02021012  0.0010838  -0.01676063]
[-0.00709686  0.01533253  0.00637551 -0.00644059  0.01115963  0.01745935
  0.01723667 -0.0168738   0.03985324 -0.01877228  0.0118174   0.00268
  0.01471488 -0.01447232  0.01125342  0.00795671]
[ 0.03310452  0.05127087  0.01642448  0.02425395 -0.01167754  0.02508834
 -0.02375866  0.01576527 -0.00225318  0.02996253 -0.03813287 -0.0089816
 -0.01426967  0.03147407 -0.03352698 -0.02060519]
[-0.00658616  0.0122625   0.00547838 -0.01273349  0.00189571 -0.01874075
  0.00646803 -0.0067238  -0.02511795  0.0110564  -0.01959917  0.00086601
  0.01211896 -0.0214908  -0.00070445  0.01017904]
[-0.05620448 -0.04357725 -0.03161764 -0.06281039 -0.00047955 -0.05122926
  0.03924689 -0.01463822  0.0258727  -0.07387873 -0.01998179  0.02679847
  0.0910263  -0.03232196  0.02375295  0.06563049]
[ 0.02406183 -0.00589749  0.02227724  0.00816252 -0.00757111  0.00446404
 -0.00213124 -0.00439422  0.00198864  0.00285874  0.01167229  0.00220308
  0.00308122 -0.01822874  0.0018083  -0.00341878]
[ 0.02247955 -0.0088369   0.03418628  0.00694345  0.00967926  0.01075021
 -0.00981654 -0.00556121  0.00649782 -0.01198211  0.00981766 -0.00482458
 -0.00899452  0.01768121 -0.01305529  0.00209126]
[ 0.028473    0.01417225  0.04561099  0.0163855   0.00358381  0.03139731
 -0.0164719  -0.0103585   0.01422051  0.01554337  0.00117467  0.0038721
 -0.00974491  0.01884996 -0.0175826  -0.01848051]
[ 0.01386373  0.00115377  0.01889313  0.03113192  0.01361724  0.00496214
 -0.00263025 -0.02074358  0.00579091  0.00873879 -0.00687994 -0.02105424
 -0.02076768  0.00843179 -0.01881993 -0.01371062]
[-0.0201315  -0.02449237 -0.01135781  0.01001482  0.02949017 -0.02471249
 -0.00312757 -0.01559114  0.01144455 -0.00724935  0.01227245 -0.01347945
  0.00512167 -0.01167949 -0.00322301 -0.01757552]
[ 0.02148359  0.01589288 -0.00101677  0.00412337  0.03366392  0.01836144
 -0.00787438 -0.0003705  -0.00347849  0.02087154  0.04030932 -0.02934519
 -0.01539843  0.00918472 -0.03963218  0.00737105]
[-0.00845991 -0.02226945 -0.00666701  0.00226013  0.01234058 -0.01758965
  0.01254338  0.007612    0.0163998  -0.03323452  0.01661399  0.00052806
  0.00401967  0.00349245  0.00608394  0.00830282]
[ 0.01300759 -0.01059703 -0.0052839  -0.00620401 -0.014461    0.00435292
 -0.00269312 -0.02563316 -0.00469991 -0.00248765 -0.01868759 -0.00374668
  0.00198422 -0.02062491  0.0155412  -0.02544247]
[-0.01412584  0.00255328  0.01488975 -0.00883238 -0.00758347 -0.00789705
 -0.00338454 -0.0070663  -0.00816346  0.00899914 -0.00486219  0.00919295
 -0.0087854   0.000314    0.0201751   0.00388353]
[ 0.01834521 -0.01612783 -0.00748906  0.00148607  0.02290913 -0.00019522
  0.01037118  0.00233106 -0.01572753  0.00234487 -0.00363558 -0.01788304
 -0.01144646  0.01373039  0.00849934 -0.00468873]
[ 0.00339793 -0.03450003  0.0089126  -0.01362687  0.02081812  0.00856596
 -0.00350452 -0.0251369   0.02535176 -0.03260183  0.01829685  0.00965387
  0.01954583 -0.02677456  0.01086042  0.01759787]
[-0.01866338 -0.01851136 -0.02295569 -0.00509395  0.00966449 -0.01493349
  0.00647616  0.017813   -0.01363587 -0.02069313 -0.00740038 -0.00375707
  0.04272717  0.00439307  0.02561961  0.03202005]
[ 0.0010981   0.02367789  0.00094281  0.01042548 -0.00406321  0.01139583
 -0.00585726  0.00914838 -0.01314898  0.00878544 -0.01660731  0.0068899
 -0.00158687  0.00974975 -0.00411599 -0.01186155]
[-0.00540432  0.00032158 -0.00358002 -0.01291415  0.02186204  0.01980511
  0.00492875 -0.02885708  0.02577742 -0.00317488 -0.01429151  0.04987148
  0.02155614 -0.03182417  0.01944542  0.02682327]
[ 0.03343245  0.01655594  0.02845538 -0.0041515  -0.02440018  0.04618811
 -0.0168284   0.00126954 -0.00747303  0.01478825 -0.04869771 -0.02909237
 -0.00877192  0.00885381 -0.01507515  0.00435042]
[ 0.00111744 -0.00817231 -0.00914442  0.00616638  0.01000042 -0.00495283
 -0.00803992  0.01276215  0.00362614 -0.01541167  0.02077728  0.00610603
  0.0016821  -0.01621943 -0.01497084  0.00379178]
[ 0.03033847 -0.02034806  0.03345154  0.02016753  0.07302669  0.02303043
 -0.01081754 -0.02286047  0.05833483 -0.01088278  0.03194565  0.02723012
 -0.01424483 -0.03137475 -0.00567204 -0.03664736]
[-0.00529267  0.00968799  0.00277057  0.00386566 -0.05074006  0.00148932
 -0.00950546  0.01344688 -0.00816017  0.00687719 -0.03112618  0.00758515
  0.00584227 -0.01113388  0.00519212 -0.01513309]
[-0.00882578 -0.01341336 -0.00347577 -0.00723049  0.01200929 -0.0113338
 -0.00495109  0.00866388 -0.01581877 -0.00168956 -0.00239593 -0.02083107
  0.00303923  0.02521028 -0.01058805 -0.0146762 ]
[ 1.1242370e-02 -3.1538077e-02  1.4376037e-02  5.5745977e-07
  2.9608622e-02 -2.9419025e-02  2.1471104e-03 -1.9099288e-02
  3.9721858e-02 -3.9996743e-02  2.7399115e-02  9.3953833e-03
  1.8523432e-02 -2.9975154e-02 -6.3255639e-03  2.8837437e-02]
[ 0.01542453  0.03631505  0.01456695  0.02012032 -0.01447934  0.01416763
 -0.0357821   0.02549518 -0.02861205  0.0452284  -0.04389824 -0.00825244
  0.00012042  0.00615456 -0.0200501  -0.0008074 ]
[ 0.00970329  0.00564654 -0.02014274  0.02203638  0.01412577  0.00556257
 -0.00908453  0.01635556  0.00388762 -0.00781997 -0.01495135 -0.00877766
  0.01133422  0.01040508 -0.04243903  0.00322591]
[ 0.00762238 -0.01521515 -0.01147279 -0.00841779  0.03252439 -0.02335938
  0.01227789 -0.00721168  0.00799437 -0.01975397  0.01586166 -0.00143076
  0.01403937 -0.01186083 -0.01436883 -0.00427865]
[ 0.02675855  0.00499984  0.02356751 -0.00305275  0.00284978  0.00163755
 -0.01536151  0.00403405 -0.00244649  0.00527415  0.00665759 -0.01172727
 -0.00918434  0.00886676 -0.00584934 -0.02590242]
[ 0.04797652 -0.00327833  0.03436438  0.02778456  0.01610058  0.01366943
  0.01791279 -0.00512619 -0.00968341  0.01659216 -0.01852434 -0.02304005
 -0.04815301  0.03807358 -0.00174376 -0.04631939]
[ 0.00986392  0.01046398 -0.00182857 -0.00365298 -0.003202    0.00714939
 -0.00231245 -0.00774117  0.02802574 -0.01352526  0.00073986 -0.00651306
  0.00152323 -0.0004255  -0.00177467 -0.00078135]
[ 0.01911826  0.04273843  0.03699284  0.0218091  -0.01407155  0.04622839
  0.00692432  0.01601022  0.02055448  0.01530398 -0.01033108  0.00529523
 -0.01834722  0.01788376 -0.02624878 -0.00640786]
[ 0.00895468  0.02229652  0.01021213  0.01050614 -0.02563377  0.01465363
 -0.00937799  0.02062988 -0.02682633  0.01276398 -0.02037231 -0.02129163
 -0.03351971  0.0205444  -0.03246265 -0.02460528]
[-0.00583443  0.04006669  0.00936028  0.00219444  0.00374362 -0.0048382
  0.01422119 -0.02002347  0.0212489   0.01274962  0.02079291 -0.00936986
  0.00310478  0.01817552 -0.00795704  0.01247808]
[ 0.0221448   0.01036755  0.01896252  0.01072313  0.01366764  0.0272447
 -0.03051374  0.01394724  0.00697779  0.02992433  0.00936761 -0.0037394
  0.00192725  0.01286708 -0.01998158 -0.00610849]
[-0.00736677  0.00797348  0.00156854 -0.01049334 -0.01177558  0.00369984
  0.00371432  0.02658016 -0.00469931 -0.00122339 -0.01001591  0.01686544
  0.00335425 -0.02204754  0.00357144  0.00763129]
[-0.04049921  0.00072807 -0.03253467 -0.02392432 -0.00713092 -0.02475837
  0.03236843 -0.02459113 -0.01088512 -0.02654279 -0.01693074  0.00421357
  0.03130677 -0.04551081  0.03707196  0.03620952]
[ 0.01951743  0.02497033  0.02824585 -0.00060803 -0.01933552  0.03968796
 -0.00684994  0.00021024 -0.00332401  0.01539257 -0.02954047 -0.01079734
  0.00551473  0.0094844   0.00126545  0.00245649]
[ 0.00472263 -0.01570745  0.02360431  0.0048476  -0.0131032  -0.02392071
 -0.01891265 -0.00666383  0.0066551   0.00694574  0.00795288  0.00165672
 -0.00406639 -0.00100837  0.00012367  0.01230655]
[ 0.06285362  0.08384244  0.05109194  0.04756341 -0.01651675  0.08811611
 -0.03329241  0.03032075 -0.0189032   0.07949343 -0.01312366 -0.01826912
 -0.04450169  0.04348744 -0.03970217 -0.02827314]
[-0.00098902  0.02186467  0.02681996  0.00692873 -0.00348257 -0.0015064
 -0.00389441 -0.01269175 -0.0029661   0.01738743 -0.01785404  0.013515
  0.01162304 -0.00743042 -0.01921359  0.02163867]
[-0.00096073 -0.02337721 -0.023766   -0.01045662 -0.0009792  -0.02589221
 -0.01950032 -0.01201211 -0.01530259 -0.01368558  0.02352886  0.00374703
 -0.00501642  0.00631713 -0.01331059  0.00935696]
[ 0.00013471 -0.00431085  0.00620722  0.00439043  0.00840146  0.016233
 -0.0063598   0.02552789 -0.02175203 -0.00627711  0.0308584  -0.00220931
  0.02884864  0.02575501 -0.04188843 -0.01964724]
[-0.00530766  0.0082315   0.03333822 -0.00936882  0.01793124  0.01886331
 -0.00377462  0.00575579  0.03816374 -0.02369156  0.00619421 -0.01042561
  0.00384908 -0.01937563 -0.02798013 -0.02699599]
[-0.00204167 -0.00059652 -0.001694    0.00529806  0.02501813 -0.01052256
 -0.00228112  0.00449589  0.01470338 -0.02304347  0.00933461 -0.00415955
  0.00684314 -0.00780394 -0.01424945 -0.00518936]
[-0.00482289 -0.01636107 -0.01544861 -0.00662527  0.00997598 -0.00798098
 -0.00353946  0.00958207 -0.01525652  0.01794277  0.00640717  0.00562584
  0.01540117  0.01565609  0.01993483  0.00027682]
[-0.00553638  0.00620126 -0.02320384 -0.0106136   0.01941977 -0.00273659
  0.00262015 -0.01407965  0.00970802  0.01168066  0.00559548 -0.00987006
 -0.00495916  0.00107144  0.00214838 -0.02723687]
[-0.0002924  -0.02174448  0.00598879  0.00470696  0.00979801 -0.02462489
  0.00455361 -0.00070464  0.05016692 -0.0047015   0.04946651 -0.0060928
 -0.01262662 -0.00925458 -0.02485102  0.01674654]
[-0.01674372 -0.00933549 -0.02344309  0.0047824  -0.00103103 -0.0175182
  0.01787437 -0.00475177 -0.01518793 -0.01929736 -0.02770847  0.00349775
  0.03320811 -0.00243867  0.01309838  0.03680615]
[ 0.00388774  0.00868557  0.01930466  0.01114838 -0.0133112   0.00484362
  0.00444135  0.01868129 -0.00868312 -0.02329345 -0.00620777 -0.01008345
  0.01407842  0.00076422 -0.00985107 -0.00882238]
[ 0.00459805  0.0138211   0.02539694  0.01373214 -0.01309141  0.00915618
  0.01481051 -0.01468054 -0.009779    0.03406968 -0.03366907 -0.01088007
  0.04126668 -0.01541292  0.01627079 -0.00245628]
[ 0.01350525 -0.00288299  0.01384683 -0.01571194 -0.00441021  0.01212866
  0.0021895   0.00748132  0.01987961  0.01085271 -0.00049932  0.00924286
  0.01144255 -0.01686632  0.00457038  0.00426405]
[ 0.01333078 -0.00039728 -0.01769713 -0.00624892 -0.00318811 -0.01361991
  0.0051252   0.01453428 -0.01101204 -0.00525316 -0.0125166   0.00147788
 -0.01727867 -0.00676139 -0.00806275 -0.01508856]
[ 0.00317546 -0.03157365 -0.01914033 -0.02172406  0.07256198 -0.01207602
  0.00604891 -0.06404781  0.07348024 -0.04884247  0.04356976  0.01345973
  0.01530927 -0.04085574 -0.01458889  0.01482543]
[-0.00076152  0.0256696  -0.00615283 -0.00163517 -0.00308517  0.00182846
  0.00810974  0.00851958 -0.02616507  0.01095181 -0.03905796 -0.00182842
  0.01219162  0.00707861 -0.00094424 -0.0011813 ]
[ 0.00075972  0.00558107 -0.00942858  0.00114293  0.00941922  0.00483416
  0.00698031 -0.00010232  0.01173094 -0.01784725  0.00517125 -0.00263865
 -0.01324761  0.00319121 -0.01949315 -0.00968085]
[ 0.01074682 -0.00946519  0.00348752  0.00946847  0.02651859  0.01800388
 -0.01388697 -0.00149426  0.02381237 -0.02401745 -0.00767622  0.01248436
 -0.01352041 -0.00987692 -0.01859699  0.0097797 ]
[ 0.04835243  0.0455263   0.05121183  0.03492942 -0.05218745  0.06678929
 -0.01875685  0.04123062 -0.03482959  0.06009318 -0.06231617 -0.03769672
 -0.00586666  0.02606832 -0.03343865  0.00784974]
[-0.00183005 -0.02065151  0.01408722 -0.01120894  0.01329811  0.00684461
 -0.00812038 -0.00022578  0.01300474 -0.02778165 -0.00450286 -0.0157715
  0.01606647  0.01604704 -0.03170598 -0.00337882]
[ 0.01573674  0.00750238 -0.01359779  0.00456413  0.01563682  0.00062775
  0.00164824 -0.02291177  0.00321601 -0.01678146  0.01156594  0.00314108
 -0.00382002 -0.01338759 -0.00890704  0.00586128]
[ 0.02111885 -0.02030797  0.0018707   0.0101698   0.02624505  0.00505348
 -0.0116993  -0.01796199 -0.01540099  0.00528139 -0.01084083 -0.00327861
  0.02346428  0.00050006  0.00658075  0.00080014]
[-0.00399199 -0.01911795 -0.00247183  0.00180948  0.05434626 -0.02340809
  0.02092746 -0.03390015  0.05109046 -0.0049138   0.00604755  0.03125656
  0.00874604 -0.01362086  0.01439147  0.00390053]
[ 0.0181853   0.00948212  0.02669494  0.00706453  0.02183254 -0.00480066
 -0.01798572 -0.02259771  0.02234026 -0.02733477  0.00318267  0.00925283
  0.00669942  0.0083094  -0.00809893  0.00099397]
[ 0.01141295  0.01825064  0.05443492  0.02551124  0.01353541  0.02986419
 -0.02747441  0.00432313  0.01611471  0.02457813 -0.01452979 -0.01697202
 -0.01391607  0.02035626 -0.05850991 -0.0154876 ]
[ 0.01417508  0.02491234 -0.00327613  0.02420118  0.0204654   0.00647264
 -0.0164517   0.0297025  -0.01123775 -0.0111167  -0.01005344 -0.02711814
 -0.02536464  0.00215652 -0.0161777  -0.02322526]
[ 0.01623192  0.00357549  0.01316669 -0.02008066  0.01325932 -0.00016099
 -0.00411893 -0.00397969  0.02793647 -0.01521668  0.03800416  0.01021414
 -0.01225173 -0.01092619 -0.00979787 -0.01419938]
[ 0.03995584  0.03487112  0.00583961  0.02628483  0.01284765  0.0490416
 -0.01168205  0.0171451   0.01258136  0.02949254 -0.0203105  -0.01981365
 -0.00502494  0.00812659 -0.02423466 -0.0310464 ]
[-2.2664585e-03  3.2478137e-04 -2.3489865e-02 -2.3306755e-02
 -4.9935292e-02 -8.6780974e-06  9.8266685e-03 -4.0428950e-03
 -9.1446759e-03 -1.7662394e-03 -6.4505385e-03  1.6876111e-02
  1.7429978e-02 -1.0924523e-03 -2.1174448e-03  8.3780326e-03]
[-0.01716973 -0.01293182 -0.00323067 -0.01451967 -0.00100294 -0.02653255
  0.01437789 -0.04893287 -0.00803356 -0.01699978 -0.02229877  0.01412946
  0.03324634 -0.02041562  0.02320592  0.02129347]
[ 1.1846709e-02  1.4399948e-02  8.2989112e-03  3.5184040e-03
 -5.7072684e-02  1.6078988e-02 -2.3779728e-02  1.8307986e-02
 -1.9662401e-02  1.5896078e-02 -1.8478323e-02 -9.9294726e-03
 -2.2138944e-03  1.7428974e-02 -6.1901061e-05  6.8673212e-04]
[ 0.02196287  0.01077215  0.04586128 -0.00502694  0.00593875  0.00826195
 -0.0081604   0.01267378 -0.00028444 -0.02173726 -0.01470618 -0.0071543
  0.00064753  0.01927026 -0.01593461 -0.01767292]
[ 0.03130754  0.02727014  0.02900393  0.03269355 -0.02690189  0.04159546
 -0.02463711  0.02207195 -0.00857213  0.05829678 -0.02631692 -0.00636486
 -0.02669547  0.02288442 -0.02236756 -0.02543442]
[ 0.01994945  0.05495929  0.06826798  0.02436185 -0.00991729  0.02059333
 -0.0366907   0.02297589  0.00040647  0.01906347 -0.01941248 -0.03203283
 -0.00649587  0.0097642  -0.01552573 -0.01343412]
[ 0.0005779  -0.01966848 -0.0176136  -0.00561444  0.04664443 -0.00824882
  0.00714469  0.01321704  0.01807571 -0.02494299  0.03679624 -0.01572244
  0.00266146 -0.01077154 -0.01190046  0.00313325]
[ 0.01589437  0.00715419  0.01867826  0.03210749 -0.00986185  0.00159763
 -0.01887185 -0.01370686  0.02288179  0.00364858 -0.0086469   0.00879712
 -0.00197225 -0.0131791  -0.02466735  0.01424049]
[-0.02009774 -0.01229372 -0.01827732 -0.01375372  0.04573256 -0.03712232
  0.05627089 -0.006532    0.05664022 -0.04481614  0.02563478 -0.00422755
 -0.01270627 -0.00921044 -0.0056261  -0.02741542]
[-0.00324573 -0.01892408 -0.02008223  0.00370178  0.02454722  0.00443945
  0.01766912 -0.01509723  0.00791407 -0.00681146  0.00452578 -0.00327412
 -0.00624322  0.01267991  0.0126518  -0.00789428]
[-0.00067391  0.01057515 -0.00135193  0.02382842 -0.01218108 -0.00844435
 -0.02912813  0.00677597 -0.02715983  0.00840334 -0.00012572 -0.00858121
 -0.01861669  0.01500824 -0.01487407 -0.01677975]
[ 0.01064599 -0.00396013 -0.01410772  0.02551227 -0.02488425 -0.00956976
  0.00810915  0.0132744   0.00833815  0.02872522 -0.0433448  -0.01821457
 -0.02848232  0.00333279 -0.00415486 -0.00513473]
[-0.01632438 -0.03201973 -0.00675057 -0.01744446  0.01391603 -0.01913358
  0.058845   -0.02975552  0.04937977 -0.04105071  0.05468312  0.00996923
  0.02746379 -0.01367484 -0.00010539 -0.02112971]
[ 0.02335593 -0.00854066  0.00533496 -0.01732631 -0.00775382 -0.02561985
  0.01464034  0.01220388 -0.0116483  -0.00680784  0.00037206  0.00132802
  0.00822722  0.01484825  0.01619415  0.00125003]
[ 0.0157012   0.03279644  0.01592141  0.0115964  -0.00563819  0.01007549
  0.0046549   0.01648384 -0.01055844 -0.00282216 -0.03286851 -0.01499469
 -0.00414445  0.00282739 -0.02687077 -0.01808552]
[-0.04272732 -0.01004502  0.0152989  -0.03363241  0.01445035  0.01109579
  0.02537295 -0.01728985  0.01738557 -0.02890251  0.0216966   0.02401783
  0.06915908 -0.04537243  0.02989786  0.05231202]
[ 0.02022051  0.00764972  0.00486658  0.00693182 -0.04332998  0.00317952
 -0.00349574  0.02542304 -0.00832368  0.01537833 -0.03335445  0.02877362
  0.04401748 -0.00061323  0.02408207  0.01884922]
[-0.00510758 -0.01695447  0.00800408  0.00334164  0.01711644  0.00532132
 -0.00618882  0.00583345  0.02115605 -0.01517595  0.01105632 -0.00643889
 -0.01413251 -0.0006097   0.00607482  0.00373094]
[ 0.02200544 -0.05456895  0.00848551 -0.03687784  0.05387615 -0.02254912
  0.0369141  -0.05297798  0.06152406 -0.0414582   0.04034507  0.01252688
  0.03558666 -0.05600929  0.02634681  0.01881554]
[ 1.5913827e-05  3.1909138e-02  1.0121279e-02  2.5248346e-03
 -3.9917909e-02  1.2627706e-02 -7.9568261e-03  8.0009243e-03
 -1.4784817e-02  1.7334752e-02 -5.0052620e-02 -2.1163305e-02
 -1.0837414e-04  2.0392999e-02 -8.3724624e-03 -8.8302669e-04]
[ 0.00584403  0.00573578  0.01060959  0.00436951  0.01231853 -0.00400754
 -0.00547892  0.00936916 -0.00011658 -0.01647619  0.00179502 -0.00882048
 -0.04044329  0.02167311 -0.03743259 -0.016614  ]
[ 0.02341538 -0.0287855   0.0158245   0.01870098  0.02232994  0.01617258
 -0.00178038 -0.03453165  0.01849066  0.01411117 -0.00241867 -0.00623788
 -0.01378995 -0.03443592 -0.02272797 -0.00313809]
[ 0.00222125 -0.0274532   0.00426951  0.0242076  -0.02500541  0.008742
 -0.01207385 -0.00825642 -0.00441277  0.02366183 -0.0123572  -0.0059611
  0.02347975  0.01343392 -0.01045605  0.01866757]
[ 0.00253531  0.00500304  0.02264478  0.0017273   0.01101884  0.01879067
  0.00351398 -0.02034675  0.0322292  -0.00124362  0.03058339  0.00942646
  0.00059083 -0.00485269 -0.04500742 -0.00438637]
[-0.01213103 -0.01853753 -0.02117337 -0.00197693  0.0427292  -0.02395741
  0.02110454 -0.03277786 -0.00267271 -0.04238764  0.02260794  0.01548477
 -0.00857635 -0.00979824 -0.01234561  0.00293303]
[ 0.02537467  0.01447805  0.0287327  -0.00497292 -0.02145732 -0.00071532
 -0.01994345  0.04280301 -0.04531319  0.00183983 -0.02382084 -0.02947892
 -0.00837949  0.00274602 -0.03176726  0.00322022]
[ 0.01191901 -0.00456125  0.06568893  0.02035287  0.01873451  0.01595448
 -0.00530097  0.0206841   0.00819174  0.0090407  -0.00067899 -0.02919374
 -0.03508046 -0.00518691 -0.03814914 -0.02348727]
[ 0.01182037 -0.00391562  0.00909636 -0.01646556  0.06768259 -0.00037426
  0.00056365 -0.02154907  0.03388099 -0.02585777 -0.01382572  0.0018486
 -0.00882728 -0.01092739 -0.02349396  0.01308038]
[ 0.03507243  0.010244    0.0569609   0.01554555  0.01689132  0.04943801
 -0.01012843  0.01393879  0.02124073  0.04246713 -0.00808871 -0.04106363
 -0.03536552  0.02197846 -0.04337579  0.00395206]
[ 0.01288145 -0.00650641  0.00414263  0.0056433   0.01541839  0.02202024
 -0.00494603 -0.0028083  -0.00524349 -0.00028127  0.00541104 -0.01267049
 -0.02079246 -0.00322805 -0.01226051 -0.01359826]
[-0.00526589  0.01794443  0.00998973  0.0239404   0.01698136  0.01319968
  0.02797782 -0.02297971  0.03809205  0.00276491  0.0052671  -0.00377579
 -0.00195652 -0.01326627  0.00589059 -0.01941992]
[ 0.05791477 -0.00665836  0.05518998  0.04110139 -0.02436003  0.05356563
 -0.02236721  0.02736281 -0.01099695  0.00450443 -0.0084342  -0.0091498
 -0.0418288   0.03688425 -0.03609202 -0.02014566]
[ 0.0104771  -0.00927093 -0.01595833 -0.01253982 -0.03048225 -0.02453826
 -0.00446668 -0.00770858  0.00345946  0.00453735 -0.00646828  0.00409173
  0.02613723 -0.02210989  0.00057311  0.0088235 ]
