param weight_conv1:=
filter0:
[[ 0.08327379 -0.0684197  -0.02332418  0.04049208  0.10305002  0.02645824
   0.02751506  0.03275871]
 [ 0.0735219   0.07167508 -0.09990206 -0.04228229 -0.02350833  0.07236238
  -0.1061395  -0.10969879]
 [ 0.05978762 -0.09929097  0.00461948  0.08311694 -0.08780773  0.07093533
   0.07321635 -0.02341933]]
[[-0.06432527 -0.16150871 -0.19027846  0.0485569  -0.10300606 -0.00546495
  -0.08442558  0.04518779]
 [ 0.04310917 -0.21142629 -0.10456748 -0.07203136  0.00870412 -0.09026341
   0.07815333  0.09247981]
 [-0.01724443 -0.16356316 -0.08511722 -0.09350566 -0.16538556 -0.05181656
   0.12482964 -0.01215756]]

filter1:
[[ 0.03925449  0.03675665 -0.14498653  0.06684016  0.06352773  0.0413797
   0.03643596  0.01821192]
 [-0.04265041 -0.09884711 -0.22474588 -0.16950952 -0.0176657  -0.1273624
   0.08363343 -0.04940216]
 [ 0.17336114  0.06681512  0.00047856 -0.03300014  0.09153032  0.09190947
   0.16445304 -0.05806363]]
[[-0.0589004  -0.06135074  0.00896633 -0.02667559 -0.09805485  0.07162941
   0.03042859 -0.01259403]
 [ 0.09203376 -0.00398251 -0.10452103  0.029396    0.00710109 -0.03481209
   0.01149165  0.06576764]
 [ 0.05038837 -0.04692299  0.01900098  0.02403415  0.07695334  0.06456316
  -0.1060317   0.00995636]]

filter2:
[[-0.06313675  0.09536657  0.12249345 -0.0022787  -0.06851295 -0.046534
   0.06770362  0.06499361]
 [-0.12037101  0.03333321  0.02537855 -0.04482994 -0.1736112   0.06858583
  -0.30070212  0.14869198]
 [ 0.02830241 -0.01405925  0.06107365  0.10070026  0.04008547 -0.07965202
  -0.03476523  0.08343194]]
[[ 0.04609501  0.07507081  0.04758178 -0.01659796  0.05781332 -0.07355379
  -0.07980165 -0.01540002]
 [-0.03235413  0.04685645 -0.08061282 -0.12326775  0.0739143   0.12300856
   0.06357429 -0.03272314]
 [-0.01316558 -0.02239837 -0.04332259 -0.00801169 -0.03602878  0.06023678
  -0.00208619 -0.0691174 ]]

filter3:
[[-0.0794943  -0.07449824  0.09395237  0.08582697  0.01934274  0.03701417
   0.08161213  0.04591784]
 [-0.06242189  0.00033911  0.10393994 -0.05389122  0.11789344  0.06752938
   0.00131337  0.02969465]
 [ 0.00554194  0.04290991  0.02515026 -0.06147479  0.00961133 -0.09195685
  -0.17999284 -0.0980675 ]]
[[ 0.08992665 -0.09670937 -0.16687617 -0.125432   -0.04856465  0.05061217
  -0.08825097 -0.02577119]
 [ 0.0717934  -0.15450355 -0.21127652  0.00427094 -0.02926718  0.04813656
   0.02708638 -0.02206024]
 [-0.03109699 -0.18417893 -0.0157663  -0.08113708  0.11400116 -0.08854939
   0.04798734  0.07744762]]

filter4:
[[ 0.09482533 -0.07622616 -0.12798595 -0.07678179 -0.09525478  0.01779966
   0.11113093  0.04921088]
 [-0.06965824 -0.11193997 -0.20627418 -0.02510092  0.05737538 -0.04396629
   0.13372141  0.03581817]
 [ 0.12310205 -0.06171045 -0.14522499 -0.04697727  0.13008992  0.03891063
   0.07015351  0.09019986]]
[[ 0.01722817  0.03264735  0.13896807 -0.04130378  0.02924064  0.04969067
   0.08406913  0.00571034]
 [-0.13687827  0.03551336 -0.07087988 -0.1085307  -0.09251224  0.12539527
  -0.03943923 -0.03485878]
 [-0.08120397 -0.06099005  0.00397801  0.0177351  -0.04429355 -0.02508916
   0.15400657 -0.05237697]]

filter5:
[[-0.01459625  0.02322764  0.1142128   0.00668109 -0.14928253 -0.03547046
  -0.21533029  0.08333195]
 [ 0.15155117  0.10665067  0.25967696 -0.0887109  -0.21026596 -0.06611925
  -0.37679178  0.04125113]
 [ 0.06335476 -0.01438538 -0.00677804 -0.08637128 -0.03480085 -0.00663564
  -0.06245473  0.0165439 ]]
[[ 0.07075786 -0.0246761  -0.00506669  0.12198151  0.060851    0.01412607
   0.00462228 -0.07928483]
 [ 0.05352706  0.09021033 -0.07858948  0.01965247  0.02760274 -0.00372287
  -0.0660977   0.06057834]
 [-0.05376536 -0.07785359 -0.11073098  0.08232128 -0.04801179 -0.03395425
  -0.04215263  0.10896195]]

filter6:
[[-0.02903532 -0.02005431  0.1103674   0.03733518  0.01818119 -0.08671985
  -0.06035073  0.04313042]
 [-0.14752631  0.01887158  0.1279093   0.06333877 -0.09105607 -0.03047775
  -0.13236505  0.00901294]
 [-0.0739757   0.03989291  0.05298285  0.03361249 -0.02062097  0.06270511
   0.07796863  0.11713696]]
[[ 0.06293017 -0.02410709 -0.03681996 -0.13988793  0.06218513  0.08652335
  -0.01485525 -0.0134575 ]
 [-0.02445938  0.06274318 -0.13496165 -0.15980275 -0.08526645  0.03460474
   0.01995408 -0.00490564]
 [-0.03909192 -0.00186083 -0.09652229 -0.06138799  0.05688497  0.10873397
  -0.07556998  0.08293398]]

filter7:
[[ 0.15230446  0.05064866 -0.02887091  0.09022905  0.07609074  0.10537571
   0.09479631  0.03605641]
 [ 0.08008917 -0.12325118 -0.1001996  -0.18123078 -0.19662124 -0.0767324
  -0.07372476 -0.09402373]
 [ 0.11238188 -0.03417515 -0.08559398 -0.03631399  0.1016831   0.13555942
  -0.03392048  0.04194678]]
[[-0.0636108   0.07863852  0.07420748 -0.06064609  0.04707878 -0.09803386
   0.0853215  -0.00644039]
 [ 0.00386976  0.09686295  0.12024575 -0.05213531  0.04115216 -0.11559165
   0.07646182 -0.07103929]
 [-0.06719714  0.01751495 -0.09299852 -0.04575127 -0.07727457  0.00320084
   0.0290657   0.02921671]]

filter8:
[[-0.03641191  0.13526578  0.15870166  0.06417233  0.12550922  0.21013625
   0.11319997  0.04872064]
 [ 0.00257501  0.14504941  0.08524568 -0.14356165 -0.04814908  0.08136061
  -0.04124526 -0.0688927 ]
 [ 0.00929686  0.00730871  0.03585958 -0.23617934 -0.1945199  -0.17839378
  -0.11076865 -0.15958516]]
[[ 0.00843962  0.07619409 -0.06405229 -0.09931009  0.05161948 -0.12253041
   0.02302116 -0.00986143]
 [-0.04635753  0.03894932  0.03963288  0.05181741  0.07719368  0.10580833
   0.03231072  0.01213074]
 [-0.06884535  0.07936349 -0.12644553  0.01772289 -0.0114598  -0.05446055
  -0.01616503  0.04919932]]

filter9:
[[ 0.00076958 -0.05748752 -0.19113368  0.03761933 -0.11697221 -0.09399725
  -0.03093508 -0.04342835]
 [ 0.09765533  0.10275469 -0.03843376  0.27440488  0.22087684  0.14393109
   0.16113833  0.02177973]
 [ 0.01763457 -0.04905242 -0.16097383  0.00959112 -0.07573957 -0.12083758
  -0.10258849  0.0055728 ]]
[[ 0.10419334  0.04674063 -0.13847484  0.02638032 -0.02656119 -0.01285905
  -0.00933443 -0.03609647]
 [-0.09158296  0.12182637 -0.13127695  0.05813558  0.02827906 -0.06298626
   0.01826573  0.00595257]
 [-0.0722819   0.00767004  0.01384543  0.13895456 -0.13535714  0.14077675
  -0.04474561  0.05286727]]

filter10:
[[ 0.02064083  0.00084258  0.06314852 -0.01291864  0.1629399  -0.11542451
   0.12197915 -0.14230072]
 [ 0.02594989 -0.0396597  -0.27517834 -0.02332967 -0.0156082  -0.00729006
   0.29297692 -0.00180475]
 [ 0.10452163  0.09847613 -0.06380349 -0.09651636  0.0591227  -0.08711683
   0.00227421 -0.04332283]]
[[ 0.08336971 -0.01742839  0.08232401 -0.06476439  0.02103368  0.05435865
  -0.05352428 -0.01328001]
 [-0.10306226  0.02540547  0.01230799  0.05968096  0.06768762  0.02185538
   0.03645991 -0.05234253]
 [ 0.08900519 -0.05074166 -0.02829434 -0.04999305 -0.10200061 -0.02581404
   0.04832109 -0.0350871 ]]

filter11:
[[-0.08306821 -0.04310552 -0.06320376 -0.08940345 -0.18752022 -0.10409509
   0.14104235 -0.01212281]
 [ 0.12589507 -0.05495187 -0.17332442 -0.03712931 -0.21273066  0.01627641
   0.14113154 -0.03661691]
 [ 0.11195917  0.07759827  0.00265346 -0.00745107  0.03822671  0.01404535
   0.22013824 -0.01733355]]
[[ 0.09909721  0.00761758 -0.06832097 -0.08869003 -0.08645105 -0.09024864
  -0.10966367  0.10829082]
 [ 0.05456411  0.05947041 -0.062009   -0.05036503 -0.0259707  -0.09383386
   0.07807408 -0.04372695]
 [ 0.04192631  0.02583     0.08439378 -0.11572079  0.05210228  0.04477159
   0.09310177 -0.00050769]]

filter12:
[[ 0.1633765   0.08187483  0.06562393  0.00706694 -0.06551865 -0.01137876
  -0.02613295  0.08091912]
 [ 0.1941697  -0.056329    0.04387207  0.05534604 -0.19545715 -0.04695156
  -0.01651734 -0.11555257]
 [-0.08622145  0.04958573  0.10936176  0.04245393 -0.10318547 -0.0999486
  -0.04451569 -0.06009602]]
[[ 0.05076573 -0.02912062  0.02076976  0.0808567   0.03090035 -0.11245675
   0.00883355 -0.01669638]
 [-0.08878414 -0.03681197  0.0725555  -0.05038561  0.06986925  0.0804177
   0.09844402  0.04145048]
 [ 0.07639818 -0.04891459  0.06692557 -0.05877222 -0.00823621 -0.09979694
  -0.0011498  -0.09389039]]

filter13:
[[ 0.04864812  0.13053332  0.10874506  0.03487007 -0.04911012 -0.05544193
   0.08123736  0.10165153]
 [ 0.22819148  0.10147858 -0.02658036 -0.02592181 -0.04696131 -0.06313846
  -0.25090167  0.01420478]
 [ 0.04590536  0.09962447 -0.05925839 -0.06936624 -0.20334105 -0.12380765
  -0.1470821  -0.13132036]]
[[-0.10677417  0.09468488 -0.02483671 -0.02575323 -0.09231788  0.0213166
  -0.01284426  0.06410422]
 [ 0.05724362 -0.01046587 -0.01363116 -0.00370725  0.11982154  0.04596039
  -0.01960969 -0.00075845]
 [ 0.01474214 -0.05230662  0.03405581  0.12051761 -0.04438742  0.14314504
  -0.089971    0.056633  ]]

filter14:
[[ 0.11808474  0.07116616  0.00742063  0.01823916 -0.18786207  0.04449165
   0.21453588  0.05971429]
 [ 0.10461853  0.00670792 -0.10871819 -0.14366274 -0.3592242  -0.18742335
   0.10805212 -0.07459036]
 [ 0.05983112  0.03055555  0.00361973  0.1023707  -0.14351247 -0.04734865
   0.18107872  0.0659842 ]]
[[-2.32500955e-02  8.83626286e-03  4.74434830e-02  6.70419037e-02
   4.67638411e-02 -3.00936513e-02  3.14767249e-02 -4.50563654e-02]
 [-4.10461798e-02  9.34376121e-02 -4.41713259e-02 -4.22790423e-02
   1.16066754e-01  5.77539951e-02 -1.41469689e-04  2.63202116e-02]
 [-7.72321001e-02 -2.70563066e-02 -1.72407664e-02 -6.81935102e-02
   8.69943276e-02 -8.48914832e-02 -1.54283151e-01  6.67390376e-02]]

filter15:
[[-0.11547754  0.03910419  0.1625499   0.01501749  0.04200113 -0.09587158
  -0.08395554 -0.12008478]
 [ 0.02159612 -0.01809384  0.16010351 -0.01248493  0.05735558 -0.02879884
   0.0473107   0.02874833]
 [-0.01364037 -0.11622498  0.09139255  0.00733792  0.12984447  0.02803334
  -0.07199336 -0.07759046]]
[[ 0.06786005  0.06109168  0.05449827 -0.1567155  -0.17878467  0.09868037
   0.08706145 -0.06491255]
 [-0.04946667  0.00621373 -0.06955897 -0.15920666 -0.04301189  0.05801756
   0.06690931  0.05810031]
 [ 0.03400598  0.00497845 -0.02939263 -0.07170102 -0.0809017   0.0827463
  -0.05913889 -0.07155367]]

